<?xml version="1.0"?>
<opencv_storage>
<cascade>
  <stageType>BOOST</stageType>
  <featureType>HAAR</featureType>
  <height>24</height>
  <width>16</width>
  <stageParams>
    <boostType>GAB</boostType>
    <minHitRate>9.9500000476837158e-01</minHitRate>
    <maxFalseAlarm>5.0000000000000000e-01</maxFalseAlarm>
    <weightTrimRate>9.4999999999999996e-01</weightTrimRate>
    <maxDepth>1</maxDepth>
    <maxWeakCount>100</maxWeakCount></stageParams>
  <featureParams>
    <maxCatCount>0</maxCatCount>
    <featSize>1</featSize>
    <mode>BASIC</mode></featureParams>
  <stageNum>10</stageNum>
  <stages>
    <!-- stage 0 -->
    <_>
      <maxWeakCount>22</maxWeakCount>
      <stageThreshold>-8.5718417167663574e-01</stageThreshold>
      <weakClassifiers>
        <_>
          <internalNodes>
            0 -1 14 -6.6662594676017761e-02</internalNodes>
          <leafValues>
            7.7574968338012695e-01 8.4258116781711578e-02</leafValues></_>
        <_>
          <internalNodes>
            0 -1 26 1.6381151974201202e-01</internalNodes>
          <leafValues>
            -1.2014017999172211e-01 6.1106729507446289e-01</leafValues></_>
        <_>
          <internalNodes>
            0 -1 371 -6.0351274441927671e-04</internalNodes>
          <leafValues>
            3.4359928965568542e-01 -2.4290713667869568e-01</leafValues></_>
        <_>
          <internalNodes>
            0 -1 5 -5.5805407464504242e-02</internalNodes>
          <leafValues>
            4.7921189665794373e-01 -1.5696710348129272e-01</leafValues></_>
        <_>
          <internalNodes>
            0 -1 55 5.6419014930725098e-02</internalNodes>
          <leafValues>
            -8.9664585888385773e-02 6.4160066843032837e-01</leafValues></_>
        <_>
          <internalNodes>
            0 -1 167 -5.1414277404546738e-03</internalNodes>
          <leafValues>
            2.7572646737098694e-01 -2.2707498073577881e-01</leafValues></_>
        <_>
          <internalNodes>
            0 -1 3 1.1591778695583344e-01</internalNodes>
          <leafValues>
            -9.2035509645938873e-02 5.8950257301330566e-01</leafValues></_>
        <_>
          <internalNodes>
            0 -1 214 1.0441847145557404e-01</internalNodes>
          <leafValues>
            -1.0031440109014511e-01 5.5476689338684082e-01</leafValues></_>
        <_>
          <internalNodes>
            0 -1 383 -8.3931605331599712e-04</internalNodes>
          <leafValues>
            3.4364882111549377e-01 -1.9123004376888275e-01</leafValues></_>
        <_>
          <internalNodes>
            0 -1 242 1.7284307628870010e-02</internalNodes>
          <leafValues>
            7.5156681239604950e-02 -7.7707207202911377e-01</leafValues></_>
        <_>
          <internalNodes>
            0 -1 182 -8.4269267972558737e-04</internalNodes>
          <leafValues>
            2.9494896531105042e-01 -1.7927776277065277e-01</leafValues></_>
        <_>
          <internalNodes>
            0 -1 294 5.2727339789271355e-04</internalNodes>
          <leafValues>
            -1.5729601681232452e-01 3.2961964607238770e-01</leafValues></_>
        <_>
          <internalNodes>
            0 -1 294 -3.3464771695435047e-04</internalNodes>
          <leafValues>
            2.8293433785438538e-01 -2.1645709872245789e-01</leafValues></_>
        <_>
          <internalNodes>
            0 -1 280 -9.9843814969062805e-03</internalNodes>
          <leafValues>
            -6.8896257877349854e-01 1.0924116522073746e-01</leafValues></_>
        <_>
          <internalNodes>
            0 -1 197 -7.3357587680220604e-03</internalNodes>
          <leafValues>
            -8.2845050096511841e-01 5.9245157986879349e-02</leafValues></_>
        <_>
          <internalNodes>
            0 -1 187 5.2419106941670179e-04</internalNodes>
          <leafValues>
            -1.8207123875617981e-01 3.0445462465286255e-01</leafValues></_>
        <_>
          <internalNodes>
            0 -1 187 -3.9057910908013582e-04</internalNodes>
          <leafValues>
            3.1378731131553650e-01 -2.1561676263809204e-01</leafValues></_>
        <_>
          <internalNodes>
            0 -1 227 -7.3991626501083374e-02</internalNodes>
          <leafValues>
            5.0557953119277954e-01 -9.0865217149257660e-02</leafValues></_>
        <_>
          <internalNodes>
            0 -1 72 -4.6598364133387804e-04</internalNodes>
          <leafValues>
            2.7882099151611328e-01 -1.9940307736396790e-01</leafValues></_>
        <_>
          <internalNodes>
            0 -1 291 -1.0343747213482857e-02</internalNodes>
          <leafValues>
            -9.0180540084838867e-01 4.9557562917470932e-02</leafValues></_>
        <_>
          <internalNodes>
            0 -1 345 -1.0688572656363249e-03</internalNodes>
          <leafValues>
            3.3357557654380798e-01 -1.7503622174263000e-01</leafValues></_>
        <_>
          <internalNodes>
            0 -1 259 -1.5089614316821098e-02</internalNodes>
          <leafValues>
            -8.5725271701812744e-01 6.5095148980617523e-02</leafValues></_></weakClassifiers></_>
    <!-- stage 1 -->
    <_>
      <maxWeakCount>25</maxWeakCount>
      <stageThreshold>-9.8406076431274414e-01</stageThreshold>
      <weakClassifiers>
        <_>
          <internalNodes>
            0 -1 369 -3.1994991004467010e-03</internalNodes>
          <leafValues>
            5.0318473577499390e-01 6.1349691823124886e-03</leafValues></_>
        <_>
          <internalNodes>
            0 -1 175 -9.0374145656824112e-04</internalNodes>
          <leafValues>
            3.8071897625923157e-01 -1.6047777235507965e-01</leafValues></_>
        <_>
          <internalNodes>
            0 -1 7 -6.9256857037544250e-02</internalNodes>
          <leafValues>
            4.6142739057540894e-01 -1.3568875193595886e-01</leafValues></_>
        <_>
          <internalNodes>
            0 -1 25 7.0935070514678955e-02</internalNodes>
          <leafValues>
            -1.8924988806247711e-01 4.1630449891090393e-01</leafValues></_>
        <_>
          <internalNodes>
            0 -1 211 -7.4361829319968820e-04</internalNodes>
          <leafValues>
            3.3491995930671692e-01 -1.9195951521396637e-01</leafValues></_>
        <_>
          <internalNodes>
            0 -1 385 -7.7280675759539008e-04</internalNodes>
          <leafValues>
            3.0748122930526733e-01 -1.9857357442378998e-01</leafValues></_>
        <_>
          <internalNodes>
            0 -1 82 -7.5582345016300678e-04</internalNodes>
          <leafValues>
            3.1137487292289734e-01 -1.9593760371208191e-01</leafValues></_>
        <_>
          <internalNodes>
            0 -1 176 6.2883156351745129e-04</internalNodes>
          <leafValues>
            -1.8007048964500427e-01 3.5549977421760559e-01</leafValues></_>
        <_>
          <internalNodes>
            0 -1 177 -6.7409360781311989e-04</internalNodes>
          <leafValues>
            3.6561265587806702e-01 -1.9610506296157837e-01</leafValues></_>
        <_>
          <internalNodes>
            0 -1 152 3.6000739783048630e-02</internalNodes>
          <leafValues>
            1.0216493904590607e-01 -7.4848151206970215e-01</leafValues></_>
        <_>
          <internalNodes>
            0 -1 380 -4.8421900719404221e-03</internalNodes>
          <leafValues>
            3.0873796343803406e-01 -1.9667348265647888e-01</leafValues></_>
        <_>
          <internalNodes>
            0 -1 321 8.8549271225929260e-02</internalNodes>
          <leafValues>
            -6.9690853357315063e-02 5.5875772237777710e-01</leafValues></_>
        <_>
          <internalNodes>
            0 -1 266 -1.2748857261613011e-03</internalNodes>
          <leafValues>
            2.2395369410514832e-01 -2.2657443583011627e-01</leafValues></_>
        <_>
          <internalNodes>
            0 -1 180 -8.8381202658638358e-04</internalNodes>
          <leafValues>
            3.6630558967590332e-01 -1.4366599917411804e-01</leafValues></_>
        <_>
          <internalNodes>
            0 -1 150 -5.8400153648108244e-04</internalNodes>
          <leafValues>
            3.0401414632797241e-01 -1.8989209830760956e-01</leafValues></_>
        <_>
          <internalNodes>
            0 -1 76 1.7344448715448380e-02</internalNodes>
          <leafValues>
            -9.4988718628883362e-02 5.0150114297866821e-01</leafValues></_>
        <_>
          <internalNodes>
            0 -1 376 -1.1024421546608210e-03</internalNodes>
          <leafValues>
            3.1218838691711426e-01 -1.5572896599769592e-01</leafValues></_>
        <_>
          <internalNodes>
            0 -1 228 -6.9199060089886189e-04</internalNodes>
          <leafValues>
            3.0058738589286804e-01 -1.7254142463207245e-01</leafValues></_>
        <_>
          <internalNodes>
            0 -1 186 -3.6725759506225586e-02</internalNodes>
          <leafValues>
            -9.2876559495925903e-01 6.3441701233386993e-02</leafValues></_>
        <_>
          <internalNodes>
            0 -1 65 -5.3135462803766131e-04</internalNodes>
          <leafValues>
            2.9271668195724487e-01 -1.8422314524650574e-01</leafValues></_>
        <_>
          <internalNodes>
            0 -1 66 2.0221754908561707e-02</internalNodes>
          <leafValues>
            -1.7799034714698792e-01 2.8279405832290649e-01</leafValues></_>
        <_>
          <internalNodes>
            0 -1 147 -9.7772176377475262e-04</internalNodes>
          <leafValues>
            3.3000239729881287e-01 -1.4660653471946716e-01</leafValues></_>
        <_>
          <internalNodes>
            0 -1 144 6.7184325307607651e-03</internalNodes>
          <leafValues>
            -1.7315508425235748e-01 3.4813544154167175e-01</leafValues></_>
        <_>
          <internalNodes>
            0 -1 373 -1.5029520727694035e-02</internalNodes>
          <leafValues>
            -6.1136335134506226e-01 8.0664560198783875e-02</leafValues></_>
        <_>
          <internalNodes>
            0 -1 281 2.5543801486492157e-02</internalNodes>
          <leafValues>
            7.3180437088012695e-02 -6.2193453311920166e-01</leafValues></_></weakClassifiers></_>
    <!-- stage 2 -->
    <_>
      <maxWeakCount>30</maxWeakCount>
      <stageThreshold>-7.8343892097473145e-01</stageThreshold>
      <weakClassifiers>
        <_>
          <internalNodes>
            0 -1 2 -1.3179801404476166e-01</internalNodes>
          <leafValues>
            7.8907722234725952e-01 1.4275009930133820e-01</leafValues></_>
        <_>
          <internalNodes>
            0 -1 53 1.7120423913002014e-01</internalNodes>
          <leafValues>
            -9.7520329058170319e-02 5.1030683517456055e-01</leafValues></_>
        <_>
          <internalNodes>
            0 -1 367 3.1732372939586639e-02</internalNodes>
          <leafValues>
            -1.2744960188865662e-01 4.3123531341552734e-01</leafValues></_>
        <_>
          <internalNodes>
            0 -1 289 -8.2007364835590124e-04</internalNodes>
          <leafValues>
            2.9381209611892700e-01 -1.9523036479949951e-01</leafValues></_>
        <_>
          <internalNodes>
            0 -1 173 -3.6016721278429031e-03</internalNodes>
          <leafValues>
            2.9532518982887268e-01 -1.5325750410556793e-01</leafValues></_>
        <_>
          <internalNodes>
            0 -1 301 -1.2278268113732338e-03</internalNodes>
          <leafValues>
            2.8866478800773621e-01 -1.6114567220211029e-01</leafValues></_>
        <_>
          <internalNodes>
            0 -1 295 9.3834963627159595e-04</internalNodes>
          <leafValues>
            -1.8474440276622772e-01 2.8098011016845703e-01</leafValues></_>
        <_>
          <internalNodes>
            0 -1 235 -3.8305029273033142e-02</internalNodes>
          <leafValues>
            -5.5178606510162354e-01 9.7968176007270813e-02</leafValues></_>
        <_>
          <internalNodes>
            0 -1 57 -1.7361103091388941e-03</internalNodes>
          <leafValues>
            2.6977443695068359e-01 -1.7157764732837677e-01</leafValues></_>
        <_>
          <internalNodes>
            0 -1 243 2.0180519670248032e-02</internalNodes>
          <leafValues>
            7.1701943874359131e-02 -6.5406203269958496e-01</leafValues></_>
        <_>
          <internalNodes>
            0 -1 334 -1.4058663509786129e-03</internalNodes>
          <leafValues>
            3.5737007856369019e-01 -1.4142709970474243e-01</leafValues></_>
        <_>
          <internalNodes>
            0 -1 251 1.2371698394417763e-03</internalNodes>
          <leafValues>
            -1.5532803535461426e-01 2.9965350031852722e-01</leafValues></_>
        <_>
          <internalNodes>
            0 -1 68 3.7952367216348648e-02</internalNodes>
          <leafValues>
            -1.4211744070053101e-01 3.3939105272293091e-01</leafValues></_>
        <_>
          <internalNodes>
            0 -1 75 -1.9599066581577063e-03</internalNodes>
          <leafValues>
            3.1932604312896729e-01 -1.6283094882965088e-01</leafValues></_>
        <_>
          <internalNodes>
            0 -1 106 -1.1245203204452991e-03</internalNodes>
          <leafValues>
            3.4320414066314697e-01 -1.3156162202358246e-01</leafValues></_>
        <_>
          <internalNodes>
            0 -1 85 -1.8714820034801960e-03</internalNodes>
          <leafValues>
            2.8182938694953918e-01 -1.7141096293926239e-01</leafValues></_>
        <_>
          <internalNodes>
            0 -1 98 -4.7202029963955283e-04</internalNodes>
          <leafValues>
            2.8108456730842590e-01 -1.7465759813785553e-01</leafValues></_>
        <_>
          <internalNodes>
            0 -1 20 1.0762627422809601e-01</internalNodes>
          <leafValues>
            -1.2630452215671539e-01 3.9219009876251221e-01</leafValues></_>
        <_>
          <internalNodes>
            0 -1 357 6.2932388391345739e-04</internalNodes>
          <leafValues>
            -1.4425912499427795e-01 3.0404332280158997e-01</leafValues></_>
        <_>
          <internalNodes>
            0 -1 325 -4.9336418509483337e-02</internalNodes>
          <leafValues>
            4.1289129853248596e-01 -1.1164372414350510e-01</leafValues></_>
        <_>
          <internalNodes>
            0 -1 105 -8.5052382200956345e-04</internalNodes>
          <leafValues>
            2.7842989563941956e-01 -1.4725470542907715e-01</leafValues></_>
        <_>
          <internalNodes>
            0 -1 162 -2.8684749267995358e-03</internalNodes>
          <leafValues>
            3.0266627669334412e-01 -1.4661730825901031e-01</leafValues></_>
        <_>
          <internalNodes>
            0 -1 295 -7.5451761949807405e-04</internalNodes>
          <leafValues>
            2.9111692309379578e-01 -1.6159671545028687e-01</leafValues></_>
        <_>
          <internalNodes>
            0 -1 218 -6.2403769697993994e-04</internalNodes>
          <leafValues>
            2.9113987088203430e-01 -1.4881417155265808e-01</leafValues></_>
        <_>
          <internalNodes>
            0 -1 218 6.5156089840456843e-04</internalNodes>
          <leafValues>
            -1.5695770084857941e-01 2.9583418369293213e-01</leafValues></_>
        <_>
          <internalNodes>
            0 -1 8 -1.1569060385227203e-01</internalNodes>
          <leafValues>
            4.2940032482147217e-01 -1.0230024904012680e-01</leafValues></_>
        <_>
          <internalNodes>
            0 -1 41 -9.4630487728863955e-04</internalNodes>
          <leafValues>
            2.9712006449699402e-01 -1.3070516288280487e-01</leafValues></_>
        <_>
          <internalNodes>
            0 -1 277 -2.6496015489101410e-02</internalNodes>
          <leafValues>
            -6.0712683200836182e-01 7.0162840187549591e-02</leafValues></_>
        <_>
          <internalNodes>
            0 -1 234 1.3014264404773712e-02</internalNodes>
          <leafValues>
            7.0504970848560333e-02 -5.7759994268417358e-01</leafValues></_>
        <_>
          <internalNodes>
            0 -1 97 -6.8989083170890808e-02</internalNodes>
          <leafValues>
            -7.4883407354354858e-01 4.8087410628795624e-02</leafValues></_></weakClassifiers></_>
    <!-- stage 3 -->
    <_>
      <maxWeakCount>36</maxWeakCount>
      <stageThreshold>-9.0199518203735352e-01</stageThreshold>
      <weakClassifiers>
        <_>
          <internalNodes>
            0 -1 250 -2.2714015096426010e-02</internalNodes>
          <leafValues>
            -6.4766842126846313e-01 3.0761557817459106e-01</leafValues></_>
        <_>
          <internalNodes>
            0 -1 290 -6.9840857759118080e-04</internalNodes>
          <leafValues>
            3.3221152424812317e-01 -1.5377865731716156e-01</leafValues></_>
        <_>
          <internalNodes>
            0 -1 246 -5.2515848074108362e-04</internalNodes>
          <leafValues>
            2.7524563670158386e-01 -2.1539349853992462e-01</leafValues></_>
        <_>
          <internalNodes>
            0 -1 168 -5.7551864301785827e-04</internalNodes>
          <leafValues>
            2.5332564115524292e-01 -1.9208534061908722e-01</leafValues></_>
        <_>
          <internalNodes>
            0 -1 196 -5.3384189959615469e-04</internalNodes>
          <leafValues>
            2.9396963119506836e-01 -1.4980499446392059e-01</leafValues></_>
        <_>
          <internalNodes>
            0 -1 196 4.4236262328922749e-04</internalNodes>
          <leafValues>
            -1.9200305640697479e-01 2.6742190122604370e-01</leafValues></_>
        <_>
          <internalNodes>
            0 -1 287 4.0528760291635990e-03</internalNodes>
          <leafValues>
            7.1586452424526215e-02 -6.7036986351013184e-01</leafValues></_>
        <_>
          <internalNodes>
            0 -1 392 6.8044406361877918e-04</internalNodes>
          <leafValues>
            -1.5400454401969910e-01 2.8521659970283508e-01</leafValues></_>
        <_>
          <internalNodes>
            0 -1 392 -5.3488055709749460e-04</internalNodes>
          <leafValues>
            3.3072769641876221e-01 -1.7366303503513336e-01</leafValues></_>
        <_>
          <internalNodes>
            0 -1 107 1.3257972896099091e-02</internalNodes>
          <leafValues>
            -1.8208004534244537e-01 2.2454063594341278e-01</leafValues></_>
        <_>
          <internalNodes>
            0 -1 368 -1.6240039840340614e-03</internalNodes>
          <leafValues>
            2.1342718601226807e-01 -1.9739973545074463e-01</leafValues></_>
        <_>
          <internalNodes>
            0 -1 45 -7.0361862890422344e-04</internalNodes>
          <leafValues>
            2.6391139626502991e-01 -1.4574222266674042e-01</leafValues></_>
        <_>
          <internalNodes>
            0 -1 69 -6.6902907565236092e-04</internalNodes>
          <leafValues>
            2.6274323463439941e-01 -1.7863413691520691e-01</leafValues></_>
        <_>
          <internalNodes>
            0 -1 158 5.6120213121175766e-03</internalNodes>
          <leafValues>
            7.3631271719932556e-02 -6.8097662925720215e-01</leafValues></_>
        <_>
          <internalNodes>
            0 -1 42 -9.5620728097856045e-04</internalNodes>
          <leafValues>
            2.2924263775348663e-01 -1.6394378244876862e-01</leafValues></_>
        <_>
          <internalNodes>
            0 -1 311 -4.3303437996655703e-04</internalNodes>
          <leafValues>
            2.3133538663387299e-01 -1.5620481967926025e-01</leafValues></_>
        <_>
          <internalNodes>
            0 -1 267 -3.2934668706730008e-04</internalNodes>
          <leafValues>
            2.3706740140914917e-01 -1.6245684027671814e-01</leafValues></_>
        <_>
          <internalNodes>
            0 -1 12 -1.4921376109123230e-01</internalNodes>
          <leafValues>
            5.6012374162673950e-01 -7.4577599763870239e-02</leafValues></_>
        <_>
          <internalNodes>
            0 -1 300 -1.9616365432739258e-02</internalNodes>
          <leafValues>
            -7.1761518716812134e-01 5.9679098427295685e-02</leafValues></_>
        <_>
          <internalNodes>
            0 -1 328 1.3930057175457478e-02</internalNodes>
          <leafValues>
            7.2236418724060059e-02 -5.6561648845672607e-01</leafValues></_>
        <_>
          <internalNodes>
            0 -1 307 -6.3731078989803791e-04</internalNodes>
          <leafValues>
            3.1616201996803284e-01 -1.7340724170207977e-01</leafValues></_>
        <_>
          <internalNodes>
            0 -1 36 5.7463213801383972e-02</internalNodes>
          <leafValues>
            -8.8874645531177521e-02 4.4917240738868713e-01</leafValues></_>
        <_>
          <internalNodes>
            0 -1 104 -2.4678870104253292e-03</internalNodes>
          <leafValues>
            2.7681049704551697e-01 -1.7071041464805603e-01</leafValues></_>
        <_>
          <internalNodes>
            0 -1 208 -4.2886857409030199e-04</internalNodes>
          <leafValues>
            2.4883639812469482e-01 -1.6074497997760773e-01</leafValues></_>
        <_>
          <internalNodes>
            0 -1 141 -6.5019278554245830e-04</internalNodes>
          <leafValues>
            2.6948410272598267e-01 -1.3738559186458588e-01</leafValues></_>
        <_>
          <internalNodes>
            0 -1 156 -2.2983383387327194e-02</internalNodes>
          <leafValues>
            -7.8305935859680176e-01 4.7866538166999817e-02</leafValues></_>
        <_>
          <internalNodes>
            0 -1 252 6.0155981918796897e-04</internalNodes>
          <leafValues>
            -1.5192791819572449e-01 2.6158353686332703e-01</leafValues></_>
        <_>
          <internalNodes>
            0 -1 252 -5.3396692965179682e-04</internalNodes>
          <leafValues>
            2.8146889805793762e-01 -1.6054601967334747e-01</leafValues></_>
        <_>
          <internalNodes>
            0 -1 90 -1.9899047911167145e-03</internalNodes>
          <leafValues>
            2.4632722139358521e-01 -1.5293891727924347e-01</leafValues></_>
        <_>
          <internalNodes>
            0 -1 337 -4.0069408714771271e-03</internalNodes>
          <leafValues>
            -5.7541215419769287e-01 7.0024922490119934e-02</leafValues></_>
        <_>
          <internalNodes>
            0 -1 351 -2.5450992397964001e-03</internalNodes>
          <leafValues>
            2.4164009094238281e-01 -1.6141955554485321e-01</leafValues></_>
        <_>
          <internalNodes>
            0 -1 153 -6.4220957458019257e-02</internalNodes>
          <leafValues>
            3.8686576485633850e-01 -9.8960973322391510e-02</leafValues></_>
        <_>
          <internalNodes>
            0 -1 352 6.2588509172201157e-04</internalNodes>
          <leafValues>
            -1.3556471467018127e-01 2.9354396462440491e-01</leafValues></_>
        <_>
          <internalNodes>
            0 -1 210 -4.9866316840052605e-04</internalNodes>
          <leafValues>
            2.3753722012042999e-01 -1.5867078304290771e-01</leafValues></_>
        <_>
          <internalNodes>
            0 -1 276 1.4763703569769859e-02</internalNodes>
          <leafValues>
            5.8022964745759964e-02 -7.1935331821441650e-01</leafValues></_>
        <_>
          <internalNodes>
            0 -1 126 4.6987243695184588e-04</internalNodes>
          <leafValues>
            -1.5245214104652405e-01 2.4696816504001617e-01</leafValues></_></weakClassifiers></_>
    <!-- stage 4 -->
    <_>
      <maxWeakCount>42</maxWeakCount>
      <stageThreshold>-8.5051101446151733e-01</stageThreshold>
      <weakClassifiers>
        <_>
          <internalNodes>
            0 -1 102 -9.3464152887463570e-03</internalNodes>
          <leafValues>
            -4.8571428656578064e-01 3.0167225003242493e-01</leafValues></_>
        <_>
          <internalNodes>
            0 -1 99 4.9586053937673569e-03</internalNodes>
          <leafValues>
            1.0290662199258804e-01 -6.0338634252548218e-01</leafValues></_>
        <_>
          <internalNodes>
            0 -1 13 3.1897082924842834e-02</internalNodes>
          <leafValues>
            -1.2170694023370743e-01 4.5064002275466919e-01</leafValues></_>
        <_>
          <internalNodes>
            0 -1 28 1.0657525062561035e-01</internalNodes>
          <leafValues>
            -7.2896972298622131e-02 4.9586987495422363e-01</leafValues></_>
        <_>
          <internalNodes>
            0 -1 1 -4.8278257250785828e-02</internalNodes>
          <leafValues>
            3.0814880132675171e-01 -1.3777290284633636e-01</leafValues></_>
        <_>
          <internalNodes>
            0 -1 347 -3.4017942845821381e-02</internalNodes>
          <leafValues>
            3.1094685196876526e-01 -1.4626254141330719e-01</leafValues></_>
        <_>
          <internalNodes>
            0 -1 79 -2.9618587344884872e-02</internalNodes>
          <leafValues>
            3.9854720234870911e-01 -9.6508279442787170e-02</leafValues></_>
        <_>
          <internalNodes>
            0 -1 283 -9.6133695915341377e-03</internalNodes>
          <leafValues>
            -5.7030272483825684e-01 8.5546299815177917e-02</leafValues></_>
        <_>
          <internalNodes>
            0 -1 265 -1.1880993843078613e-03</internalNodes>
          <leafValues>
            2.0861290395259857e-01 -1.8982791900634766e-01</leafValues></_>
        <_>
          <internalNodes>
            0 -1 315 7.3548614978790283e-02</internalNodes>
          <leafValues>
            -7.1460962295532227e-02 6.1229342222213745e-01</leafValues></_>
        <_>
          <internalNodes>
            0 -1 362 3.3602442592382431e-02</internalNodes>
          <leafValues>
            -9.0591564774513245e-02 3.7413150072097778e-01</leafValues></_>
        <_>
          <internalNodes>
            0 -1 327 6.9149932824075222e-04</internalNodes>
          <leafValues>
            -1.3260675966739655e-01 2.6665768027305603e-01</leafValues></_>
        <_>
          <internalNodes>
            0 -1 248 -1.3762337155640125e-02</internalNodes>
          <leafValues>
            -7.5371611118316650e-01 4.0571626275777817e-02</leafValues></_>
        <_>
          <internalNodes>
            0 -1 374 4.8544039018452168e-03</internalNodes>
          <leafValues>
            4.2567607015371323e-02 -7.2510725259780884e-01</leafValues></_>
        <_>
          <internalNodes>
            0 -1 10 -2.7150523383170366e-03</internalNodes>
          <leafValues>
            2.5386521220207214e-01 -1.4370366930961609e-01</leafValues></_>
        <_>
          <internalNodes>
            0 -1 114 -3.9547905325889587e-02</internalNodes>
          <leafValues>
            -7.7499920129776001e-01 5.3356662392616272e-02</leafValues></_>
        <_>
          <internalNodes>
            0 -1 378 -8.1211829092353582e-04</internalNodes>
          <leafValues>
            2.3867963254451752e-01 -1.4548142254352570e-01</leafValues></_>
        <_>
          <internalNodes>
            0 -1 46 -7.6091766823083162e-04</internalNodes>
          <leafValues>
            2.2438895702362061e-01 -1.6216169297695160e-01</leafValues></_>
        <_>
          <internalNodes>
            0 -1 207 -6.6895075142383575e-03</internalNodes>
          <leafValues>
            -7.0059210062026978e-01 4.1618596762418747e-02</leafValues></_>
        <_>
          <internalNodes>
            0 -1 257 -4.1625741869211197e-03</internalNodes>
          <leafValues>
            -6.6030257940292358e-01 4.5726168900728226e-02</leafValues></_>
        <_>
          <internalNodes>
            0 -1 54 1.1318442225456238e-01</internalNodes>
          <leafValues>
            -5.1825266331434250e-02 6.9675815105438232e-01</leafValues></_>
        <_>
          <internalNodes>
            0 -1 23 -6.3696756958961487e-02</internalNodes>
          <leafValues>
            2.7732965350151062e-01 -1.1818720400333405e-01</leafValues></_>
        <_>
          <internalNodes>
            0 -1 165 -6.7603471688926220e-04</internalNodes>
          <leafValues>
            2.5891649723052979e-01 -1.3594473898410797e-01</leafValues></_>
        <_>
          <internalNodes>
            0 -1 27 2.3724172264337540e-02</internalNodes>
          <leafValues>
            -1.3299901783466339e-01 2.6251411437988281e-01</leafValues></_>
        <_>
          <internalNodes>
            0 -1 320 -7.0615939330309629e-04</internalNodes>
          <leafValues>
            2.4340303242206573e-01 -1.4401556551456451e-01</leafValues></_>
        <_>
          <internalNodes>
            0 -1 346 -5.8577395975589752e-04</internalNodes>
          <leafValues>
            2.4454185366630554e-01 -1.3604773581027985e-01</leafValues></_>
        <_>
          <internalNodes>
            0 -1 340 -8.7586714653298259e-04</internalNodes>
          <leafValues>
            2.4378748238086700e-01 -1.3588826358318329e-01</leafValues></_>
        <_>
          <internalNodes>
            0 -1 283 9.2745088040828705e-03</internalNodes>
          <leafValues>
            6.1062213033437729e-02 -6.1260813474655151e-01</leafValues></_>
        <_>
          <internalNodes>
            0 -1 389 5.8976165018975735e-04</internalNodes>
          <leafValues>
            -1.4819723367691040e-01 2.3537570238113403e-01</leafValues></_>
        <_>
          <internalNodes>
            0 -1 219 -2.7336589992046356e-03</internalNodes>
          <leafValues>
            2.5404539704322815e-01 -1.3544978201389313e-01</leafValues></_>
        <_>
          <internalNodes>
            0 -1 209 -8.3595104515552521e-03</internalNodes>
          <leafValues>
            -7.3387044668197632e-01 4.7769531607627869e-02</leafValues></_>
        <_>
          <internalNodes>
            0 -1 221 8.1780296750366688e-04</internalNodes>
          <leafValues>
            -1.5496517717838287e-01 2.3112283647060394e-01</leafValues></_>
        <_>
          <internalNodes>
            0 -1 304 -7.0800585672259331e-03</internalNodes>
          <leafValues>
            -4.4230055809020996e-01 6.9647207856178284e-02</leafValues></_>
        <_>
          <internalNodes>
            0 -1 183 -3.8502037525177002e-02</internalNodes>
          <leafValues>
            -5.7410591840744019e-01 5.8864910155534744e-02</leafValues></_>
        <_>
          <internalNodes>
            0 -1 159 1.4026639983057976e-02</internalNodes>
          <leafValues>
            3.2393395900726318e-02 -7.9266411066055298e-01</leafValues></_>
        <_>
          <internalNodes>
            0 -1 200 -1.1136219836771488e-03</internalNodes>
          <leafValues>
            2.4552324414253235e-01 -1.5871155261993408e-01</leafValues></_>
        <_>
          <internalNodes>
            0 -1 262 -7.2789157275110483e-04</internalNodes>
          <leafValues>
            2.7072879672050476e-01 -1.5223705768585205e-01</leafValues></_>
        <_>
          <internalNodes>
            0 -1 17 2.0120973885059357e-01</internalNodes>
          <leafValues>
            -6.4973801374435425e-02 4.8982325196266174e-01</leafValues></_>
        <_>
          <internalNodes>
            0 -1 133 1.9942769780755043e-02</internalNodes>
          <leafValues>
            -1.1167021095752716e-01 3.1289890408515930e-01</leafValues></_>
        <_>
          <internalNodes>
            0 -1 332 -1.1169400531798601e-03</internalNodes>
          <leafValues>
            2.6419395208358765e-01 -1.3975165784358978e-01</leafValues></_>
        <_>
          <internalNodes>
            0 -1 244 -2.6040513068437576e-02</internalNodes>
          <leafValues>
            -8.7698954343795776e-01 4.2958125472068787e-02</leafValues></_>
        <_>
          <internalNodes>
            0 -1 138 -2.0725172944366932e-03</internalNodes>
          <leafValues>
            2.2718600928783417e-01 -1.5258820354938507e-01</leafValues></_></weakClassifiers></_>
    <!-- stage 5 -->
    <_>
      <maxWeakCount>44</maxWeakCount>
      <stageThreshold>-8.1684523820877075e-01</stageThreshold>
      <weakClassifiers>
        <_>
          <internalNodes>
            0 -1 298 -9.7769796848297119e-03</internalNodes>
          <leafValues>
            -6.3909775018692017e-01 2.8855559229850769e-01</leafValues></_>
        <_>
          <internalNodes>
            0 -1 224 -8.2462560385465622e-04</internalNodes>
          <leafValues>
            2.7930626273155212e-01 -1.2992361187934875e-01</leafValues></_>
        <_>
          <internalNodes>
            0 -1 275 -6.7013356601819396e-04</internalNodes>
          <leafValues>
            2.5959345698356628e-01 -1.5044055879116058e-01</leafValues></_>
        <_>
          <internalNodes>
            0 -1 179 -1.0549458675086498e-03</internalNodes>
          <leafValues>
            2.5131544470787048e-01 -1.4528870582580566e-01</leafValues></_>
        <_>
          <internalNodes>
            0 -1 130 8.6107514798641205e-02</internalNodes>
          <leafValues>
            -1.1701183766126633e-01 3.3042436838150024e-01</leafValues></_>
        <_>
          <internalNodes>
            0 -1 110 -1.7546538729220629e-03</internalNodes>
          <leafValues>
            2.5404426455497742e-01 -1.3162168860435486e-01</leafValues></_>
        <_>
          <internalNodes>
            0 -1 160 5.9378156438469887e-03</internalNodes>
          <leafValues>
            3.1381461769342422e-02 -8.2849526405334473e-01</leafValues></_>
        <_>
          <internalNodes>
            0 -1 261 -2.6610549539327621e-03</internalNodes>
          <leafValues>
            2.2847938537597656e-01 -1.6225655376911163e-01</leafValues></_>
        <_>
          <internalNodes>
            0 -1 302 5.3703901357948780e-04</internalNodes>
          <leafValues>
            -1.3660004734992981e-01 2.8598791360855103e-01</leafValues></_>
        <_>
          <internalNodes>
            0 -1 370 -5.9548965655267239e-03</internalNodes>
          <leafValues>
            -6.5179508924484253e-01 4.6819254755973816e-02</leafValues></_>
        <_>
          <internalNodes>
            0 -1 142 -6.7075516562908888e-04</internalNodes>
          <leafValues>
            2.4306939542293549e-01 -1.3438507914543152e-01</leafValues></_>
        <_>
          <internalNodes>
            0 -1 391 2.0239440724253654e-02</internalNodes>
          <leafValues>
            -9.8860770463943481e-02 3.4631818532943726e-01</leafValues></_>
        <_>
          <internalNodes>
            0 -1 236 -5.0907865166664124e-02</internalNodes>
          <leafValues>
            -6.4976710081100464e-01 5.7751163840293884e-02</leafValues></_>
        <_>
          <internalNodes>
            0 -1 127 -5.3175579523667693e-04</internalNodes>
          <leafValues>
            1.9619566202163696e-01 -1.7031960189342499e-01</leafValues></_>
        <_>
          <internalNodes>
            0 -1 124 -7.3112407699227333e-04</internalNodes>
          <leafValues>
            2.1589937806129456e-01 -1.6555544734001160e-01</leafValues></_>
        <_>
          <internalNodes>
            0 -1 86 -2.7266438119113445e-03</internalNodes>
          <leafValues>
            2.4079073965549469e-01 -1.3335850834846497e-01</leafValues></_>
        <_>
          <internalNodes>
            0 -1 323 6.0131656937301159e-04</internalNodes>
          <leafValues>
            -1.2550315260887146e-01 2.4557919800281525e-01</leafValues></_>
        <_>
          <internalNodes>
            0 -1 318 -2.5487162172794342e-02</internalNodes>
          <leafValues>
            2.5709584355354309e-01 -1.3396792113780975e-01</leafValues></_>
        <_>
          <internalNodes>
            0 -1 169 -2.3944214917719364e-03</internalNodes>
          <leafValues>
            2.8722926974296570e-01 -1.1861283332109451e-01</leafValues></_>
        <_>
          <internalNodes>
            0 -1 253 -7.3269428685307503e-03</internalNodes>
          <leafValues>
            -7.5124818086624146e-01 5.6524101644754410e-02</leafValues></_>
        <_>
          <internalNodes>
            0 -1 294 5.3819862660020590e-04</internalNodes>
          <leafValues>
            -1.5272139012813568e-01 2.4297313392162323e-01</leafValues></_>
        <_>
          <internalNodes>
            0 -1 238 5.4580828873440623e-04</internalNodes>
          <leafValues>
            -1.5249839425086975e-01 2.4130836129188538e-01</leafValues></_>
        <_>
          <internalNodes>
            0 -1 238 4.3646916747093201e-03</internalNodes>
          <leafValues>
            5.9304866939783096e-02 -6.7199230194091797e-01</leafValues></_>
        <_>
          <internalNodes>
            0 -1 288 5.6787428911775351e-04</internalNodes>
          <leafValues>
            -1.4327627420425415e-01 2.2648878395557404e-01</leafValues></_>
        <_>
          <internalNodes>
            0 -1 284 1.3720043003559113e-02</internalNodes>
          <leafValues>
            5.3119983524084091e-02 -7.4464166164398193e-01</leafValues></_>
        <_>
          <internalNodes>
            0 -1 56 -9.8564301151782274e-04</internalNodes>
          <leafValues>
            2.2284993529319763e-01 -1.3852186501026154e-01</leafValues></_>
        <_>
          <internalNodes>
            0 -1 74 -6.2963375821709633e-03</internalNodes>
          <leafValues>
            2.6140856742858887e-01 -1.4398072659969330e-01</leafValues></_>
        <_>
          <internalNodes>
            0 -1 100 -3.0716450419276953e-03</internalNodes>
          <leafValues>
            2.3955292999744415e-01 -1.4231178164482117e-01</leafValues></_>
        <_>
          <internalNodes>
            0 -1 161 6.8509941920638084e-03</internalNodes>
          <leafValues>
            6.2891505658626556e-02 -5.1619905233383179e-01</leafValues></_>
        <_>
          <internalNodes>
            0 -1 89 -4.0082405321300030e-03</internalNodes>
          <leafValues>
            2.0909203588962555e-01 -1.4372527599334717e-01</leafValues></_>
        <_>
          <internalNodes>
            0 -1 122 -1.0080088861286640e-02</internalNodes>
          <leafValues>
            -7.5610518455505371e-01 5.1729172468185425e-02</leafValues></_>
        <_>
          <internalNodes>
            0 -1 16 1.1506204027682543e-03</internalNodes>
          <leafValues>
            -1.1162937432527542e-01 3.1329771876335144e-01</leafValues></_>
        <_>
          <internalNodes>
            0 -1 282 -6.6204089671373367e-04</internalNodes>
          <leafValues>
            2.2680257260799408e-01 -1.3566818833351135e-01</leafValues></_>
        <_>
          <internalNodes>
            0 -1 329 1.3181995600461960e-02</internalNodes>
          <leafValues>
            3.7619218230247498e-02 -7.7277868986129761e-01</leafValues></_>
        <_>
          <internalNodes>
            0 -1 92 -7.5725448550656438e-04</internalNodes>
          <leafValues>
            1.8788011372089386e-01 -1.6828189790248871e-01</leafValues></_>
        <_>
          <internalNodes>
            0 -1 178 8.7044527754187584e-04</internalNodes>
          <leafValues>
            -1.1382289975881577e-01 2.7291139960289001e-01</leafValues></_>
        <_>
          <internalNodes>
            0 -1 108 5.3939083591103554e-03</internalNodes>
          <leafValues>
            -1.7872647941112518e-01 1.9002908468246460e-01</leafValues></_>
        <_>
          <internalNodes>
            0 -1 241 -1.6726061701774597e-02</internalNodes>
          <leafValues>
            -6.4393419027328491e-01 5.1273241639137268e-02</leafValues></_>
        <_>
          <internalNodes>
            0 -1 322 -9.8287267610430717e-04</internalNodes>
          <leafValues>
            2.6388490200042725e-01 -1.4330282807350159e-01</leafValues></_>
        <_>
          <internalNodes>
            0 -1 136 -1.4689601957798004e-02</internalNodes>
          <leafValues>
            2.4873647093772888e-01 -1.3381756842136383e-01</leafValues></_>
        <_>
          <internalNodes>
            0 -1 4 -2.3858489468693733e-02</internalNodes>
          <leafValues>
            2.6013919711112976e-01 -1.2487819045782089e-01</leafValues></_>
        <_>
          <internalNodes>
            0 -1 287 -6.3075532671064138e-04</internalNodes>
          <leafValues>
            2.5141760706901550e-01 -1.3151988387107849e-01</leafValues></_>
        <_>
          <internalNodes>
            0 -1 18 -8.2376232603564858e-04</internalNodes>
          <leafValues>
            2.5132918357849121e-01 -1.3492029905319214e-01</leafValues></_>
        <_>
          <internalNodes>
            0 -1 308 -1.7245338531211019e-03</internalNodes>
          <leafValues>
            2.2272717952728271e-01 -1.4712123572826385e-01</leafValues></_></weakClassifiers></_>
    <!-- stage 6 -->
    <_>
      <maxWeakCount>53</maxWeakCount>
      <stageThreshold>-8.0263113975524902e-01</stageThreshold>
      <weakClassifiers>
        <_>
          <internalNodes>
            0 -1 203 -1.6543384641408920e-02</internalNodes>
          <leafValues>
            -7.2357726097106934e-01 2.8891777992248535e-01</leafValues></_>
        <_>
          <internalNodes>
            0 -1 21 2.5489398837089539e-01</internalNodes>
          <leafValues>
            -5.2393380552530289e-02 5.0464415550231934e-01</leafValues></_>
        <_>
          <internalNodes>
            0 -1 157 -4.3429434299468994e-04</internalNodes>
          <leafValues>
            2.1667534112930298e-01 -1.4497254788875580e-01</leafValues></_>
        <_>
          <internalNodes>
            0 -1 116 -6.0961558483541012e-04</internalNodes>
          <leafValues>
            2.3849490284919739e-01 -1.5850134193897247e-01</leafValues></_>
        <_>
          <internalNodes>
            0 -1 6 -8.0450795590877533e-02</internalNodes>
          <leafValues>
            3.8776570558547974e-01 -9.6632860600948334e-02</leafValues></_>
        <_>
          <internalNodes>
            0 -1 60 -3.5772058181464672e-03</internalNodes>
          <leafValues>
            2.4410465359687805e-01 -1.1716476827859879e-01</leafValues></_>
        <_>
          <internalNodes>
            0 -1 33 -8.7706878548488021e-04</internalNodes>
          <leafValues>
            2.3880937695503235e-01 -1.5816566348075867e-01</leafValues></_>
        <_>
          <internalNodes>
            0 -1 388 -1.3380155432969332e-03</internalNodes>
          <leafValues>
            2.5007998943328857e-01 -1.2461882084608078e-01</leafValues></_>
        <_>
          <internalNodes>
            0 -1 387 7.2441482916474342e-04</internalNodes>
          <leafValues>
            -1.3993960618972778e-01 2.1011760830879211e-01</leafValues></_>
        <_>
          <internalNodes>
            0 -1 364 -4.7110673040151596e-02</internalNodes>
          <leafValues>
            4.4437059760093689e-01 -6.0838229954242706e-02</leafValues></_>
        <_>
          <internalNodes>
            0 -1 382 8.1520446110516787e-04</internalNodes>
          <leafValues>
            -1.5230044722557068e-01 2.0395648479461670e-01</leafValues></_>
        <_>
          <internalNodes>
            0 -1 172 1.5612506307661533e-02</internalNodes>
          <leafValues>
            -1.0154650360345840e-01 2.7089861035346985e-01</leafValues></_>
        <_>
          <internalNodes>
            0 -1 212 -2.1125476341694593e-03</internalNodes>
          <leafValues>
            2.2259968519210815e-01 -1.2486689537763596e-01</leafValues></_>
        <_>
          <internalNodes>
            0 -1 338 4.1273995302617550e-03</internalNodes>
          <leafValues>
            4.4651728123426437e-02 -5.5968761444091797e-01</leafValues></_>
        <_>
          <internalNodes>
            0 -1 206 1.0984430555254221e-03</internalNodes>
          <leafValues>
            -1.2552200257778168e-01 2.2276984155178070e-01</leafValues></_>
        <_>
          <internalNodes>
            0 -1 223 2.0241865888237953e-02</internalNodes>
          <leafValues>
            5.8381106704473495e-02 -4.9574688076972961e-01</leafValues></_>
        <_>
          <internalNodes>
            0 -1 249 -1.6104092355817556e-03</internalNodes>
          <leafValues>
            2.4445562064647675e-01 -1.2737521529197693e-01</leafValues></_>
        <_>
          <internalNodes>
            0 -1 247 7.6352187898010015e-04</internalNodes>
          <leafValues>
            -1.5674161911010742e-01 2.3562906682491302e-01</leafValues></_>
        <_>
          <internalNodes>
            0 -1 117 -3.7470390088856220e-03</internalNodes>
          <leafValues>
            -6.3741123676300049e-01 4.3350968509912491e-02</leafValues></_>
        <_>
          <internalNodes>
            0 -1 118 6.2977056950330734e-03</internalNodes>
          <leafValues>
            3.2897468656301498e-02 -7.7651131153106689e-01</leafValues></_>
        <_>
          <internalNodes>
            0 -1 245 -6.3924747519195080e-04</internalNodes>
          <leafValues>
            2.2794865071773529e-01 -1.2414761632680893e-01</leafValues></_>
        <_>
          <internalNodes>
            0 -1 229 -8.8328792480751872e-04</internalNodes>
          <leafValues>
            2.3426254093647003e-01 -1.2725189328193665e-01</leafValues></_>
        <_>
          <internalNodes>
            0 -1 222 -1.7752580344676971e-02</internalNodes>
          <leafValues>
            -6.0232889652252197e-01 4.6806033700704575e-02</leafValues></_>
        <_>
          <internalNodes>
            0 -1 34 -8.3406735211610794e-04</internalNodes>
          <leafValues>
            2.1589887142181396e-01 -1.3182801008224487e-01</leafValues></_>
        <_>
          <internalNodes>
            0 -1 292 -1.6794677823781967e-02</internalNodes>
          <leafValues>
            -6.6995948553085327e-01 4.2269196361303329e-02</leafValues></_>
        <_>
          <internalNodes>
            0 -1 278 -1.8616454675793648e-02</internalNodes>
          <leafValues>
            -6.9186937808990479e-01 2.8716282919049263e-02</leafValues></_>
        <_>
          <internalNodes>
            0 -1 324 -1.9589590374380350e-03</internalNodes>
          <leafValues>
            1.8521589040756226e-01 -1.5925224125385284e-01</leafValues></_>
        <_>
          <internalNodes>
            0 -1 326 -1.9064875319600105e-02</internalNodes>
          <leafValues>
            -6.7219877243041992e-01 4.5289501547813416e-02</leafValues></_>
        <_>
          <internalNodes>
            0 -1 37 -2.7154747396707535e-02</internalNodes>
          <leafValues>
            2.7952122688293457e-01 -1.0039041191339493e-01</leafValues></_>
        <_>
          <internalNodes>
            0 -1 93 -1.4283910393714905e-02</internalNodes>
          <leafValues>
            -5.8735716342926025e-01 4.7615569084882736e-02</leafValues></_>
        <_>
          <internalNodes>
            0 -1 131 -5.1731965504586697e-03</internalNodes>
          <leafValues>
            2.1015717089176178e-01 -1.3909955322742462e-01</leafValues></_>
        <_>
          <internalNodes>
            0 -1 174 -2.1495916880667210e-03</internalNodes>
          <leafValues>
            1.7959617078304291e-01 -1.5804292261600494e-01</leafValues></_>
        <_>
          <internalNodes>
            0 -1 139 -4.7941124066710472e-03</internalNodes>
          <leafValues>
            2.2269096970558167e-01 -1.7122021317481995e-01</leafValues></_>
        <_>
          <internalNodes>
            0 -1 9 5.4912306368350983e-02</internalNodes>
          <leafValues>
            -8.8983803987503052e-02 3.0964201688766479e-01</leafValues></_>
        <_>
          <internalNodes>
            0 -1 48 -3.0555808544158936e-01</internalNodes>
          <leafValues>
            5.2294909954071045e-01 -5.4736066609621048e-02</leafValues></_>
        <_>
          <internalNodes>
            0 -1 300 -2.8520282357931137e-02</internalNodes>
          <leafValues>
            -8.5148346424102783e-01 3.6605518311262131e-02</leafValues></_>
        <_>
          <internalNodes>
            0 -1 296 -6.4788665622472763e-04</internalNodes>
          <leafValues>
            2.0840661227703094e-01 -1.5653893351554871e-01</leafValues></_>
        <_>
          <internalNodes>
            0 -1 143 -6.7333382321521640e-04</internalNodes>
          <leafValues>
            2.3816417157649994e-01 -1.1596277356147766e-01</leafValues></_>
        <_>
          <internalNodes>
            0 -1 101 -7.9822335392236710e-03</internalNodes>
          <leafValues>
            -5.7585978507995605e-01 5.0546724349260330e-02</leafValues></_>
        <_>
          <internalNodes>
            0 -1 148 -4.6692939940840006e-04</internalNodes>
          <leafValues>
            2.0963902771472931e-01 -1.4202222228050232e-01</leafValues></_>
        <_>
          <internalNodes>
            0 -1 205 -1.8032406223937869e-03</internalNodes>
          <leafValues>
            2.4687746167182922e-01 -1.0775870829820633e-01</leafValues></_>
        <_>
          <internalNodes>
            0 -1 306 6.1325880233198404e-04</internalNodes>
          <leafValues>
            -1.3064439594745636e-01 2.2812937200069427e-01</leafValues></_>
        <_>
          <internalNodes>
            0 -1 123 1.3633299618959427e-02</internalNodes>
          <leafValues>
            4.3021544814109802e-02 -6.4912807941436768e-01</leafValues></_>
        <_>
          <internalNodes>
            0 -1 256 -5.1141865551471710e-02</internalNodes>
          <leafValues>
            3.1643104553222656e-01 -9.6880130469799042e-02</leafValues></_>
        <_>
          <internalNodes>
            0 -1 63 -2.5642805267125368e-03</internalNodes>
          <leafValues>
            2.0078139007091522e-01 -1.4162273705005646e-01</leafValues></_>
        <_>
          <internalNodes>
            0 -1 77 -3.3591061830520630e-02</internalNodes>
          <leafValues>
            3.4547379612922668e-01 -8.2720980048179626e-02</leafValues></_>
        <_>
          <internalNodes>
            0 -1 264 -8.0028770025819540e-04</internalNodes>
          <leafValues>
            2.0472107827663422e-01 -1.3349048793315887e-01</leafValues></_>
        <_>
          <internalNodes>
            0 -1 233 -1.9608587026596069e-02</internalNodes>
          <leafValues>
            -7.5683057308197021e-01 3.5663448274135590e-02</leafValues></_>
        <_>
          <internalNodes>
            0 -1 137 6.6271016839891672e-04</internalNodes>
          <leafValues>
            -1.2944146990776062e-01 2.1915905177593231e-01</leafValues></_>
        <_>
          <internalNodes>
            0 -1 138 -3.6739800125360489e-03</internalNodes>
          <leafValues>
            2.4662794172763824e-01 -1.2005127966403961e-01</leafValues></_>
        <_>
          <internalNodes>
            0 -1 363 6.4274133183062077e-04</internalNodes>
          <leafValues>
            -1.2258945405483246e-01 2.2142003476619720e-01</leafValues></_>
        <_>
          <internalNodes>
            0 -1 390 1.5905331820249557e-02</internalNodes>
          <leafValues>
            -1.0137837380170822e-01 2.7546095848083496e-01</leafValues></_>
        <_>
          <internalNodes>
            0 -1 59 -6.4908806234598160e-04</internalNodes>
          <leafValues>
            2.0954239368438721e-01 -1.4005964994430542e-01</leafValues></_></weakClassifiers></_>
    <!-- stage 7 -->
    <_>
      <maxWeakCount>51</maxWeakCount>
      <stageThreshold>-7.5766789913177490e-01</stageThreshold>
      <weakClassifiers>
        <_>
          <internalNodes>
            0 -1 202 -7.8553967177867889e-03</internalNodes>
          <leafValues>
            -5.5102038383483887e-01 2.8856861591339111e-01</leafValues></_>
        <_>
          <internalNodes>
            0 -1 78 1.1994238942861557e-01</internalNodes>
          <leafValues>
            -8.5717864334583282e-02 3.3092465996742249e-01</leafValues></_>
        <_>
          <internalNodes>
            0 -1 47 -3.2237887382507324e-02</internalNodes>
          <leafValues>
            2.9312646389007568e-01 -1.0963273048400879e-01</leafValues></_>
        <_>
          <internalNodes>
            0 -1 52 7.8290775418281555e-02</internalNodes>
          <leafValues>
            -1.2038794904947281e-01 3.5414683818817139e-01</leafValues></_>
        <_>
          <internalNodes>
            0 -1 258 -1.1205718619748950e-03</internalNodes>
          <leafValues>
            2.3161286115646362e-01 -1.3910372555255890e-01</leafValues></_>
        <_>
          <internalNodes>
            0 -1 260 9.1207615332677960e-04</internalNodes>
          <leafValues>
            -1.3708296418190002e-01 2.1834041178226471e-01</leafValues></_>
        <_>
          <internalNodes>
            0 -1 333 4.6961638145148754e-04</internalNodes>
          <leafValues>
            -1.3567532598972321e-01 2.2433862090110779e-01</leafValues></_>
        <_>
          <internalNodes>
            0 -1 285 -1.8931332975625992e-02</internalNodes>
          <leafValues>
            -8.1989240646362305e-01 5.2318826317787170e-02</leafValues></_>
        <_>
          <internalNodes>
            0 -1 353 4.4943494722247124e-03</internalNodes>
          <leafValues>
            3.9971314370632172e-02 -7.3465490341186523e-01</leafValues></_>
        <_>
          <internalNodes>
            0 -1 32 -8.6640633642673492e-02</internalNodes>
          <leafValues>
            3.5595768690109253e-01 -9.6170291304588318e-02</leafValues></_>
        <_>
          <internalNodes>
            0 -1 88 1.7040438950061798e-02</internalNodes>
          <leafValues>
            6.3567899167537689e-02 -7.0708042383193970e-01</leafValues></_>
        <_>
          <internalNodes>
            0 -1 296 5.2378270775079727e-03</internalNodes>
          <leafValues>
            2.7744263410568237e-02 -6.0523480176925659e-01</leafValues></_>
        <_>
          <internalNodes>
            0 -1 262 -8.1754272105172276e-04</internalNodes>
          <leafValues>
            2.2101388871669769e-01 -1.2462849915027618e-01</leafValues></_>
        <_>
          <internalNodes>
            0 -1 299 -1.2475633062422276e-02</internalNodes>
          <leafValues>
            -4.5087733864784241e-01 6.8933881819248199e-02</leafValues></_>
        <_>
          <internalNodes>
            0 -1 95 -7.0985168218612671e-02</internalNodes>
          <leafValues>
            -6.0348665714263916e-01 4.6024117618799210e-02</leafValues></_>
        <_>
          <internalNodes>
            0 -1 271 -6.7916465923190117e-04</internalNodes>
          <leafValues>
            2.0090463757514954e-01 -1.3494588434696198e-01</leafValues></_>
        <_>
          <internalNodes>
            0 -1 35 -3.2119196839630604e-03</internalNodes>
          <leafValues>
            2.6830556988716125e-01 -9.7290948033332825e-02</leafValues></_>
        <_>
          <internalNodes>
            0 -1 331 5.1715122535824776e-03</internalNodes>
          <leafValues>
            4.0223009884357452e-02 -7.1862006187438965e-01</leafValues></_>
        <_>
          <internalNodes>
            0 -1 119 -1.4655842678621411e-03</internalNodes>
          <leafValues>
            2.0018535852432251e-01 -1.2843540310859680e-01</leafValues></_>
        <_>
          <internalNodes>
            0 -1 91 -1.4079797081649303e-02</internalNodes>
          <leafValues>
            -6.2718629837036133e-01 3.5433635115623474e-02</leafValues></_>
        <_>
          <internalNodes>
            0 -1 288 -6.5044331131502986e-04</internalNodes>
          <leafValues>
            2.3794318735599518e-01 -1.1434058845043182e-01</leafValues></_>
        <_>
          <internalNodes>
            0 -1 193 -1.0570989921689034e-02</internalNodes>
          <leafValues>
            -4.9460032582283020e-01 6.2827251851558685e-02</leafValues></_>
        <_>
          <internalNodes>
            0 -1 120 5.8045340701937675e-03</internalNodes>
          <leafValues>
            3.3786695450544357e-02 -7.2059333324432373e-01</leafValues></_>
        <_>
          <internalNodes>
            0 -1 201 -4.5250984840095043e-04</internalNodes>
          <leafValues>
            1.9840978085994720e-01 -1.4277458190917969e-01</leafValues></_>
        <_>
          <internalNodes>
            0 -1 344 -6.5488438121974468e-04</internalNodes>
          <leafValues>
            2.2205275297164917e-01 -1.2424392253160477e-01</leafValues></_>
        <_>
          <internalNodes>
            0 -1 204 -4.3922425247728825e-03</internalNodes>
          <leafValues>
            -5.7971203327178955e-01 4.6454232186079025e-02</leafValues></_>
        <_>
          <internalNodes>
            0 -1 384 -5.0662173889577389e-03</internalNodes>
          <leafValues>
            2.2368063032627106e-01 -1.2523801624774933e-01</leafValues></_>
        <_>
          <internalNodes>
            0 -1 231 -1.0993261821568012e-03</internalNodes>
          <leafValues>
            2.3002839088439941e-01 -1.1115115880966187e-01</leafValues></_>
        <_>
          <internalNodes>
            0 -1 279 6.1994540737941861e-04</internalNodes>
          <leafValues>
            -1.3830396533012390e-01 2.1597169339656830e-01</leafValues></_>
        <_>
          <internalNodes>
            0 -1 246 -1.4035529457032681e-03</internalNodes>
          <leafValues>
            2.4859809875488281e-01 -1.0465720295906067e-01</leafValues></_>
        <_>
          <internalNodes>
            0 -1 341 -1.3388670980930328e-02</internalNodes>
          <leafValues>
            -4.9831494688987732e-01 4.7102313488721848e-02</leafValues></_>
        <_>
          <internalNodes>
            0 -1 381 -8.4384111687541008e-04</internalNodes>
          <leafValues>
            2.3629942536354065e-01 -1.1084699630737305e-01</leafValues></_>
        <_>
          <internalNodes>
            0 -1 286 2.5938943028450012e-02</internalNodes>
          <leafValues>
            3.8888666778802872e-02 -7.5264394283294678e-01</leafValues></_>
        <_>
          <internalNodes>
            0 -1 149 -2.1026514470577240e-02</internalNodes>
          <leafValues>
            -7.7150046825408936e-01 2.7042388916015625e-02</leafValues></_>
        <_>
          <internalNodes>
            0 -1 40 -5.6336916983127594e-02</internalNodes>
          <leafValues>
            3.3344012498855591e-01 -8.7926626205444336e-02</leafValues></_>
        <_>
          <internalNodes>
            0 -1 15 5.3863845765590668e-02</internalNodes>
          <leafValues>
            -8.2514211535453796e-02 3.4005036950111389e-01</leafValues></_>
        <_>
          <internalNodes>
            0 -1 71 -1.2095211073756218e-02</internalNodes>
          <leafValues>
            2.9540047049522400e-01 -1.1009192466735840e-01</leafValues></_>
        <_>
          <internalNodes>
            0 -1 62 -5.1140144933015108e-04</internalNodes>
          <leafValues>
            2.0069240033626556e-01 -1.3886736333370209e-01</leafValues></_>
        <_>
          <internalNodes>
            0 -1 87 -1.1046552099287510e-03</internalNodes>
          <leafValues>
            2.1565829217433929e-01 -1.3021524250507355e-01</leafValues></_>
        <_>
          <internalNodes>
            0 -1 393 -4.1604787111282349e-03</internalNodes>
          <leafValues>
            2.8096440434455872e-01 -1.0653258860111237e-01</leafValues></_>
        <_>
          <internalNodes>
            0 -1 237 -3.2887570559978485e-03</internalNodes>
          <leafValues>
            2.3264077305793762e-01 -1.1595474183559418e-01</leafValues></_>
        <_>
          <internalNodes>
            0 -1 343 5.4363869130611420e-03</internalNodes>
          <leafValues>
            3.6866977810859680e-02 -7.3914825916290283e-01</leafValues></_>
        <_>
          <internalNodes>
            0 -1 317 -9.7997719421982765e-04</internalNodes>
          <leafValues>
            2.2487305104732513e-01 -1.2721012532711029e-01</leafValues></_>
        <_>
          <internalNodes>
            0 -1 319 -6.5863569034263492e-04</internalNodes>
          <leafValues>
            2.1844474971294403e-01 -1.3585057854652405e-01</leafValues></_>
        <_>
          <internalNodes>
            0 -1 314 -6.4743962138891220e-04</internalNodes>
          <leafValues>
            2.1644631028175354e-01 -1.3430801033973694e-01</leafValues></_>
        <_>
          <internalNodes>
            0 -1 115 -7.1037068963050842e-02</internalNodes>
          <leafValues>
            -5.6463652849197388e-01 5.0570230931043625e-02</leafValues></_>
        <_>
          <internalNodes>
            0 -1 96 -9.0551446191966534e-04</internalNodes>
          <leafValues>
            1.9231531023979187e-01 -1.3645637035369873e-01</leafValues></_>
        <_>
          <internalNodes>
            0 -1 379 -9.3062926316633821e-04</internalNodes>
          <leafValues>
            1.9665695726871490e-01 -1.2356042861938477e-01</leafValues></_>
        <_>
          <internalNodes>
            0 -1 112 -7.6049822382628918e-03</internalNodes>
          <leafValues>
            -6.9561827182769775e-01 3.9319384843111038e-02</leafValues></_>
        <_>
          <internalNodes>
            0 -1 22 -1.3515874743461609e-03</internalNodes>
          <leafValues>
            2.5598469376564026e-01 -1.0510569065809250e-01</leafValues></_>
        <_>
          <internalNodes>
            0 -1 377 -1.0697247926145792e-03</internalNodes>
          <leafValues>
            1.7848013341426849e-01 -1.4894676208496094e-01</leafValues></_></weakClassifiers></_>
    <!-- stage 8 -->
    <_>
      <maxWeakCount>53</maxWeakCount>
      <stageThreshold>-7.3308587074279785e-01</stageThreshold>
      <weakClassifiers>
        <_>
          <internalNodes>
            0 -1 274 -1.2988052330911160e-02</internalNodes>
          <leafValues>
            -6.3478261232376099e-01 2.8298217058181763e-01</leafValues></_>
        <_>
          <internalNodes>
            0 -1 394 -9.9999224767088890e-04</internalNodes>
          <leafValues>
            2.7562284469604492e-01 -8.9003175497055054e-02</leafValues></_>
        <_>
          <internalNodes>
            0 -1 350 -7.7537342440336943e-04</internalNodes>
          <leafValues>
            2.3048961162567139e-01 -1.1688038706779480e-01</leafValues></_>
        <_>
          <internalNodes>
            0 -1 350 3.8231170037761331e-04</internalNodes>
          <leafValues>
            -2.3437593877315521e-01 1.8678347766399384e-01</leafValues></_>
        <_>
          <internalNodes>
            0 -1 220 -2.6729661971330643e-02</internalNodes>
          <leafValues>
            -5.9902518987655640e-01 1.0346225649118423e-01</leafValues></_>
        <_>
          <internalNodes>
            0 -1 39 2.8958365321159363e-01</internalNodes>
          <leafValues>
            -7.8021332621574402e-02 4.0118348598480225e-01</leafValues></_>
        <_>
          <internalNodes>
            0 -1 217 1.2283807992935181e-01</internalNodes>
          <leafValues>
            -1.0570675134658813e-01 3.7415573000907898e-01</leafValues></_>
        <_>
          <internalNodes>
            0 -1 189 -5.8018442243337631e-02</internalNodes>
          <leafValues>
            -7.2421294450759888e-01 5.0909284502267838e-02</leafValues></_>
        <_>
          <internalNodes>
            0 -1 192 -6.7995057906955481e-04</internalNodes>
          <leafValues>
            1.8518047034740448e-01 -1.4180752635002136e-01</leafValues></_>
        <_>
          <internalNodes>
            0 -1 349 -1.1352632194757462e-02</internalNodes>
          <leafValues>
            -6.7960661649703979e-01 1.9398987293243408e-02</leafValues></_>
        <_>
          <internalNodes>
            0 -1 273 1.0993723990395665e-03</internalNodes>
          <leafValues>
            -1.3365738093852997e-01 2.0149245858192444e-01</leafValues></_>
        <_>
          <internalNodes>
            0 -1 194 -2.1160818636417389e-02</internalNodes>
          <leafValues>
            -5.4441332817077637e-01 5.1082886755466461e-02</leafValues></_>
        <_>
          <internalNodes>
            0 -1 81 -6.8220018874853849e-04</internalNodes>
          <leafValues>
            1.6409738361835480e-01 -1.5365210175514221e-01</leafValues></_>
        <_>
          <internalNodes>
            0 -1 121 -1.4161195605993271e-02</internalNodes>
          <leafValues>
            -6.4637613296508789e-01 3.7869419902563095e-02</leafValues></_>
        <_>
          <internalNodes>
            0 -1 336 -3.1916230916976929e-02</internalNodes>
          <leafValues>
            -6.0561746358871460e-01 4.0849942713975906e-02</leafValues></_>
        <_>
          <internalNodes>
            0 -1 366 -1.0014900472015142e-03</internalNodes>
          <leafValues>
            1.8857358396053314e-01 -1.4759598672389984e-01</leafValues></_>
        <_>
          <internalNodes>
            0 -1 130 6.3224531710147858e-02</internalNodes>
          <leafValues>
            -1.1004200577735901e-01 2.3569189012050629e-01</leafValues></_>
        <_>
          <internalNodes>
            0 -1 361 1.0906287468969822e-02</internalNodes>
          <leafValues>
            -9.1672711074352264e-02 2.8053227066993713e-01</leafValues></_>
        <_>
          <internalNodes>
            0 -1 316 -1.2522919476032257e-01</internalNodes>
          <leafValues>
            3.9941066503524780e-01 -5.6986335664987564e-02</leafValues></_>
        <_>
          <internalNodes>
            0 -1 111 -1.1141950637102127e-01</internalNodes>
          <leafValues>
            -7.1543288230895996e-01 4.0048070251941681e-02</leafValues></_>
        <_>
          <internalNodes>
            0 -1 184 -8.0351461656391621e-04</internalNodes>
          <leafValues>
            2.3498573899269104e-01 -1.1583310365676880e-01</leafValues></_>
        <_>
          <internalNodes>
            0 -1 184 4.0470034582540393e-04</internalNodes>
          <leafValues>
            -1.4047959446907043e-01 2.0020687580108643e-01</leafValues></_>
        <_>
          <internalNodes>
            0 -1 61 -5.9720524586737156e-03</internalNodes>
          <leafValues>
            2.2615092992782593e-01 -1.1668230593204498e-01</leafValues></_>
        <_>
          <internalNodes>
            0 -1 181 -6.6884662955999374e-03</internalNodes>
          <leafValues>
            -5.8472079038619995e-01 4.3970458209514618e-02</leafValues></_>
        <_>
          <internalNodes>
            0 -1 239 3.0610505491495132e-02</internalNodes>
          <leafValues>
            3.4107059240341187e-02 -6.7932188510894775e-01</leafValues></_>
        <_>
          <internalNodes>
            0 -1 313 -8.3903124323114753e-04</internalNodes>
          <leafValues>
            2.1015341579914093e-01 -1.3085040450096130e-01</leafValues></_>
        <_>
          <internalNodes>
            0 -1 80 -1.0336851701140404e-03</internalNodes>
          <leafValues>
            2.1828551590442657e-01 -1.1215139925479889e-01</leafValues></_>
        <_>
          <internalNodes>
            0 -1 190 -3.5428002476692200e-02</internalNodes>
          <leafValues>
            -6.6904079914093018e-01 4.1725113987922668e-02</leafValues></_>
        <_>
          <internalNodes>
            0 -1 30 -2.1453169174492359e-03</internalNodes>
          <leafValues>
            2.0906095206737518e-01 -1.1660642176866531e-01</leafValues></_>
        <_>
          <internalNodes>
            0 -1 58 -2.1870179101824760e-02</internalNodes>
          <leafValues>
            2.5962254405021667e-01 -9.6331469714641571e-02</leafValues></_>
        <_>
          <internalNodes>
            0 -1 103 -7.1292428765445948e-04</internalNodes>
          <leafValues>
            2.1171876788139343e-01 -1.1596760898828506e-01</leafValues></_>
        <_>
          <internalNodes>
            0 -1 31 3.7919081747531891e-02</internalNodes>
          <leafValues>
            -1.0362093150615692e-01 2.7954930067062378e-01</leafValues></_>
        <_>
          <internalNodes>
            0 -1 372 -1.1523514986038208e-03</internalNodes>
          <leafValues>
            1.5627825260162354e-01 -1.6487583518028259e-01</leafValues></_>
        <_>
          <internalNodes>
            0 -1 360 -1.5077007701620460e-03</internalNodes>
          <leafValues>
            2.5203147530555725e-01 -1.0355924814939499e-01</leafValues></_>
        <_>
          <internalNodes>
            0 -1 171 -1.1547754984349012e-03</internalNodes>
          <leafValues>
            2.2256428003311157e-01 -1.1085645109415054e-01</leafValues></_>
        <_>
          <internalNodes>
            0 -1 225 1.2481560930609703e-02</internalNodes>
          <leafValues>
            4.1901197284460068e-02 -6.4770543575286865e-01</leafValues></_>
        <_>
          <internalNodes>
            0 -1 334 1.7769028199836612e-03</internalNodes>
          <leafValues>
            -1.1080522090196609e-01 2.1733926236629486e-01</leafValues></_>
        <_>
          <internalNodes>
            0 -1 355 -5.7076001539826393e-03</internalNodes>
          <leafValues>
            -8.3825707435607910e-01 3.2645352184772491e-02</leafValues></_>
        <_>
          <internalNodes>
            0 -1 310 1.2032124213874340e-03</internalNodes>
          <leafValues>
            -1.2968730926513672e-01 1.9387106597423553e-01</leafValues></_>
        <_>
          <internalNodes>
            0 -1 309 -1.1914672795683146e-03</internalNodes>
          <leafValues>
            2.1511396765708923e-01 -1.2211997061967850e-01</leafValues></_>
        <_>
          <internalNodes>
            0 -1 128 -1.3438664609566331e-03</internalNodes>
          <leafValues>
            1.8867045640945435e-01 -1.3373282551765442e-01</leafValues></_>
        <_>
          <internalNodes>
            0 -1 0 9.0872280998155475e-04</internalNodes>
          <leafValues>
            -1.0782198607921600e-01 2.2393418848514557e-01</leafValues></_>
        <_>
          <internalNodes>
            0 -1 386 -3.8912016898393631e-03</internalNodes>
          <leafValues>
            2.0402386784553528e-01 -1.1688219755887985e-01</leafValues></_>
        <_>
          <internalNodes>
            0 -1 375 -1.0036780498921871e-02</internalNodes>
          <leafValues>
            2.2768639028072357e-01 -1.1632519960403442e-01</leafValues></_>
        <_>
          <internalNodes>
            0 -1 305 2.9428120702505112e-02</internalNodes>
          <leafValues>
            -8.9427173137664795e-02 3.0727857351303101e-01</leafValues></_>
        <_>
          <internalNodes>
            0 -1 335 1.4813290908932686e-02</internalNodes>
          <leafValues>
            3.8301829248666763e-02 -7.9229849576950073e-01</leafValues></_>
        <_>
          <internalNodes>
            0 -1 109 7.6535735279321671e-03</internalNodes>
          <leafValues>
            2.2396367043256760e-02 -8.1611621379852295e-01</leafValues></_>
        <_>
          <internalNodes>
            0 -1 358 -2.2965813986957073e-03</internalNodes>
          <leafValues>
            2.0454101264476776e-01 -1.3133814930915833e-01</leafValues></_>
        <_>
          <internalNodes>
            0 -1 365 -3.9746914058923721e-02</internalNodes>
          <leafValues>
            3.4271338582038879e-01 -7.6798319816589355e-02</leafValues></_>
        <_>
          <internalNodes>
            0 -1 312 6.2659066170454025e-03</internalNodes>
          <leafValues>
            3.5299092531204224e-02 -7.7731561660766602e-01</leafValues></_>
        <_>
          <internalNodes>
            0 -1 268 -1.4493271009996533e-03</internalNodes>
          <leafValues>
            1.7893415689468384e-01 -1.4521411061286926e-01</leafValues></_>
        <_>
          <internalNodes>
            0 -1 339 -8.1002358347177505e-03</internalNodes>
          <leafValues>
            -6.9188028573989868e-01 3.9590504020452499e-02</leafValues></_>
        <_>
          <internalNodes>
            0 -1 354 -7.3062221053987741e-04</internalNodes>
          <leafValues>
            1.6598066687583923e-01 -1.5219247341156006e-01</leafValues></_></weakClassifiers></_>
    <!-- stage 9 -->
    <_>
      <maxWeakCount>65</maxWeakCount>
      <stageThreshold>-7.7069705724716187e-01</stageThreshold>
      <weakClassifiers>
        <_>
          <internalNodes>
            0 -1 240 -1.4157759025692940e-02</internalNodes>
          <leafValues>
            -5.2238804101943970e-01 2.8375732898712158e-01</leafValues></_>
        <_>
          <internalNodes>
            0 -1 70 7.0450037717819214e-02</internalNodes>
          <leafValues>
            -8.3106435835361481e-02 3.0499088764190674e-01</leafValues></_>
        <_>
          <internalNodes>
            0 -1 199 -1.3679806143045425e-03</internalNodes>
          <leafValues>
            2.0945587754249573e-01 -1.2178952991962433e-01</leafValues></_>
        <_>
          <internalNodes>
            0 -1 84 -2.9289793223142624e-02</internalNodes>
          <leafValues>
            2.5927457213401794e-01 -1.6291475296020508e-01</leafValues></_>
        <_>
          <internalNodes>
            0 -1 51 -3.0800070613622665e-02</internalNodes>
          <leafValues>
            2.2274690866470337e-01 -1.2601578235626221e-01</leafValues></_>
        <_>
          <internalNodes>
            0 -1 24 6.6106177866458893e-02</internalNodes>
          <leafValues>
            -7.1658387780189514e-02 3.6911055445671082e-01</leafValues></_>
        <_>
          <internalNodes>
            0 -1 254 -1.2240037322044373e-03</internalNodes>
          <leafValues>
            2.3733308911323547e-01 -1.0731346905231476e-01</leafValues></_>
        <_>
          <internalNodes>
            0 -1 195 9.2573929578065872e-04</internalNodes>
          <leafValues>
            -1.3759233057498932e-01 2.0356541872024536e-01</leafValues></_>
        <_>
          <internalNodes>
            0 -1 125 9.7933840006589890e-03</internalNodes>
          <leafValues>
            2.9267495498061180e-02 -7.8886777162551880e-01</leafValues></_>
        <_>
          <internalNodes>
            0 -1 188 -2.3674972355365753e-02</internalNodes>
          <leafValues>
            -6.7167764902114868e-01 3.7723604589700699e-02</leafValues></_>
        <_>
          <internalNodes>
            0 -1 185 -6.2108994461596012e-04</internalNodes>
          <leafValues>
            2.3309162259101868e-01 -1.0443428158760071e-01</leafValues></_>
        <_>
          <internalNodes>
            0 -1 43 -3.5898085683584213e-02</internalNodes>
          <leafValues>
            2.6297232508659363e-01 -1.0052789747714996e-01</leafValues></_>
        <_>
          <internalNodes>
            0 -1 50 -8.1113917985931039e-04</internalNodes>
          <leafValues>
            2.0420098304748535e-01 -1.2690991163253784e-01</leafValues></_>
        <_>
          <internalNodes>
            0 -1 269 -2.6079922914505005e-02</internalNodes>
          <leafValues>
            -6.9592285156250000e-01 3.1477302312850952e-02</leafValues></_>
        <_>
          <internalNodes>
            0 -1 232 2.6597634423524141e-03</internalNodes>
          <leafValues>
            -1.2445995956659317e-01 1.9959294795989990e-01</leafValues></_>
        <_>
          <internalNodes>
            0 -1 303 7.9103885218501091e-03</internalNodes>
          <leafValues>
            5.0419364124536514e-02 -6.1764794588088989e-01</leafValues></_>
        <_>
          <internalNodes>
            0 -1 297 7.7202897518873215e-03</internalNodes>
          <leafValues>
            3.3665437251329422e-02 -5.6650108098983765e-01</leafValues></_>
        <_>
          <internalNodes>
            0 -1 226 1.3402817770838737e-02</internalNodes>
          <leafValues>
            5.3906872868537903e-02 -4.0898540616035461e-01</leafValues></_>
        <_>
          <internalNodes>
            0 -1 166 -1.7233472317457199e-02</internalNodes>
          <leafValues>
            -6.9046092033386230e-01 2.9764194041490555e-02</leafValues></_>
        <_>
          <internalNodes>
            0 -1 170 -8.6659216322004795e-04</internalNodes>
          <leafValues>
            1.8958531320095062e-01 -1.2223713099956512e-01</leafValues></_>
        <_>
          <internalNodes>
            0 -1 213 -1.6813272237777710e-01</internalNodes>
          <leafValues>
            4.8660925030708313e-01 -4.3959990143775940e-02</leafValues></_>
        <_>
          <internalNodes>
            0 -1 49 8.7504446506500244e-02</internalNodes>
          <leafValues>
            -8.7402634322643280e-02 2.7771300077438354e-01</leafValues></_>
        <_>
          <internalNodes>
            0 -1 134 7.8816689550876617e-02</internalNodes>
          <leafValues>
            -8.4433287382125854e-02 3.4888026118278503e-01</leafValues></_>
        <_>
          <internalNodes>
            0 -1 348 1.9509048433974385e-03</internalNodes>
          <leafValues>
            -1.1738196015357971e-01 2.2397521138191223e-01</leafValues></_>
        <_>
          <internalNodes>
            0 -1 44 -7.3336988687515259e-02</internalNodes>
          <leafValues>
            4.0597352385520935e-01 -6.0185059905052185e-02</leafValues></_>
        <_>
          <internalNodes>
            0 -1 270 -8.8266155216842890e-04</internalNodes>
          <leafValues>
            2.4059394001960754e-01 -1.0060060024261475e-01</leafValues></_>
        <_>
          <internalNodes>
            0 -1 56 -1.4909140300005674e-03</internalNodes>
          <leafValues>
            2.1670873463153839e-01 -1.1469837278127670e-01</leafValues></_>
        <_>
          <internalNodes>
            0 -1 73 -2.8711464256048203e-03</internalNodes>
          <leafValues>
            1.8546621501445770e-01 -1.3304717838764191e-01</leafValues></_>
        <_>
          <internalNodes>
            0 -1 29 -1.7966080922633410e-03</internalNodes>
          <leafValues>
            2.7188837528228760e-01 -9.7714670002460480e-02</leafValues></_>
        <_>
          <internalNodes>
            0 -1 359 8.6109456606209278e-04</internalNodes>
          <leafValues>
            -1.0247504711151123e-01 2.2634868323802948e-01</leafValues></_>
        <_>
          <internalNodes>
            0 -1 163 6.7142117768526077e-04</internalNodes>
          <leafValues>
            -1.1750859767198563e-01 2.0715782046318054e-01</leafValues></_>
        <_>
          <internalNodes>
            0 -1 164 -1.0113841854035854e-03</internalNodes>
          <leafValues>
            1.8278864026069641e-01 -1.3253232836723328e-01</leafValues></_>
        <_>
          <internalNodes>
            0 -1 146 5.6306424085050821e-04</internalNodes>
          <leafValues>
            -1.2025909870862961e-01 1.9588759541511536e-01</leafValues></_>
        <_>
          <internalNodes>
            0 -1 83 -8.5669038817286491e-03</internalNodes>
          <leafValues>
            -4.6649953722953796e-01 5.5293224751949310e-02</leafValues></_>
        <_>
          <internalNodes>
            0 -1 67 -5.6299800053238869e-03</internalNodes>
          <leafValues>
            2.2302094101905823e-01 -1.1200542747974396e-01</leafValues></_>
        <_>
          <internalNodes>
            0 -1 263 -4.0710847824811935e-03</internalNodes>
          <leafValues>
            -5.8628398180007935e-01 4.1513875126838684e-02</leafValues></_>
        <_>
          <internalNodes>
            0 -1 140 -1.4537873212248087e-03</internalNodes>
          <leafValues>
            1.4903493225574493e-01 -1.5641547739505768e-01</leafValues></_>
        <_>
          <internalNodes>
            0 -1 255 -2.1058276295661926e-02</internalNodes>
          <leafValues>
            -7.2288161516189575e-01 2.8357055038213730e-02</leafValues></_>
        <_>
          <internalNodes>
            0 -1 367 3.3308491110801697e-02</internalNodes>
          <leafValues>
            -9.8665647208690643e-02 2.2932508587837219e-01</leafValues></_>
        <_>
          <internalNodes>
            0 -1 293 -7.2318583726882935e-02</internalNodes>
          <leafValues>
            -9.1241669654846191e-01 2.7824481949210167e-02</leafValues></_>
        <_>
          <internalNodes>
            0 -1 343 -6.6632294328883290e-04</internalNodes>
          <leafValues>
            1.9401825964450836e-01 -1.1665075272321701e-01</leafValues></_>
        <_>
          <internalNodes>
            0 -1 272 -7.4263697024434805e-04</internalNodes>
          <leafValues>
            2.1452800929546356e-01 -1.0653787851333618e-01</leafValues></_>
        <_>
          <internalNodes>
            0 -1 272 8.2567369099706411e-04</internalNodes>
          <leafValues>
            -1.0792174935340881e-01 2.1418979763984680e-01</leafValues></_>
        <_>
          <internalNodes>
            0 -1 215 4.1703740134835243e-03</internalNodes>
          <leafValues>
            4.7335937619209290e-02 -5.3283047676086426e-01</leafValues></_>
        <_>
          <internalNodes>
            0 -1 216 -1.4469552785158157e-02</internalNodes>
          <leafValues>
            -6.6800534725189209e-01 3.4102573990821838e-02</leafValues></_>
        <_>
          <internalNodes>
            0 -1 356 -1.0714113712310791e-02</internalNodes>
          <leafValues>
            -6.6729712486267090e-01 2.9206981882452965e-02</leafValues></_>
        <_>
          <internalNodes>
            0 -1 129 4.1971161961555481e-02</internalNodes>
          <leafValues>
            -1.0730257630348206e-01 2.0706932246685028e-01</leafValues></_>
        <_>
          <internalNodes>
            0 -1 342 -1.3865636661648750e-02</internalNodes>
          <leafValues>
            -3.9349892735481262e-01 5.5363565683364868e-02</leafValues></_>
        <_>
          <internalNodes>
            0 -1 94 2.0081140100955963e-02</internalNodes>
          <leafValues>
            2.6707883924245834e-02 -7.7427762746810913e-01</leafValues></_>
        <_>
          <internalNodes>
            0 -1 181 7.3399459943175316e-03</internalNodes>
          <leafValues>
            2.2559840232133865e-02 -7.6149660348892212e-01</leafValues></_>
        <_>
          <internalNodes>
            0 -1 198 -1.0045633651316166e-02</internalNodes>
          <leafValues>
            -7.5401282310485840e-01 2.5132855400443077e-02</leafValues></_>
        <_>
          <internalNodes>
            0 -1 151 -7.5515076518058777e-02</internalNodes>
          <leafValues>
            -5.8474081754684448e-01 3.4863851964473724e-02</leafValues></_>
        <_>
          <internalNodes>
            0 -1 154 -7.4734480585902929e-04</internalNodes>
          <leafValues>
            2.1582038700580597e-01 -1.0536156594753265e-01</leafValues></_>
        <_>
          <internalNodes>
            0 -1 155 -8.3980831550434232e-04</internalNodes>
          <leafValues>
            2.1119463443756104e-01 -1.2759535014629364e-01</leafValues></_>
        <_>
          <internalNodes>
            0 -1 191 1.0522152297198772e-03</internalNodes>
          <leafValues>
            -1.0772403329610825e-01 2.6402005553245544e-01</leafValues></_>
        <_>
          <internalNodes>
            0 -1 230 7.6763210818171501e-03</internalNodes>
          <leafValues>
            5.4594423621892929e-02 -4.5006972551345825e-01</leafValues></_>
        <_>
          <internalNodes>
            0 -1 64 2.3197617381811142e-02</internalNodes>
          <leafValues>
            -8.7370790541172028e-02 2.6909819245338440e-01</leafValues></_>
        <_>
          <internalNodes>
            0 -1 135 -6.5470428671687841e-04</internalNodes>
          <leafValues>
            1.9348278641700745e-01 -1.1578482389450073e-01</leafValues></_>
        <_>
          <internalNodes>
            0 -1 11 1.8191318958997726e-02</internalNodes>
          <leafValues>
            -9.3469887971878052e-02 2.3901514708995819e-01</leafValues></_>
        <_>
          <internalNodes>
            0 -1 132 5.5761493742465973e-02</internalNodes>
          <leafValues>
            -4.2820312082767487e-02 5.4467052221298218e-01</leafValues></_>
        <_>
          <internalNodes>
            0 -1 145 -8.2835860550403595e-02</internalNodes>
          <leafValues>
            -6.3524353504180908e-01 3.9955642074346542e-02</leafValues></_>
        <_>
          <internalNodes>
            0 -1 330 -3.1169893918558955e-04</internalNodes>
          <leafValues>
            1.4593355357646942e-01 -1.7204982042312622e-01</leafValues></_>
        <_>
          <internalNodes>
            0 -1 38 -1.7761296033859253e-01</internalNodes>
          <leafValues>
            3.6514994502067566e-01 -6.2226291745901108e-02</leafValues></_>
        <_>
          <internalNodes>
            0 -1 19 -5.1384652033448219e-03</internalNodes>
          <leafValues>
            2.4123780429363251e-01 -9.6387781202793121e-02</leafValues></_>
        <_>
          <internalNodes>
            0 -1 113 -7.7876257710158825e-03</internalNodes>
          <leafValues>
            -6.2442415952682495e-01 4.0178764611482620e-02</leafValues></_></weakClassifiers></_></stages>
  <features>
    <_>
      <rects>
        <_>
          0 0 2 2 -1.</_>
        <_>
          0 1 2 1 2.</_></rects>
      <tilted>0</tilted></_>
    <_>
      <rects>
        <_>
          0 0 6 13 -1.</_>
        <_>
          3 0 3 13 2.</_></rects>
      <tilted>0</tilted></_>
    <_>
      <rects>
        <_>
          0 0 6 24 -1.</_>
        <_>
          3 0 3 24 2.</_></rects>
      <tilted>0</tilted></_>
    <_>
      <rects>
        <_>
          0 0 12 14 -1.</_>
        <_>
          0 0 6 7 2.</_>
        <_>
          6 7 6 7 2.</_></rects>
      <tilted>0</tilted></_>
    <_>
      <rects>
        <_>
          0 2 4 9 -1.</_>
        <_>
          2 2 2 9 2.</_></rects>
      <tilted>0</tilted></_>
    <_>
      <rects>
        <_>
          0 2 4 22 -1.</_>
        <_>
          2 2 2 22 2.</_></rects>
      <tilted>0</tilted></_>
    <_>
      <rects>
        <_>
          0 2 6 10 -1.</_>
        <_>
          3 2 3 10 2.</_></rects>
      <tilted>0</tilted></_>
    <_>
      <rects>
        <_>
          0 2 6 15 -1.</_>
        <_>
          3 2 3 15 2.</_></rects>
      <tilted>0</tilted></_>
    <_>
      <rects>
        <_>
          0 2 8 16 -1.</_>
        <_>
          4 2 4 16 2.</_></rects>
      <tilted>0</tilted></_>
    <_>
      <rects>
        <_>
          0 2 12 9 -1.</_>
        <_>
          6 2 6 9 2.</_></rects>
      <tilted>0</tilted></_>
    <_>
      <rects>
        <_>
          0 3 3 5 -1.</_>
        <_>
          1 3 1 5 3.</_></rects>
      <tilted>0</tilted></_>
    <_>
      <rects>
        <_>
          0 3 3 14 -1.</_>
        <_>
          1 3 1 14 3.</_></rects>
      <tilted>0</tilted></_>
    <_>
      <rects>
        <_>
          0 3 6 20 -1.</_>
        <_>
          3 3 3 20 2.</_></rects>
      <tilted>0</tilted></_>
    <_>
      <rects>
        <_>
          0 4 3 15 -1.</_>
        <_>
          1 4 1 15 3.</_></rects>
      <tilted>0</tilted></_>
    <_>
      <rects>
        <_>
          0 4 6 14 -1.</_>
        <_>
          3 4 3 14 2.</_></rects>
      <tilted>0</tilted></_>
    <_>
      <rects>
        <_>
          0 4 6 18 -1.</_>
        <_>
          3 4 3 18 2.</_></rects>
      <tilted>0</tilted></_>
    <_>
      <rects>
        <_>
          0 5 2 1 -1.</_>
        <_>
          1 5 1 1 2.</_></rects>
      <tilted>0</tilted></_>
    <_>
      <rects>
        <_>
          0 5 16 16 -1.</_>
        <_>
          0 13 16 8 2.</_></rects>
      <tilted>0</tilted></_>
    <_>
      <rects>
        <_>
          0 7 3 1 -1.</_>
        <_>
          1 7 1 1 3.</_></rects>
      <tilted>0</tilted></_>
    <_>
      <rects>
        <_>
          0 7 3 5 -1.</_>
        <_>
          1 7 1 5 3.</_></rects>
      <tilted>0</tilted></_>
    <_>
      <rects>
        <_>
          0 7 10 15 -1.</_>
        <_>
          5 7 5 15 2.</_></rects>
      <tilted>0</tilted></_>
    <_>
      <rects>
        <_>
          0 7 15 16 -1.</_>
        <_>
          5 7 5 16 3.</_></rects>
      <tilted>0</tilted></_>
    <_>
      <rects>
        <_>
          0 8 1 3 -1.</_>
        <_>
          0 9 1 1 3.</_></rects>
      <tilted>0</tilted></_>
    <_>
      <rects>
        <_>
          0 8 9 11 -1.</_>
        <_>
          3 8 3 11 3.</_></rects>
      <tilted>0</tilted></_>
    <_>
      <rects>
        <_>
          0 8 6 15 -1.</_>
        <_>
          3 8 3 15 2.</_></rects>
      <tilted>0</tilted></_>
    <_>
      <rects>
        <_>
          0 8 8 14 -1.</_>
        <_>
          4 8 4 14 2.</_></rects>
      <tilted>0</tilted></_>
    <_>
      <rects>
        <_>
          0 8 15 14 -1.</_>
        <_>
          5 8 5 14 3.</_></rects>
      <tilted>0</tilted></_>
    <_>
      <rects>
        <_>
          0 9 8 7 -1.</_>
        <_>
          4 9 4 7 2.</_></rects>
      <tilted>0</tilted></_>
    <_>
      <rects>
        <_>
          0 11 8 13 -1.</_>
        <_>
          4 11 4 13 2.</_></rects>
      <tilted>0</tilted></_>
    <_>
      <rects>
        <_>
          0 14 3 1 -1.</_>
        <_>
          1 14 1 1 3.</_></rects>
      <tilted>0</tilted></_>
    <_>
      <rects>
        <_>
          0 16 3 2 -1.</_>
        <_>
          1 16 1 2 3.</_></rects>
      <tilted>0</tilted></_>
    <_>
      <rects>
        <_>
          0 16 8 7 -1.</_>
        <_>
          4 16 4 7 2.</_></rects>
      <tilted>0</tilted></_>
    <_>
      <rects>
        <_>
          0 16 10 8 -1.</_>
        <_>
          5 16 5 8 2.</_></rects>
      <tilted>0</tilted></_>
    <_>
      <rects>
        <_>
          0 17 3 1 -1.</_>
        <_>
          1 17 1 1 3.</_></rects>
      <tilted>0</tilted></_>
    <_>
      <rects>
        <_>
          0 17 2 2 -1.</_>
        <_>
          0 18 2 1 2.</_></rects>
      <tilted>0</tilted></_>
    <_>
      <rects>
        <_>
          0 18 4 3 -1.</_>
        <_>
          0 19 4 1 3.</_></rects>
      <tilted>0</tilted></_>
    <_>
      <rects>
        <_>
          0 18 10 5 -1.</_>
        <_>
          5 18 5 5 2.</_></rects>
      <tilted>0</tilted></_>
    <_>
      <rects>
        <_>
          0 20 14 4 -1.</_>
        <_>
          0 22 14 2 2.</_></rects>
      <tilted>0</tilted></_>
    <_>
      <rects>
        <_>
          1 0 10 24 -1.</_>
        <_>
          6 0 5 24 2.</_></rects>
      <tilted>0</tilted></_>
    <_>
      <rects>
        <_>
          1 0 15 24 -1.</_>
        <_>
          6 0 5 24 3.</_></rects>
      <tilted>0</tilted></_>
    <_>
      <rects>
        <_>
          1 1 14 6 -1.</_>
        <_>
          1 4 14 3 2.</_></rects>
      <tilted>0</tilted></_>
    <_>
      <rects>
        <_>
          1 3 3 1 -1.</_>
        <_>
          2 3 1 1 3.</_></rects>
      <tilted>0</tilted></_>
    <_>
      <rects>
        <_>
          1 3 1 6 -1.</_>
        <_>
          1 5 1 2 3.</_></rects>
      <tilted>0</tilted></_>
    <_>
      <rects>
        <_>
          1 3 6 6 -1.</_>
        <_>
          4 3 3 6 2.</_></rects>
      <tilted>0</tilted></_>
    <_>
      <rects>
        <_>
          1 3 12 10 -1.</_>
        <_>
          1 3 6 5 2.</_>
        <_>
          7 8 6 5 2.</_></rects>
      <tilted>0</tilted></_>
    <_>
      <rects>
        <_>
          1 5 3 1 -1.</_>
        <_>
          2 5 1 1 3.</_></rects>
      <tilted>0</tilted></_>
    <_>
      <rects>
        <_>
          1 5 2 2 -1.</_>
        <_>
          2 5 1 2 2.</_></rects>
      <tilted>0</tilted></_>
    <_>
      <rects>
        <_>
          1 5 4 9 -1.</_>
        <_>
          3 5 2 9 2.</_></rects>
      <tilted>0</tilted></_>
    <_>
      <rects>
        <_>
          1 5 15 19 -1.</_>
        <_>
          6 5 5 19 3.</_></rects>
      <tilted>0</tilted></_>
    <_>
      <rects>
        <_>
          1 6 8 18 -1.</_>
        <_>
          1 15 8 9 2.</_></rects>
      <tilted>0</tilted></_>
    <_>
      <rects>
        <_>
          1 8 3 1 -1.</_>
        <_>
          2 8 1 1 3.</_></rects>
      <tilted>0</tilted></_>
    <_>
      <rects>
        <_>
          1 9 6 15 -1.</_>
        <_>
          3 9 2 15 3.</_></rects>
      <tilted>0</tilted></_>
    <_>
      <rects>
        <_>
          1 10 8 10 -1.</_>
        <_>
          5 10 4 10 2.</_></rects>
      <tilted>0</tilted></_>
    <_>
      <rects>
        <_>
          1 10 15 13 -1.</_>
        <_>
          6 10 5 13 3.</_></rects>
      <tilted>0</tilted></_>
    <_>
      <rects>
        <_>
          1 11 6 13 -1.</_>
        <_>
          3 11 2 13 3.</_></rects>
      <tilted>0</tilted></_>
    <_>
      <rects>
        <_>
          1 13 6 8 -1.</_>
        <_>
          3 13 2 8 3.</_></rects>
      <tilted>0</tilted></_>
    <_>
      <rects>
        <_>
          1 14 3 1 -1.</_>
        <_>
          2 14 1 1 3.</_></rects>
      <tilted>0</tilted></_>
    <_>
      <rects>
        <_>
          1 15 3 2 -1.</_>
        <_>
          2 15 1 2 3.</_></rects>
      <tilted>0</tilted></_>
    <_>
      <rects>
        <_>
          1 15 4 8 -1.</_>
        <_>
          3 15 2 8 2.</_></rects>
      <tilted>0</tilted></_>
    <_>
      <rects>
        <_>
          1 16 3 1 -1.</_>
        <_>
          2 16 1 1 3.</_></rects>
      <tilted>0</tilted></_>
    <_>
      <rects>
        <_>
          1 16 3 5 -1.</_>
        <_>
          2 16 1 5 3.</_></rects>
      <tilted>0</tilted></_>
    <_>
      <rects>
        <_>
          1 16 3 6 -1.</_>
        <_>
          2 16 1 6 3.</_></rects>
      <tilted>0</tilted></_>
    <_>
      <rects>
        <_>
          1 20 3 1 -1.</_>
        <_>
          2 20 1 1 3.</_></rects>
      <tilted>0</tilted></_>
    <_>
      <rects>
        <_>
          1 20 6 1 -1.</_>
        <_>
          3 20 2 1 3.</_></rects>
      <tilted>0</tilted></_>
    <_>
      <rects>
        <_>
          1 20 8 3 -1.</_>
        <_>
          5 20 4 3 2.</_></rects>
      <tilted>0</tilted></_>
    <_>
      <rects>
        <_>
          1 23 2 1 -1.</_>
        <_>
          2 23 1 1 2.</_></rects>
      <tilted>0</tilted></_>
    <_>
      <rects>
        <_>
          2 1 6 12 -1.</_>
        <_>
          2 1 3 6 2.</_>
        <_>
          5 7 3 6 2.</_></rects>
      <tilted>0</tilted></_>
    <_>
      <rects>
        <_>
          2 3 3 6 -1.</_>
        <_>
          3 3 1 6 3.</_></rects>
      <tilted>0</tilted></_>
    <_>
      <rects>
        <_>
          2 3 3 18 -1.</_>
        <_>
          2 12 3 9 2.</_></rects>
      <tilted>0</tilted></_>
    <_>
      <rects>
        <_>
          2 5 2 1 -1.</_>
        <_>
          3 5 1 1 2.</_></rects>
      <tilted>0</tilted></_>
    <_>
      <rects>
        <_>
          2 8 8 14 -1.</_>
        <_>
          6 8 4 14 2.</_></rects>
      <tilted>0</tilted></_>
    <_>
      <rects>
        <_>
          2 11 2 12 -1.</_>
        <_>
          3 11 1 12 2.</_></rects>
      <tilted>0</tilted></_>
    <_>
      <rects>
        <_>
          2 12 2 1 -1.</_>
        <_>
          3 12 1 1 2.</_></rects>
      <tilted>0</tilted></_>
    <_>
      <rects>
        <_>
          2 12 2 3 -1.</_>
        <_>
          3 12 1 3 2.</_></rects>
      <tilted>0</tilted></_>
    <_>
      <rects>
        <_>
          2 13 3 5 -1.</_>
        <_>
          3 13 1 5 3.</_></rects>
      <tilted>0</tilted></_>
    <_>
      <rects>
        <_>
          2 14 3 2 -1.</_>
        <_>
          3 14 1 2 3.</_></rects>
      <tilted>0</tilted></_>
    <_>
      <rects>
        <_>
          2 14 3 7 -1.</_>
        <_>
          3 14 1 7 3.</_></rects>
      <tilted>0</tilted></_>
    <_>
      <rects>
        <_>
          2 20 8 4 -1.</_>
        <_>
          6 20 4 4 2.</_></rects>
      <tilted>0</tilted></_>
    <_>
      <rects>
        <_>
          3 0 9 22 -1.</_>
        <_>
          3 11 9 11 2.</_></rects>
      <tilted>0</tilted></_>
    <_>
      <rects>
        <_>
          3 1 6 6 -1.</_>
        <_>
          6 1 3 6 2.</_></rects>
      <tilted>0</tilted></_>
    <_>
      <rects>
        <_>
          3 3 1 3 -1.</_>
        <_>
          3 4 1 1 3.</_></rects>
      <tilted>0</tilted></_>
    <_>
      <rects>
        <_>
          3 6 3 3 -1.</_>
        <_>
          4 6 1 3 3.</_></rects>
      <tilted>0</tilted></_>
    <_>
      <rects>
        <_>
          3 9 3 1 -1.</_>
        <_>
          4 9 1 1 3.</_></rects>
      <tilted>0</tilted></_>
    <_>
      <rects>
        <_>
          3 12 2 2 -1.</_>
        <_>
          4 12 1 2 2.</_></rects>
      <tilted>0</tilted></_>
    <_>
      <rects>
        <_>
          3 12 4 11 -1.</_>
        <_>
          5 12 2 11 2.</_></rects>
      <tilted>0</tilted></_>
    <_>
      <rects>
        <_>
          3 13 3 2 -1.</_>
        <_>
          4 13 1 2 3.</_></rects>
      <tilted>0</tilted></_>
    <_>
      <rects>
        <_>
          3 14 3 3 -1.</_>
        <_>
          4 14 1 3 3.</_></rects>
      <tilted>0</tilted></_>
    <_>
      <rects>
        <_>
          3 16 2 2 -1.</_>
        <_>
          4 16 1 2 2.</_></rects>
      <tilted>0</tilted></_>
    <_>
      <rects>
        <_>
          3 16 10 2 -1.</_>
        <_>
          3 16 5 1 2.</_>
        <_>
          8 17 5 1 2.</_></rects>
      <tilted>0</tilted></_>
    <_>
      <rects>
        <_>
          3 17 3 5 -1.</_>
        <_>
          4 17 1 5 3.</_></rects>
      <tilted>0</tilted></_>
    <_>
      <rects>
        <_>
          4 3 3 4 -1.</_>
        <_>
          5 3 1 4 3.</_></rects>
      <tilted>0</tilted></_>
    <_>
      <rects>
        <_>
          4 9 3 3 -1.</_>
        <_>
          4 10 3 1 3.</_></rects>
      <tilted>0</tilted></_>
    <_>
      <rects>
        <_>
          4 11 3 2 -1.</_>
        <_>
          5 11 1 2 3.</_></rects>
      <tilted>0</tilted></_>
    <_>
      <rects>
        <_>
          4 12 1 6 -1.</_>
        <_>
          4 14 1 2 3.</_></rects>
      <tilted>0</tilted></_>
    <_>
      <rects>
        <_>
          4 12 10 2 -1.</_>
        <_>
          4 12 5 1 2.</_>
        <_>
          9 13 5 1 2.</_></rects>
      <tilted>0</tilted></_>
    <_>
      <rects>
        <_>
          4 12 7 9 -1.</_>
        <_>
          4 15 7 3 3.</_></rects>
      <tilted>0</tilted></_>
    <_>
      <rects>
        <_>
          4 13 3 1 -1.</_>
        <_>
          5 13 1 1 3.</_></rects>
      <tilted>0</tilted></_>
    <_>
      <rects>
        <_>
          4 13 6 9 -1.</_>
        <_>
          4 16 6 3 3.</_></rects>
      <tilted>0</tilted></_>
    <_>
      <rects>
        <_>
          4 14 2 1 -1.</_>
        <_>
          5 14 1 1 2.</_></rects>
      <tilted>0</tilted></_>
    <_>
      <rects>
        <_>
          4 14 1 3 -1.</_>
        <_>
          4 15 1 1 3.</_></rects>
      <tilted>0</tilted></_>
    <_>
      <rects>
        <_>
          4 14 2 8 -1.</_>
        <_>
          5 14 1 8 2.</_></rects>
      <tilted>0</tilted></_>
    <_>
      <rects>
        <_>
          4 14 4 1 -1.</_>
        <_>
          6 14 2 1 2.</_></rects>
      <tilted>0</tilted></_>
    <_>
      <rects>
        <_>
          4 14 2 3 -1.</_>
        <_>
          4 15 2 1 3.</_></rects>
      <tilted>0</tilted></_>
    <_>
      <rects>
        <_>
          4 18 2 1 -1.</_>
        <_>
          5 18 1 1 2.</_></rects>
      <tilted>0</tilted></_>
    <_>
      <rects>
        <_>
          4 20 6 2 -1.</_>
        <_>
          6 20 2 2 3.</_></rects>
      <tilted>0</tilted></_>
    <_>
      <rects>
        <_>
