<?xml version="1.0"?>
<opencv_storage>
<cascade>
  <stageType>BOOST</stageType>
  <featureType>HAAR</featureType>
  <height>25</height>
  <width>20</width>
  <stageParams>
    <boostType>GAB</boostType>
    <minHitRate>9.9500000476837158e-01</minHitRate>
    <maxFalseAlarm>5.0000000000000000e-01</maxFalseAlarm>
    <weightTrimRate>9.4999999999999996e-01</weightTrimRate>
    <maxDepth>1</maxDepth>
    <maxWeakCount>100</maxWeakCount></stageParams>
  <featureParams>
    <maxCatCount>0</maxCatCount>
    <featSize>1</featSize>
    <mode>BASIC</mode></featureParams>
  <stageNum>16</stageNum>
  <stages>
    <!-- stage 0 -->
    <_>
      <maxWeakCount>7</maxWeakCount>
      <stageThreshold>-1.5023992061614990e+00</stageThreshold>
      <weakClassifiers>
        <_>
          <internalNodes>
            0 -1 4 3.8602620363235474e-02</internalNodes>
          <leafValues>
            -4.9900597333908081e-01 8.4582895040512085e-01</leafValues></_>
        <_>
          <internalNodes>
            0 -1 225 8.0703742802143097e-02</internalNodes>
          <leafValues>
            -3.2234153151512146e-01 8.8312375545501709e-01</leafValues></_>
        <_>
          <internalNodes>
            0 -1 12 4.2116012424230576e-02</internalNodes>
          <leafValues>
            -3.4523880481719971e-01 6.5109479427337646e-01</leafValues></_>
        <_>
          <internalNodes>
            0 -1 178 3.1009882688522339e-02</internalNodes>
          <leafValues>
            -4.0911898016929626e-01 5.4709088802337646e-01</leafValues></_>
        <_>
          <internalNodes>
            0 -1 18 8.9901641011238098e-02</internalNodes>
          <leafValues>
            -2.6451525092124939e-01 7.6591920852661133e-01</leafValues></_>
        <_>
          <internalNodes>
            0 -1 295 -2.3953963071107864e-02</internalNodes>
          <leafValues>
            6.4111906290054321e-01 -2.5243413448333740e-01</leafValues></_>
        <_>
          <internalNodes>
            0 -1 50 -1.8624611198902130e-02</internalNodes>
          <leafValues>
            4.9540066719055176e-01 -3.6595439910888672e-01</leafValues></_></weakClassifiers></_>
    <!-- stage 1 -->
    <_>
      <maxWeakCount>7</maxWeakCount>
      <stageThreshold>-1.1796299219131470e+00</stageThreshold>
      <weakClassifiers>
        <_>
          <internalNodes>
            0 -1 5 4.6736672520637512e-02</internalNodes>
          <leafValues>
            -3.1390976905822754e-01 7.8104573488235474e-01</leafValues></_>
        <_>
          <internalNodes>
            0 -1 186 5.2496776916086674e-03</internalNodes>
          <leafValues>
            -4.5639348030090332e-01 6.3534659147262573e-01</leafValues></_>
        <_>
          <internalNodes>
            0 -1 171 -3.8302298635244370e-03</internalNodes>
          <leafValues>
            6.7675316333770752e-01 -4.0729305148124695e-01</leafValues></_>
        <_>
          <internalNodes>
            0 -1 289 -1.7799885943531990e-02</internalNodes>
          <leafValues>
            5.6662338972091675e-01 -4.0274938941001892e-01</leafValues></_>
        <_>
          <internalNodes>
            0 -1 89 1.1680680327117443e-02</internalNodes>
          <leafValues>
            -5.2819508314132690e-01 3.6087024211883545e-01</leafValues></_>
        <_>
          <internalNodes>
            0 -1 134 -8.5537007544189692e-04</internalNodes>
          <leafValues>
            3.3886227011680603e-01 -5.8592766523361206e-01</leafValues></_>
        <_>
          <internalNodes>
            0 -1 212 1.9264435395598412e-03</internalNodes>
          <leafValues>
            -5.0490701198577881e-01 3.3136844635009766e-01</leafValues></_></weakClassifiers></_>
    <!-- stage 2 -->
    <_>
      <maxWeakCount>12</maxWeakCount>
      <stageThreshold>-1.2187414169311523e+00</stageThreshold>
      <weakClassifiers>
        <_>
          <internalNodes>
            0 -1 226 7.9659298062324524e-02</internalNodes>
          <leafValues>
            -1.7425431311130524e-01 8.1303811073303223e-01</leafValues></_>
        <_>
          <internalNodes>
            0 -1 6 4.3024349957704544e-02</internalNodes>
          <leafValues>
            -4.0800538659095764e-01 6.8222087621688843e-01</leafValues></_>
        <_>
          <internalNodes>
            0 -1 204 6.7602458875626326e-04</internalNodes>
          <leafValues>
            -3.6133086681365967e-01 5.0832855701446533e-01</leafValues></_>
        <_>
          <internalNodes>
            0 -1 143 3.9794653654098511e-02</internalNodes>
          <leafValues>
            -3.6248710751533508e-01 5.1103812456130981e-01</leafValues></_>
        <_>
          <internalNodes>
            0 -1 176 1.8608534336090088e-01</internalNodes>
          <leafValues>
            -2.6450619101524353e-01 7.9221165180206299e-01</leafValues></_>
        <_>
          <internalNodes>
            0 -1 72 2.6711251586675644e-02</internalNodes>
          <leafValues>
            -3.1537547707557678e-01 5.0425630807876587e-01</leafValues></_>
        <_>
          <internalNodes>
            0 -1 73 -5.3587064146995544e-02</internalNodes>
          <leafValues>
            5.0683248043060303e-01 -2.3908181488513947e-01</leafValues></_>
        <_>
          <internalNodes>
            0 -1 307 -7.3006673483178020e-04</internalNodes>
          <leafValues>
            3.7553197145462036e-01 -3.3679017424583435e-01</leafValues></_>
        <_>
          <internalNodes>
            0 -1 59 -2.7029573917388916e-02</internalNodes>
          <leafValues>
            4.7271287441253662e-01 -2.8759929537773132e-01</leafValues></_>
        <_>
          <internalNodes>
            0 -1 41 2.8308648616075516e-03</internalNodes>
          <leafValues>
            -2.8153207898139954e-01 4.0521508455276489e-01</leafValues></_>
        <_>
          <internalNodes>
            0 -1 18 1.4057910442352295e-01</internalNodes>
          <leafValues>
            -1.2446480244398117e-01 9.5823597908020020e-01</leafValues></_>
        <_>
          <internalNodes>
            0 -1 31 -8.3842809544876218e-04</internalNodes>
          <leafValues>
            4.0473207831382751e-01 -2.8786882758140564e-01</leafValues></_></weakClassifiers></_>
    <!-- stage 3 -->
    <_>
      <maxWeakCount>12</maxWeakCount>
      <stageThreshold>-1.0011417865753174e+00</stageThreshold>
      <weakClassifiers>
        <_>
          <internalNodes>
            0 -1 284 -3.6390960216522217e-02</internalNodes>
          <leafValues>
            7.6170212030410767e-01 -1.2191235274076462e-01</leafValues></_>
        <_>
          <internalNodes>
            0 -1 29 7.4562638998031616e-02</internalNodes>
          <leafValues>
            -3.0641132593154907e-01 6.6222131252288818e-01</leafValues></_>
        <_>
          <internalNodes>
            0 -1 200 -2.2552697919309139e-03</internalNodes>
          <leafValues>
            5.0155788660049438e-01 -3.8693332672119141e-01</leafValues></_>
        <_>
          <internalNodes>
            0 -1 202 1.0920063592493534e-02</internalNodes>
          <leafValues>
            -3.6454689502716064e-01 4.5609289407730103e-01</leafValues></_>
        <_>
          <internalNodes>
            0 -1 125 1.4203146100044250e-02</internalNodes>
          <leafValues>
            -5.0269913673400879e-01 2.5053316354751587e-01</leafValues></_>
        <_>
          <internalNodes>
            0 -1 8 7.9784683883190155e-02</internalNodes>
          <leafValues>
            -2.5338408350944519e-01 5.3083604574203491e-01</leafValues></_>
        <_>
          <internalNodes>
            0 -1 54 5.3197018802165985e-02</internalNodes>
          <leafValues>
            -1.7606523633003235e-01 6.5805321931838989e-01</leafValues></_>
        <_>
          <internalNodes>
            0 -1 239 5.2282735705375671e-03</internalNodes>
          <leafValues>
            -3.3425194025039673e-01 3.5444083809852600e-01</leafValues></_>
        <_>
          <internalNodes>
            0 -1 51 -6.8009316921234131e-02</internalNodes>
          <leafValues>
            6.2743872404098511e-01 -1.6654096543788910e-01</leafValues></_>
        <_>
          <internalNodes>
            0 -1 208 1.0237194597721100e-01</internalNodes>
          <leafValues>
            -1.9835443794727325e-01 5.4396724700927734e-01</leafValues></_>
        <_>
          <internalNodes>
            0 -1 14 1.1536313593387604e-01</internalNodes>
          <leafValues>
            -2.0476832985877991e-01 5.8261823654174805e-01</leafValues></_>
        <_>
          <internalNodes>
            0 -1 81 -6.7250302527099848e-04</internalNodes>
          <leafValues>
            3.8611310720443726e-01 -2.4783866107463837e-01</leafValues></_></weakClassifiers></_>
    <!-- stage 4 -->
    <_>
      <maxWeakCount>17</maxWeakCount>
      <stageThreshold>-9.9491232633590698e-01</stageThreshold>
      <weakClassifiers>
        <_>
          <internalNodes>
            0 -1 2 6.4415112137794495e-02</internalNodes>
          <leafValues>
            -1.3609467446804047e-01 7.3442047834396362e-01</leafValues></_>
        <_>
          <internalNodes>
            0 -1 282 -2.9123190790414810e-02</internalNodes>
          <leafValues>
            5.1971065998077393e-01 -3.7279719114303589e-01</leafValues></_>
        <_>
          <internalNodes>
            0 -1 170 -5.8683357201516628e-04</internalNodes>
          <leafValues>
            3.4153673052787781e-01 -3.9833873510360718e-01</leafValues></_>
        <_>
          <internalNodes>
            0 -1 71 4.0916227735579014e-03</internalNodes>
          <leafValues>
            -3.1946435570716858e-01 4.0206843614578247e-01</leafValues></_>
        <_>
          <internalNodes>
            0 -1 161 -9.1397650539875031e-03</internalNodes>
          <leafValues>
            2.7598148584365845e-01 -4.1475456953048706e-01</leafValues></_>
        <_>
          <internalNodes>
            0 -1 13 7.5261592864990234e-02</internalNodes>
          <leafValues>
            -2.5466343760490417e-01 4.4506266713142395e-01</leafValues></_>
        <_>
          <internalNodes>
            0 -1 174 2.0587393641471863e-01</internalNodes>
          <leafValues>
            -2.4028173089027405e-01 6.3725554943084717e-01</leafValues></_>
        <_>
          <internalNodes>
            0 -1 217 -1.8299213843420148e-03</internalNodes>
          <leafValues>
            3.4772247076034546e-01 -2.8718075156211853e-01</leafValues></_>
        <_>
          <internalNodes>
            0 -1 235 4.6529906103387475e-04</internalNodes>
          <leafValues>
            -3.7429884076118469e-01 2.4474684894084930e-01</leafValues></_>
        <_>
          <internalNodes>
            0 -1 312 -1.3520539505407214e-03</internalNodes>
          <leafValues>
            4.0160453319549561e-01 -2.3665687441825867e-01</leafValues></_>
        <_>
          <internalNodes>
            0 -1 7 2.2269275039434433e-02</internalNodes>
          <leafValues>
            -2.5172349810600281e-01 4.0339750051498413e-01</leafValues></_>
        <_>
          <internalNodes>
            0 -1 205 1.4040754176676273e-03</internalNodes>
          <leafValues>
            -2.3807714879512787e-01 3.6530572175979614e-01</leafValues></_>
        <_>
          <internalNodes>
            0 -1 49 2.0222362130880356e-02</internalNodes>
          <leafValues>
            -3.7442904710769653e-01 2.7801176905632019e-01</leafValues></_>
        <_>
          <internalNodes>
            0 -1 195 8.9265179121866822e-04</internalNodes>
          <leafValues>
            -4.6166500449180603e-01 2.1347820758819580e-01</leafValues></_>
        <_>
          <internalNodes>
            0 -1 304 -7.5824011582881212e-04</internalNodes>
          <leafValues>
            2.7418708801269531e-01 -3.2109749317169189e-01</leafValues></_>
        <_>
          <internalNodes>
            0 -1 38 -7.3458254337310791e-02</internalNodes>
          <leafValues>
            6.6046541929244995e-01 -1.3479134440422058e-01</leafValues></_>
        <_>
          <internalNodes>
            0 -1 75 -3.2630502246320248e-03</internalNodes>
          <leafValues>
            5.7435828447341919e-01 -1.5395095944404602e-01</leafValues></_></weakClassifiers></_>
    <!-- stage 5 -->
    <_>
      <maxWeakCount>18</maxWeakCount>
      <stageThreshold>-1.0396608114242554e+00</stageThreshold>
      <weakClassifiers>
        <_>
          <internalNodes>
            0 -1 159 1.3467314653098583e-02</internalNodes>
          <leafValues>
            -1.2065813690423965e-01 6.8217056989669800e-01</leafValues></_>
        <_>
          <internalNodes>
            0 -1 0 7.5257480144500732e-02</internalNodes>
          <leafValues>
            -2.9004162549972534e-01 5.6142616271972656e-01</leafValues></_>
        <_>
          <internalNodes>
            0 -1 166 -9.5265433192253113e-02</internalNodes>
          <leafValues>
            5.6833243370056152e-01 -2.2467795014381409e-01</leafValues></_>
        <_>
          <internalNodes>
            0 -1 56 5.0795190036296844e-02</internalNodes>
          <leafValues>
            -2.3337799310684204e-01 6.2763345241546631e-01</leafValues></_>
        <_>
          <internalNodes>
            0 -1 177 2.0978376269340515e-01</internalNodes>
          <leafValues>
            -1.8003138899803162e-01 7.1727418899536133e-01</leafValues></_>
        <_>
          <internalNodes>
            0 -1 156 -4.6904725022614002e-03</internalNodes>
          <leafValues>
            3.9252677559852600e-01 -2.7543586492538452e-01</leafValues></_>
        <_>
          <internalNodes>
            0 -1 173 4.2277984321117401e-02</internalNodes>
          <leafValues>
            -2.7896580100059509e-01 3.5766136646270752e-01</leafValues></_>
        <_>
          <internalNodes>
            0 -1 311 -7.1286857128143311e-03</internalNodes>
          <leafValues>
            4.7208508849143982e-01 -1.9381986558437347e-01</leafValues></_>
        <_>
          <internalNodes>
            0 -1 135 -1.4894410967826843e-02</internalNodes>
          <leafValues>
            2.9775285720825195e-01 -3.1502667069435120e-01</leafValues></_>
        <_>
          <internalNodes>
            0 -1 31 -2.3084464482963085e-03</internalNodes>
          <leafValues>
            3.2054021954536438e-01 -2.8143137693405151e-01</leafValues></_>
        <_>
          <internalNodes>
            0 -1 16 8.8412284851074219e-02</internalNodes>
          <leafValues>
            -1.3258987665176392e-01 6.5678572654724121e-01</leafValues></_>
        <_>
          <internalNodes>
            0 -1 45 -5.6387227028608322e-02</internalNodes>
          <leafValues>
            4.3962156772613525e-01 -2.2499206662178040e-01</leafValues></_>
        <_>
          <internalNodes>
            0 -1 162 4.3209528666920960e-04</internalNodes>
          <leafValues>
            -1.9635704159736633e-01 4.3255001306533813e-01</leafValues></_>
        <_>
          <internalNodes>
            0 -1 85 8.9749455451965332e-02</internalNodes>
          <leafValues>
            -2.0295707881450653e-01 4.6332344412803650e-01</leafValues></_>
        <_>
          <internalNodes>
            0 -1 274 1.8203385116066784e-04</internalNodes>
          <leafValues>
            2.0871327817440033e-01 -4.4987672567367554e-01</leafValues></_>
        <_>
          <internalNodes>
            0 -1 262 -2.6544341380940750e-05</internalNodes>
          <leafValues>
            -3.6488625407218933e-01 2.2007462382316589e-01</leafValues></_>
        <_>
          <internalNodes>
            0 -1 249 5.7730888947844505e-03</internalNodes>
          <leafValues>
            9.6627689898014069e-02 -7.3627328872680664e-01</leafValues></_>
        <_>
          <internalNodes>
            0 -1 18 1.3855409622192383e-01</internalNodes>
          <leafValues>
            -1.1484786868095398e-01 7.2933584451675415e-01</leafValues></_></weakClassifiers></_>
    <!-- stage 6 -->
    <_>
      <maxWeakCount>19</maxWeakCount>
      <stageThreshold>-1.0904786586761475e+00</stageThreshold>
      <weakClassifiers>
        <_>
          <internalNodes>
            0 -1 220 1.6589765436947346e-03</internalNodes>
          <leafValues>
            -1.7330211400985718e-01 6.0997068881988525e-01</leafValues></_>
        <_>
          <internalNodes>
            0 -1 224 8.8480710983276367e-02</internalNodes>
          <leafValues>
            -2.7518123388290405e-01 5.0899636745452881e-01</leafValues></_>
        <_>
          <internalNodes>
            0 -1 9 1.0603654384613037e-01</internalNodes>
          <leafValues>
            -2.7202290296554565e-01 5.6614941358566284e-01</leafValues></_>
        <_>
          <internalNodes>
            0 -1 66 5.9988543391227722e-02</internalNodes>
          <leafValues>
            -2.1147142350673676e-01 5.1870423555374146e-01</leafValues></_>
        <_>
          <internalNodes>
            0 -1 157 6.3853664323687553e-04</internalNodes>
          <leafValues>
            -2.6060596108436584e-01 3.8879597187042236e-01</leafValues></_>
        <_>
          <internalNodes>
            0 -1 93 2.5069227442145348e-02</internalNodes>
          <leafValues>
            -3.4595233201980591e-01 2.5159898400306702e-01</leafValues></_>
        <_>
          <internalNodes>
            0 -1 54 6.7963197827339172e-02</internalNodes>
          <leafValues>
            -1.0850180685520172e-01 7.0737582445144653e-01</leafValues></_>
        <_>
          <internalNodes>
            0 -1 188 4.3158885091543198e-03</internalNodes>
          <leafValues>
            -1.9363032281398773e-01 4.2239475250244141e-01</leafValues></_>
        <_>
          <internalNodes>
            0 -1 136 -1.0415227152407169e-03</internalNodes>
          <leafValues>
            2.6112729310989380e-01 -2.8933605551719666e-01</leafValues></_>
        <_>
          <internalNodes>
            0 -1 267 -6.5458632889203727e-05</internalNodes>
          <leafValues>
            -4.0848225355148315e-01 1.9884568452835083e-01</leafValues></_>
        <_>
          <internalNodes>
            0 -1 203 1.1619983240962029e-02</internalNodes>
          <leafValues>
            -3.6328670382499695e-01 2.1134975552558899e-01</leafValues></_>
        <_>
          <internalNodes>
            0 -1 101 2.8115013265050948e-05</internalNodes>
          <leafValues>
            1.8046186864376068e-01 -4.0160432457923889e-01</leafValues></_>
        <_>
          <internalNodes>
            0 -1 199 -1.7232322134077549e-03</internalNodes>
          <leafValues>
            2.8579524159431458e-01 -2.7246078848838806e-01</leafValues></_>
        <_>
          <internalNodes>
            0 -1 301 3.7004677578806877e-03</internalNodes>
          <leafValues>
            -2.4221722781658173e-01 3.5013574361801147e-01</leafValues></_>
        <_>
          <internalNodes>
            0 -1 146 1.0368541814386845e-02</internalNodes>
          <leafValues>
            1.2370401620864868e-01 -6.0769379138946533e-01</leafValues></_>
        <_>
          <internalNodes>
            0 -1 247 -1.4016719534993172e-02</internalNodes>
          <leafValues>
            -5.9182000160217285e-01 1.2423906475305557e-01</leafValues></_>
        <_>
          <internalNodes>
            0 -1 206 -1.7727247904986143e-03</internalNodes>
          <leafValues>
            5.0081992149353027e-01 -1.3531808555126190e-01</leafValues></_>
        <_>
          <internalNodes>
            0 -1 123 -5.9598743915557861e-02</internalNodes>
          <leafValues>
            4.3305268883705139e-01 -1.6523021459579468e-01</leafValues></_>
        <_>
          <internalNodes>
            0 -1 246 -4.1655010136310011e-05</internalNodes>
          <leafValues>
            -4.3193778395652771e-01 1.9345505535602570e-01</leafValues></_></weakClassifiers></_>
    <!-- stage 7 -->
    <_>
      <maxWeakCount>22</maxWeakCount>
      <stageThreshold>-1.0025402307510376e+00</stageThreshold>
      <weakClassifiers>
        <_>
          <internalNodes>
            0 -1 254 -8.9945755898952484e-02</internalNodes>
          <leafValues>
            7.6888889074325562e-01 3.9999999105930328e-02</leafValues></_>
        <_>
          <internalNodes>
            0 -1 3 5.6599862873554230e-02</internalNodes>
          <leafValues>
            -3.2771301269531250e-01 4.1959497332572937e-01</leafValues></_>
        <_>
          <internalNodes>
            0 -1 42 -1.1503111571073532e-02</internalNodes>
          <leafValues>
            2.9284530878067017e-01 -4.3770664930343628e-01</leafValues></_>
        <_>
          <internalNodes>
            0 -1 30 -3.8983527338132262e-04</internalNodes>
          <leafValues>
            2.8884837031364441e-01 -3.2168394327163696e-01</leafValues></_>
        <_>
          <internalNodes>
            0 -1 65 -2.1834105718880892e-03</internalNodes>
          <leafValues>
            4.3424040079116821e-01 -2.2061128914356232e-01</leafValues></_>
        <_>
          <internalNodes>
            0 -1 91 -1.7572175711393356e-02</internalNodes>
          <leafValues>
            3.3140471577644348e-01 -2.6967141032218933e-01</leafValues></_>
        <_>
          <internalNodes>
            0 -1 53 6.2598243355751038e-02</internalNodes>
          <leafValues>
            -1.3024680316448212e-01 8.1841456890106201e-01</leafValues></_>
        <_>
          <internalNodes>
            0 -1 294 -9.8860845901072025e-04</internalNodes>
          <leafValues>
            2.8185313940048218e-01 -2.9957252740859985e-01</leafValues></_>
        <_>
          <internalNodes>
            0 -1 187 1.4589645434170961e-03</internalNodes>
          <leafValues>
            -2.5050291419029236e-01 3.1240352988243103e-01</leafValues></_>
        <_>
          <internalNodes>
            0 -1 152 -6.9417348131537437e-03</internalNodes>
          <leafValues>
            2.3979605734348297e-01 -3.3286607265472412e-01</leafValues></_>
        <_>
          <internalNodes>
            0 -1 94 1.5505647659301758e-01</internalNodes>
          <leafValues>
            -1.0314453393220901e-01 7.3990333080291748e-01</leafValues></_>
        <_>
          <internalNodes>
            0 -1 115 -3.0153556726872921e-03</internalNodes>
          <leafValues>
            3.0581799149513245e-01 -2.5719273090362549e-01</leafValues></_>
        <_>
          <internalNodes>
            0 -1 60 3.0223131179809570e-02</internalNodes>
          <leafValues>
            -1.1485659331083298e-01 6.9695556163787842e-01</leafValues></_>
        <_>
          <internalNodes>
            0 -1 228 1.5895341057330370e-03</internalNodes>
          <leafValues>
            -4.1127556562423706e-01 2.1209131181240082e-01</leafValues></_>
        <_>
          <internalNodes>
            0 -1 21 1.4600733295083046e-02</internalNodes>
          <leafValues>
            -1.0200604796409607e-01 5.9041571617126465e-01</leafValues></_>
        <_>
          <internalNodes>
            0 -1 184 -1.3210480101406574e-03</internalNodes>
          <leafValues>
            2.7140003442764282e-01 -2.4458627402782440e-01</leafValues></_>
        <_>
          <internalNodes>
            0 -1 194 -8.5073821246623993e-03</internalNodes>
          <leafValues>
            -6.9494521617889404e-01 9.3122065067291260e-02</leafValues></_>
        <_>
          <internalNodes>
            0 -1 236 2.0649693906307220e-02</internalNodes>
          <leafValues>
            6.3359037041664124e-02 -8.2561731338500977e-01</leafValues></_>
        <_>
          <internalNodes>
            0 -1 62 -4.8134569078683853e-03</internalNodes>
          <leafValues>
            2.2959136962890625e-01 -2.8769469261169434e-01</leafValues></_>
        <_>
          <internalNodes>
            0 -1 251 1.7548818505019881e-05</internalNodes>
          <leafValues>
            1.8606141209602356e-01 -3.4554404020309448e-01</leafValues></_>
        <_>
          <internalNodes>
            0 -1 108 -1.0291337966918945e-03</internalNodes>
          <leafValues>
            1.9904837012290955e-01 -4.0016597509384155e-01</leafValues></_>
        <_>
          <internalNodes>
            0 -1 15 1.3602930307388306e-01</internalNodes>
          <leafValues>
            -1.3315951824188232e-01 4.9173548817634583e-01</leafValues></_></weakClassifiers></_>
    <!-- stage 8 -->
    <_>
      <maxWeakCount>21</maxWeakCount>
      <stageThreshold>-8.3822405338287354e-01</stageThreshold>
      <weakClassifiers>
        <_>
          <internalNodes>
            0 -1 88 -1.1327613890171051e-01</internalNodes>
          <leafValues>
            6.5949600934982300e-01 2.1209741011261940e-02</leafValues></_>
        <_>
          <internalNodes>
            0 -1 80 5.1309033297002316e-03</internalNodes>
          <leafValues>
            -2.7321699261665344e-01 4.0369188785552979e-01</leafValues></_>
        <_>
          <internalNodes>
            0 -1 33 1.8862561555579305e-03</internalNodes>
          <leafValues>
            -4.8024559020996094e-01 1.9409798085689545e-01</leafValues></_>
        <_>
          <internalNodes>
            0 -1 281 -4.5267730951309204e-02</internalNodes>
          <leafValues>
            3.3881214261054993e-01 -2.7362096309661865e-01</leafValues></_>
        <_>
          <internalNodes>
            0 -1 171 -2.8631836175918579e-03</internalNodes>
          <leafValues>
            2.7379098534584045e-01 -3.4821805357933044e-01</leafValues></_>
        <_>
          <internalNodes>
            0 -1 201 -1.0033808648586273e-03</internalNodes>
          <leafValues>
            3.0987396836280823e-01 -3.1751412153244019e-01</leafValues></_>
        <_>
          <internalNodes>
            0 -1 124 9.1955043375492096e-02</internalNodes>
          <leafValues>
            -1.4554674923419952e-01 6.1243957281112671e-01</leafValues></_>
        <_>
          <internalNodes>
            0 -1 82 6.5866969525814056e-02</internalNodes>
          <leafValues>
            -1.4973355829715729e-01 4.8347672820091248e-01</leafValues></_>
        <_>
          <internalNodes>
            0 -1 276 2.9475475457729772e-05</internalNodes>
          <leafValues>
            1.9062191247940063e-01 -3.5761573910713196e-01</leafValues></_>
        <_>
          <internalNodes>
            0 -1 276 -3.0661292839795351e-05</internalNodes>
          <leafValues>
            -2.8800177574157715e-01 2.5923886895179749e-01</leafValues></_>
        <_>
          <internalNodes>
            0 -1 11 7.3039889335632324e-02</internalNodes>
          <leafValues>
            -1.6023856401443481e-01 4.4091171026229858e-01</leafValues></_>
        <_>
          <internalNodes>
            0 -1 76 -1.2836882378906012e-03</internalNodes>
          <leafValues>
            5.3751242160797119e-01 -1.3974481821060181e-01</leafValues></_>
        <_>
          <internalNodes>
            0 -1 151 1.5506608178839087e-04</internalNodes>
          <leafValues>
            1.9585423171520233e-01 -3.8785469532012939e-01</leafValues></_>
        <_>
          <internalNodes>
            0 -1 181 -1.0427192784845829e-02</internalNodes>
          <leafValues>
            -7.5745141506195068e-01 9.0483754873275757e-02</leafValues></_>
        <_>
          <internalNodes>
            0 -1 138 -9.0481787919998169e-03</internalNodes>
          <leafValues>
            -4.9879109859466553e-01 1.1169907450675964e-01</leafValues></_>
        <_>
          <internalNodes>
            0 -1 207 1.0466156527400017e-02</internalNodes>
          <leafValues>
            9.5533132553100586e-02 -5.7961422204971313e-01</leafValues></_>
        <_>
          <internalNodes>
            0 -1 275 1.9420258700847626e-02</internalNodes>
          <leafValues>
            -1.0826679319143295e-01 6.0128301382064819e-01</leafValues></_>
        <_>
          <internalNodes>
            0 -1 169 1.3040739111602306e-02</internalNodes>
          <leafValues>
            1.0477212816476822e-01 -7.4444460868835449e-01</leafValues></_>
        <_>
          <internalNodes>
            0 -1 250 -1.4684436842799187e-02</internalNodes>
          <leafValues>
            -8.1431812047958374e-01 5.6574154645204544e-02</leafValues></_>
        <_>
          <internalNodes>
            0 -1 222 6.6637224517762661e-04</internalNodes>
          <leafValues>
            -2.3944556713104248e-01 2.3789271712303162e-01</leafValues></_>
        <_>
          <internalNodes>
            0 -1 214 -2.0953204482793808e-02</internalNodes>
          <leafValues>
            -8.7643301486968994e-01 6.4574159681797028e-02</leafValues></_></weakClassifiers></_>
    <!-- stage 9 -->
    <_>
      <maxWeakCount>22</maxWeakCount>
      <stageThreshold>-1.0949695110321045e+00</stageThreshold>
      <weakClassifiers>
        <_>
          <internalNodes>
            0 -1 172 1.7723871394991875e-02</internalNodes>
          <leafValues>
            -4.9346879124641418e-02 7.6741129159927368e-01</leafValues></_>
        <_>
          <internalNodes>
            0 -1 198 -1.1692579835653305e-02</internalNodes>
          <leafValues>
            5.3604763746261597e-01 -2.0999293029308319e-01</leafValues></_>
        <_>
          <internalNodes>
            0 -1 160 -3.4497726708650589e-02</internalNodes>
          <leafValues>
            4.0539753437042236e-01 -2.6235088706016541e-01</leafValues></_>
        <_>
          <internalNodes>
            0 -1 287 -1.4173016883432865e-02</internalNodes>
          <leafValues>
            1.9080011546611786e-01 -4.8191139101982117e-01</leafValues></_>
        <_>
          <internalNodes>
            0 -1 28 1.4462877064943314e-02</internalNodes>
          <leafValues>
            -3.6908257007598877e-01 2.4266229569911957e-01</leafValues></_>
        <_>
          <internalNodes>
            0 -1 119 -3.6447197198867798e-03</internalNodes>
          <leafValues>
            4.6203354001045227e-01 -1.7681400477886200e-01</leafValues></_>
        <_>
          <internalNodes>
            0 -1 285 -4.5785158872604370e-03</internalNodes>
          <leafValues>
            4.0823265910148621e-01 -1.8183314800262451e-01</leafValues></_>
        <_>
          <internalNodes>
            0 -1 148 2.0570028573274612e-03</internalNodes>
          <leafValues>
            -1.6782329976558685e-01 4.0506023168563843e-01</leafValues></_>
        <_>
          <internalNodes>
            0 -1 129 9.9140871316194534e-04</internalNodes>
          <leafValues>
            -2.9934659600257874e-01 2.5131577253341675e-01</leafValues></_>
        <_>
          <internalNodes>
            0 -1 68 -5.9217521920800209e-03</internalNodes>
          <leafValues>
            5.5658584833145142e-01 -1.4476796984672546e-01</leafValues></_>
        <_>
          <internalNodes>
            0 -1 231 3.5160914994776249e-03</internalNodes>
          <leafValues>
            -1.9015124440193176e-01 3.9845603704452515e-01</leafValues></_>
        <_>
          <internalNodes>
            0 -1 242 4.0439092554152012e-03</internalNodes>
          <leafValues>
            -2.5469917058944702e-01 2.5256830453872681e-01</leafValues></_>
        <_>
          <internalNodes>
            0 -1 132 1.5166189768933691e-05</internalNodes>
          <leafValues>
            1.4848576486110687e-01 -4.4426357746124268e-01</leafValues></_>
        <_>
          <internalNodes>
            0 -1 298 6.4821792766451836e-03</internalNodes>
          <leafValues>
            -1.2788163125514984e-01 5.3754192590713501e-01</leafValues></_>
        <_>
          <internalNodes>
            0 -1 179 -1.8923503812402487e-03</internalNodes>
          <leafValues>
            4.4672635197639465e-01 -1.4924302697181702e-01</leafValues></_>
        <_>
          <internalNodes>
            0 -1 86 5.7796871988102794e-04</internalNodes>
          <leafValues>
            -2.1072919666767120e-01 3.1222009658813477e-01</leafValues></_>
        <_>
          <internalNodes>
            0 -1 280 1.9589306320995092e-03</internalNodes>
          <leafValues>
            -2.2242560982704163e-01 2.9420119524002075e-01</leafValues></_>
        <_>
          <internalNodes>
            0 -1 196 1.4650840312242508e-03</internalNodes>
          <leafValues>
            -2.6543360948562622e-01 3.0024772882461548e-01</leafValues></_>
        <_>
          <internalNodes>
            0 -1 105 1.5166189768933691e-05</internalNodes>
          <leafValues>
            1.9589549303054810e-01 -3.5416936874389648e-01</leafValues></_>
        <_>
          <internalNodes>
            0 -1 25 1.7298411112278700e-03</internalNodes>
          <leafValues>
            -1.7642162740230560e-01 3.7315288186073303e-01</leafValues></_>
        <_>
          <internalNodes>
            0 -1 137 2.0006264094263315e-03</internalNodes>
          <leafValues>
            -2.1064215898513794e-01 3.0176585912704468e-01</leafValues></_>
        <_>
          <internalNodes>
            0 -1 299 -2.1020385902374983e-03</internalNodes>
          <leafValues>
            3.9908471703529358e-01 -1.6280052065849304e-01</leafValues></_></weakClassifiers></_>
    <!-- stage 10 -->
    <_>
      <maxWeakCount>27</maxWeakCount>
      <stageThreshold>-9.6161985397338867e-01</stageThreshold>
      <weakClassifiers>
        <_>
          <internalNodes>
            0 -1 227 8.6804643273353577e-02</internalNodes>
          <leafValues>
            2.7027027681469917e-02 6.4920830726623535e-01</leafValues></_>
        <_>
          <internalNodes>
            0 -1 1 9.1318145394325256e-02</internalNodes>
          <leafValues>
            -2.1887928247451782e-01 3.9639961719512939e-01</leafValues></_>
        <_>
          <internalNodes>
            0 -1 58 -3.6124862730503082e-02</internalNodes>
          <leafValues>
            3.4233081340789795e-01 -2.5234973430633545e-01</leafValues></_>
        <_>
          <internalNodes>
            0 -1 79 5.6608095765113831e-02</internalNodes>
          <leafValues>
            -2.7281132340431213e-01 2.6906430721282959e-01</leafValues></_>
        <_>
          <internalNodes>
            0 -1 114 6.3962593674659729e-02</internalNodes>
          <leafValues>
            -1.5868632495403290e-01 5.6453096866607666e-01</leafValues></_>
        <_>
          <internalNodes>
            0 -1 153 -3.4398618154227734e-03</internalNodes>
          <leafValues>
            1.8497578799724579e-01 -3.3435127139091492e-01</leafValues></_>
        <_>
          <internalNodes>
            0 -1 296 3.1552088330499828e-05</internalNodes>
          <leafValues>
            1.7305411398410797e-01 -3.7911555171012878e-01</leafValues></_>
        <_>
          <internalNodes>
            0 -1 297 -1.6022368072299287e-05</internalNodes>
          <leafValues>
            -3.2785871624946594e-01 1.9378876686096191e-01</leafValues></_>
        <_>
          <internalNodes>
            0 -1 98 -2.2220779210329056e-03</internalNodes>
          <leafValues>
            2.7507063746452332e-01 -2.1851062774658203e-01</leafValues></_>
        <_>
          <internalNodes>
            0 -1 205 1.9900551997125149e-03</internalNodes>
          <leafValues>
            -2.2300319373607635e-01 3.2237923145294189e-01</leafValues></_>
        <_>
          <internalNodes>
            0 -1 168 -9.6449372358620167e-04</internalNodes>
          <leafValues>
            2.4318672716617584e-01 -2.4969878792762756e-01</leafValues></_>
        <_>
          <internalNodes>
            0 -1 87 5.2673486061394215e-03</internalNodes>
          <leafValues>
            -1.3006658852100372e-01 4.3373176455497742e-01</leafValues></_>
        <_>
          <internalNodes>
            0 -1 40 1.5668112039566040e-01</internalNodes>
          <leafValues>
            -7.2958417236804962e-02 6.5166455507278442e-01</leafValues></_>
        <_>
          <internalNodes>
            0 -1 286 -6.7427626345306635e-04</internalNodes>
          <leafValues>
            2.6394370198249817e-01 -2.5108110904693604e-01</leafValues></_>
        <_>
          <internalNodes>
            0 -1 52 -4.8233974725008011e-02</internalNodes>
          <leafValues>
            4.5975372195243835e-01 -1.3499292731285095e-01</leafValues></_>
        <_>
          <internalNodes>
            0 -1 167 1.7940793186426163e-02</internalNodes>
          <leafValues>
            8.4845229983329773e-02 -7.4637812376022339e-01</leafValues></_>
        <_>
          <internalNodes>
            0 -1 229 -7.3528086068108678e-04</internalNodes>
          <leafValues>
            1.9910025596618652e-01 -2.7484476566314697e-01</leafValues></_>
        <_>
          <internalNodes>
            0 -1 24 3.9631046354770660e-02</internalNodes>
          <leafValues>
            -2.0713289082050323e-01 2.8209942579269409e-01</leafValues></_>
        <_>
          <internalNodes>
            0 -1 90 7.7991724014282227e-02</internalNodes>
          <leafValues>
            -8.8268712162971497e-02 5.8457767963409424e-01</leafValues></_>
        <_>
          <internalNodes>
            0 -1 243 -1.2368595344014466e-04</internalNodes>
          <leafValues>
            -4.3046620488166809e-01 1.3793928921222687e-01</leafValues></_>
        <_>
          <internalNodes>
            0 -1 106 3.0561073799617589e-05</internalNodes>
          <leafValues>
            1.6986803710460663e-01 -3.1378436088562012e-01</leafValues></_>
        <_>
          <internalNodes>
            0 -1 118 -1.4145277673378587e-03</internalNodes>
          <leafValues>
            2.8963434696197510e-01 -1.9407863914966583e-01</leafValues></_>
        <_>
          <internalNodes>
            0 -1 147 1.3823595643043518e-01</internalNodes>
          <leafValues>
            -7.5693815946578979e-02 6.4403730630874634e-01</leafValues></_>
        <_>
          <internalNodes>
            0 -1 258 6.9618588313460350e-03</internalNodes>
          <leafValues>
            -1.3778460025787354e-01 4.2762321233749390e-01</leafValues></_>
        <_>
          <internalNodes>
            0 -1 264 -6.1970241367816925e-03</internalNodes>
          <leafValues>
            4.4556877017021179e-01 -1.5413552522659302e-01</leafValues></_>
        <_>
          <internalNodes>
            0 -1 99 -1.5756055290694349e-05</internalNodes>
          <leafValues>
            -3.0924949049949646e-01 1.7929470539093018e-01</leafValues></_>
        <_>
          <internalNodes>
            0 -1 154 2.3848209530115128e-03</internalNodes>
          <leafValues>
            -1.8706583976745605e-01 2.9872599244117737e-01</leafValues></_></weakClassifiers></_>
    <!-- stage 11 -->
    <_>
      <maxWeakCount>31</maxWeakCount>
      <stageThreshold>-9.3835169076919556e-01</stageThreshold>
      <weakClassifiers>
        <_>
          <internalNodes>
            0 -1 22 1.5696881338953972e-02</internalNodes>
          <leafValues>
            -5.8718860149383545e-02 6.5653151273727417e-01</leafValues></_>
        <_>
          <internalNodes>
            0 -1 113 -3.0252244323492050e-02</internalNodes>
          <leafValues>
            4.1248434782028198e-01 -2.2486829757690430e-01</leafValues></_>
        <_>
          <internalNodes>
            0 -1 175 3.4279204905033112e-02</internalNodes>
          <leafValues>
            -2.2717797756195068e-01 4.0810036659240723e-01</leafValues></_>
        <_>
          <internalNodes>
            0 -1 305 -3.2112824264913797e-03</internalNodes>
          <leafValues>
            2.9557543992996216e-01 -2.5168484449386597e-01</leafValues></_>
        <_>
          <internalNodes>
            0 -1 47 1.4212504029273987e-03</internalNodes>
          <leafValues>
            -3.5828661918640137e-01 1.8581956624984741e-01</leafValues></_>
        <_>
          <internalNodes>
            0 -1 271 6.0714373830705881e-05</internalNodes>
          <leafValues>
            1.6172073781490326e-01 -3.6073857545852661e-01</leafValues></_>
        <_>
          <internalNodes>
            0 -1 103 1.4880115166306496e-02</internalNodes>
          <leafValues>
            -2.6745042204856873e-01 2.2294792532920837e-01</leafValues></_>
        <_>
          <internalNodes>
            0 -1 271 -1.4780995115870610e-05</internalNodes>
          <leafValues>
            -2.7198088169097900e-01 2.3405726253986359e-01</leafValues></_>
        <_>
          <internalNodes>
            0 -1 141 -5.1984167657792568e-03</internalNodes>
          <leafValues>
            2.1386905014514923e-01 -2.8172701597213745e-01</leafValues></_>
        <_>
          <internalNodes>
            0 -1 310 -6.8782269954681396e-03</internalNodes>
          <leafValues>
            2.7500146627426147e-01 -2.4656885862350464e-01</leafValues></_>
        <_>
          <internalNodes>
            0 -1 55 -2.7918699197471142e-03</internalNodes>
          <leafValues>
            2.1029956638813019e-01 -3.0392801761627197e-01</leafValues></_>
        <_>
          <internalNodes>
            0 -1 69 -9.3833133578300476e-03</internalNodes>
          <leafValues>
            5.4511731863021851e-01 -1.0180409997701645e-01</leafValues></_>
        <_>
          <internalNodes>
            0 -1 109 -2.6396805420517921e-02</internalNodes>
          <leafValues>
            2.5065830349922180e-01 -2.6059707999229431e-01</leafValues></_>
        <_>
          <internalNodes>
            0 -1 190 9.2446409165859222e-02</internalNodes>
          <leafValues>
            -1.4825168251991272e-01 4.0293949842453003e-01</leafValues></_>
        <_>
          <internalNodes>
            0 -1 191 3.5340311005711555e-03</internalNodes>
          <leafValues>
            -2.4774943292140961e-01 2.7678072452545166e-01</leafValues></_>
        <_>
          <internalNodes>
            0 -1 240 3.5243793390691280e-03</internalNodes>
          <leafValues>
            -1.6665895283222198e-01 3.3905372023582458e-01</leafValues></_>
        <_>
          <internalNodes>
            0 -1 120 1.0104228276759386e-03</internalNodes>
          <leafValues>
            -1.6820403933525085e-01 3.2214221358299255e-01</leafValues></_>
        <_>
          <internalNodes>
            0 -1 17 2.8917178511619568e-02</internalNodes>
          <leafValues>
            -1.6106849908828735e-01 3.4026554226875305e-01</leafValues></_>
        <_>
          <internalNodes>
            0 -1 266 -1.4914066014171112e-05</internalNodes>
          <leafValues>
            -2.9261806607246399e-01 2.0440402626991272e-01</leafValues></_>
        <_>
          <internalNodes>
            0 -1 19 1.3929387554526329e-02</internalNodes>
          <leafValues>
            -1.7140768468379974e-01 2.9032030701637268e-01</leafValues></_>
        <_>
          <internalNodes>
            0 -1 84 6.6450564190745354e-03</internalNodes>
          <leafValues>
            -1.2853808701038361e-01 3.7703162431716919e-01</leafValues></_>
        <_>
          <internalNodes>
            0 -1 102 1.9565575348678976e-04</internalNodes>
          <leafValues>
            1.3557066023349762e-01 -4.0268549323081970e-01</leafValues></_>
        <_>
          <internalNodes>
            0 -1 48 -1.7668884247541428e-03</internalNodes>
          <leafValues>
            4.5054972171783447e-01 -1.2677408754825592e-01</leafValues></_>
        <_>
          <internalNodes>
            0 -1 126 6.1121642589569092e-02</internalNodes>
          <leafValues>
            -5.5014055222272873e-02 7.6508837938308716e-01</leafValues></_>
        <_>
          <internalNodes>
            0 -1 145 -2.4947674944996834e-02</internalNodes>
          <leafValues>
            3.0833694338798523e-01 -1.7319832742214203e-01</leafValues></_>
        <_>
          <internalNodes>
            0 -1 241 1.6359370201826096e-03</internalNodes>
          <leafValues>
            -2.1225054562091827e-01 2.4653573334217072e-01</leafValues></_>
        <_>
          <internalNodes>
            0 -1 165 -2.5328239426016808e-03</internalNodes>
          <leafValues>
            3.2040935754776001e-01 -1.4360725879669189e-01</leafValues></_>
        <_>
          <internalNodes>
            0 -1 144 1.1217446299269795e-03</internalNodes>
          <leafValues>
            -1.1656893044710159e-01 3.8262403011322021e-01</leafValues></_>
        <_>
          <internalNodes>
            0 -1 164 -1.7798785120248795e-03</internalNodes>
          <leafValues>
            2.7442640066146851e-01 -1.6371585428714752e-01</leafValues></_>
        <_>
          <internalNodes>
            0 -1 259 -2.7045050635933876e-02</internalNodes>
          <leafValues>
            5.7107597589492798e-01 -8.6654908955097198e-02</leafValues></_>
        <_>
          <internalNodes>
            0 -1 268 1.4089616015553474e-03</internalNodes>
          <leafValues>
            1.4738921821117401e-01 -3.9916712045669556e-01</leafValues></_></weakClassifiers></_>
    <!-- stage 12 -->
    <_>
      <maxWeakCount>27</maxWeakCount>
      <stageThreshold>-1.0297901630401611e+00</stageThreshold>
      <weakClassifiers>
        <_>
          <internalNodes>
            0 -1 185 7.9613123089075089e-03</internalNodes>
          <leafValues>
            -2.0036429166793823e-02 6.2264150381088257e-01</leafValues></_>
        <_>
          <internalNodes>
            0 -1 288 -4.8110447824001312e-02</internalNodes>
          <leafValues>
            4.4768670201301575e-01 -2.3947423696517944e-01</leafValues></_>
        <_>
          <internalNodes>
            0 -1 130 5.8071465900866315e-05</internalNodes>
          <leafValues>
            1.7267829179763794e-01 -5.2953422069549561e-01</leafValues></_>
        <_>
          <internalNodes>
            0 -1 189 -1.2406993191689253e-03</internalNodes>
          <leafValues>
            -4.7843176126480103e-01 1.5955378115177155e-01</leafValues></_>
        <_>
          <internalNodes>
            0 -1 104 7.2705093771219254e-05</internalNodes>
          <leafValues>
            1.8191573023796082e-01 -4.0583854913711548e-01</leafValues></_>
        <_>
          <internalNodes>
            0 -1 150 1.6523525118827820e-02</internalNodes>
          <leafValues>
            9.8600268363952637e-02 -7.1982902288436890e-01</leafValues></_>
        <_>
          <internalNodes>
            0 -1 215 2.3186225444078445e-03</internalNodes>
          <leafValues>
            -3.0555844306945801e-01 2.3231565952301025e-01</leafValues></_>
        <_>
          <internalNodes>
            0 -1 10 1.4087045192718506e-01</internalNodes>
          <leafValues>
            -1.6860920190811157e-01 4.2649480700492859e-01</leafValues></_>
        <_>
          <internalNodes>
            0 -1 261 1.2801302596926689e-02</internalNodes>
          <leafValues>
            5.9581197798252106e-02 -9.3960231542587280e-01</leafValues></_>
        <_>
          <internalNodes>
            0 -1 279 1.3419299648376182e-05</internalNodes>
          <leafValues>
            1.9639112055301666e-01 -3.4464576840400696e-01</leafValues></_>
        <_>
          <internalNodes>
            0 -1 23 -2.9898710548877716e-02</internalNodes>
          <leafValues>
            2.5294974446296692e-01 -2.3203366994857788e-01</leafValues></_>
        <_>
          <internalNodes>
            0 -1 309 5.0981184467673302e-03</internalNodes>
          <leafValues>
            -1.1607163399457932e-01 4.5539554953575134e-01</leafValues></_>
        <_>
          <internalNodes>
            0 -1 70 -3.4741401672363281e-02</internalNodes>
          <leafValues>
            -4.8742550611495972e-01 1.1354415118694305e-01</leafValues></_>
        <_>
          <internalNodes>
            0 -1 223 -1.1910759349120781e-04</internalNodes>
          <leafValues>
            -3.3620381355285645e-01 1.5948714315891266e-01</leafValues></_>
        <_>
          <internalNodes>
            0 -1 39 3.4772462677210569e-03</internalNodes>
          <leafValues>
            -1.0618491470813751e-01 5.5357182025909424e-01</leafValues></_>
        <_>
          <internalNodes>
            0 -1 302 1.3028808869421482e-02</internalNodes>
          <leafValues>
            -9.5605798065662384e-02 4.8797896504402161e-01</leafValues></_>
        <_>
          <internalNodes>
            0 -1 244 -4.6520428440999240e-05</internalNodes>
          <leafValues>
            -3.5478588938713074e-01 1.5845043957233429e-01</leafValues></_>
        <_>
          <internalNodes>
            0 -1 122 8.9773070067167282e-04</internalNodes>
          <leafValues>
            -2.4018174409866333e-01 2.2478440403938293e-01</leafValues></_>
        <_>
          <internalNodes>
            0 -1 306 1.1779579799622297e-03</internalNodes>
          <leafValues>
            -1.3058446347713470e-01 3.9472123980522156e-01</leafValues></_>
        <_>
          <internalNodes>
            0 -1 97 -6.0792983276769519e-05</internalNodes>
          <leafValues>
            -3.6847451329231262e-01 1.4343854784965515e-01</leafValues></_>
        <_>
          <internalNodes>
            0 -1 126 -5.6584134697914124e-02</internalNodes>
          <leafValues>
            4.1464734077453613e-01 -1.5734095871448517e-01</leafValues></_>
        <_>
          <internalNodes>
            0 -1 180 -2.4836031720042229e-02</internalNodes>
          <leafValues>
            -5.9812784194946289e-01 1.1244206875562668e-01</leafValues></_>
        <_>
          <internalNodes>
            0 -1 46 6.1707850545644760e-03</internalNodes>
          <leafValues>
            -1.3372059166431427e-01 4.0052232146263123e-01</leafValues></_>
        <_>
          <internalNodes>
            0 -1 34 3.4860435873270035e-02</internalNodes>
          <leafValues>
            1.1227788776159286e-01 -5.4730659723281860e-01</leafValues></_>
        <_>
          <internalNodes>
            0 -1 270 5.6245411542477086e-05</internalNodes>
          <leafValues>
            2.1621491014957428e-01 -2.6175215840339661e-01</leafValues></_>
        <_>
          <internalNodes>
            0 -1 77 9.9370116367936134e-03</internalNodes>
          <leafValues>
            5.6938510388135910e-02 -8.8014793395996094e-01</leafValues></_>
        <_>
          <internalNodes>
            0 -1 182 2.0463687833398581e-03</internalNodes>
          <leafValues>
            1.3812020421028137e-01 -3.7982082366943359e-01</leafValues></_></weakClassifiers></_>
    <!-- stage 13 -->
    <_>
      <maxWeakCount>29</maxWeakCount>
      <stageThreshold>-8.3449745178222656e-01</stageThreshold>
      <weakClassifiers>
        <_>
          <internalNodes>
            0 -1 238 -6.7622502683661878e-05</internalNodes>
          <leafValues>
            -1.0928961634635925e-01 5.4428046941757202e-01</leafValues></_>
        <_>
          <internalNodes>
            0 -1 283 -3.2106358557939529e-02</internalNodes>
          <leafValues>
            2.6917374134063721e-01 -3.3401802182197571e-01</leafValues></_>
        <_>
          <internalNodes>
            0 -1 83 -1.9938707351684570e-02</internalNodes>
          <leafValues>
            2.8806984424591064e-01 -2.8325936198234558e-01</leafValues></_>
        <_>
          <internalNodes>
            0 -1 96 -1.5330677342717536e-05</internalNodes>
          <leafValues>
            -3.9741715788841248e-01 1.8547913432121277e-01</leafValues></_>
        <_>
          <internalNodes>
            0 -1 142 5.7867467403411865e-02</internalNodes>
          <leafValues>
            -1.8910995125770569e-01 3.9530807733535767e-01</leafValues></_>
        <_>
          <internalNodes>
            0 -1 32 -1.9290770869702101e-03</internalNodes>
          <leafValues>
            1.8479640781879425e-01 -2.9862546920776367e-01</leafValues></_>
        <_>
          <internalNodes>
            0 -1 260 -1.5769341189297847e-05</internalNodes>
          <leafValues>
            -3.7086698412895203e-01 1.6737112402915955e-01</leafValues></_>
        <_>
          <internalNodes>
            0 -1 291 4.2126439511775970e-03</internalNodes>
          <leafValues>
            -8.8983446359634399e-02 6.1822319030761719e-01</leafValues></_>
        <_>
          <internalNodes>
            0 -1 257 2.9478736221790314e-02</internalNodes>
          <leafValues>
            -9.6266686916351318e-02 5.6878578662872314e-01</leafValues></_>
        <_>
          <internalNodes>
            0 -1 36 6.0845902189612389e-03</internalNodes>
          <leafValues>
            -1.3201867043972015e-01 4.3723383545875549e-01</leafValues></_>
        <_>
          <internalNodes>
            0 -1 252 -6.6898661316372454e-05</internalNodes>
          <leafValues>
            -3.3146604895591736e-01 1.7866876721382141e-01</leafValues></_>
        <_>
          <internalNodes>
            0 -1 100 -6.2894097936805338e-05</internalNodes>
          <leafValues>
            -3.5916364192962646e-01 1.6370016336441040e-01</leafValues></_>
        <_>
          <internalNodes>
            0 -1 57 6.7243329249322414e-03</internalNodes>
          <leafValues>
            -1.5607149899005890e-01 3.2784175872802734e-01</leafValues></_>
        <_>
          <internalNodes>
            0 -1 131 -3.3807777072070166e-05</internalNodes>
          <leafValues>
            -3.0729401111602783e-01 1.6732430458068848e-01</leafValues></_>
        <_>
          <internalNodes>
            0 -1 245 -1.5211520803859457e-05</internalNodes>
          <leafValues>
            -3.0864724516868591e-01 1.5864691138267517e-01</leafValues></_>
        <_>
          <internalNodes>
            0 -1 273 3.6876345984637737e-03</internalNodes>
          <leafValues>
            -2.3521198332309723e-01 2.4139568209648132e-01</leafValues></_>
        <_>
          <internalNodes>
            0 -1 209 -2.1112267859280109e-03</internalNodes>
          <leafValues>
            3.6930376291275024e-01 -1.3253276050090790e-01</leafValues></_>
        <_>
          <internalNodes>
            0 -1 100 6.4778534579090774e-05</internalNodes>
          <leafValues>
            2.1405333280563354e-01 -2.3935610055923462e-01</leafValues></_>
        <_>
          <internalNodes>
            0 -1 155 1.5902014638413675e-05</internalNodes>
          <leafValues>
            1.3726830482482910e-01 -3.1975898146629333e-01</leafValues></_>
        <_>
          <internalNodes>
            0 -1 111 5.0821583718061447e-02</internalNodes>
          <leafValues>
            -8.5592389106750488e-02 5.8711826801300049e-01</leafValues></_>
        <_>
          <internalNodes>
            0 -1 183 -2.6254833210259676e-03</internalNodes>
          <leafValues>
            2.4077610671520233e-01 -2.0853240787982941e-01</leafValues></_>
        <_>
          <internalNodes>
            0 -1 74 -5.5058062076568604e-02</internalNodes>
          <leafValues>
            -8.5168725252151489e-01 5.7002864778041840e-02</leafValues></_>
        <_>
          <internalNodes>
            0 -1 230 4.2827953584492207e-03</internalNodes>
          <leafValues>
            -1.3624055683612823e-01 3.7379816174507141e-01</leafValues></_>
        <_>
          <internalNodes>
            0 -1 64 -1.0668195318430662e-03</internalNodes>
          <leafValues>
            3.3190870285034180e-01 -1.3782754540443420e-01</leafValues></_>
        <_>
          <internalNodes>
            0 -1 139 5.3555607795715332e-02</internalNodes>
          <leafValues>
            -1.1038514971733093e-01 3.9752858877182007e-01</leafValues></_>
        <_>
          <internalNodes>
            0 -1 107 -6.1109611124265939e-05</internalNodes>
          <leafValues>
            -2.9227626323699951e-01 1.4013963937759399e-01</leafValues></_>
        <_>
          <internalNodes>
            0 -1 128 -1.5330677342717536e-05</internalNodes>
          <leafValues>
            -2.8214064240455627e-01 1.5814390778541565e-01</leafValues></_>
        <_>
          <internalNodes>
            0 -1 163 -2.5328679475933313e-03</internalNodes>
          <leafValues>
            3.4272557497024536e-01 -1.2247076630592346e-01</leafValues></_>
        <_>
          <internalNodes>
            0 -1 133 3.3007808960974216e-03</internalNodes>
          <leafValues>
            -1.4884649217128754e-01 2.9191270470619202e-01</leafValues></_></weakClassifiers></_>
    <!-- stage 14 -->
    <_>
      <maxWeakCount>27</maxWeakCount>
      <stageThreshold>-9.0220284461975098e-01</stageThreshold>
      <weakClassifiers>
        <_>
          <internalNodes>
            0 -1 219 1.9518452463671565e-03</internalNodes>
          <leafValues>
            -7.9999998211860657e-02 6.0307693481445312e-01</leafValues></_>
        <_>
          <internalNodes>
            0 -1 205 3.1493115238845348e-03</internalNodes>
          <leafValues>
            -1.0907296091318130e-01 5.3506672382354736e-01</leafValues></_>
        <_>
          <internalNodes>
            0 -1 218 -7.6363899279385805e-04</internalNodes>
          <leafValues>
            2.8645223379135132e-01 -2.6278054714202881e-01</leafValues></_>
        <_>
          <internalNodes>
            0 -1 158 5.1258485764265060e-03</internalNodes>
          <leafValues>
            -1.9448697566986084e-01 4.9071905016899109e-01</leafValues></_>
        <_>
          <internalNodes>
            0 -1 63 1.8083119764924049e-02</internalNodes>
          <leafValues>
            -9.0531162917613983e-02 7.2543346881866455e-01</leafValues></_>
        <_>
          <internalNodes>
            0 -1 20 -4.9435757100582123e-02</internalNodes>
          <leafValues>
            2.7308380603790283e-01 -2.5633716583251953e-01</leafValues></_>
        <_>
          <internalNodes>
            0 -1 221 -1.7431455198675394e-03</internalNodes>
          <leafValues>
            5.3245472908020020e-01 -1.0458943247795105e-01</leafValues></_>
        <_>
          <internalNodes>
            0 -1 248 -1.3022499842918478e-05</internalNodes>
          <leafValues>
            -3.9552757143974304e-01 1.5477789938449860e-01</leafValues></_>
        <_>
          <internalNodes>
            0 -1 299 8.8570769876241684e-03</internalNodes>
          <leafValues>
            -1.3047775626182556e-01 4.5051231980323792e-01</leafValues></_>
        <_>
          <internalNodes>
            0 -1 293 2.3770241532474756e-03</internalNodes>
          <leafValues>
            -1.8958276510238647e-01 2.9377251863479614e-01</leafValues></_>
        <_>
          <internalNodes>
            0 -1 277 -2.4032393412198871e-05</internalNodes>
          <leafValues>
            -2.8419682383537292e-01 2.0976558327674866e-01</leafValues></_>
        <_>
          <internalNodes>
            0 -1 300 -2.2243335843086243e-03</internalNodes>
          <leafValues>
            4.3919554352760315e-01 -1.3616359233856201e-01</leafValues></_>
        <_>
          <internalNodes>
            0 -1 61 -1.3136604800820351e-02</internalNodes>
          <leafValues>
            -4.8185744881629944e-01 1.1883459240198135e-01</leafValues></_>
        <_>
          <internalNodes>
            0 -1 26 1.5872843563556671e-02</internalNodes>
          <leafValues>
            -3.8063722848892212e-01 1.5196168422698975e-01</leafValues></_>
        <_>
          <internalNodes>
            0 -1 149 -3.4752335399389267e-02</internalNodes>
          <leafValues>
            2.2543503344058990e-01 -2.4579182267189026e-01</leafValues></_>
        <_>
          <internalNodes>
            0 -1 35 1.0393187403678894e-03</internalNodes>
          <leafValues>
            -1.2229091674089432e-01 3.9939576387405396e-01</leafValues></_>
        <_>
          <internalNodes>
            0 -1 253 1.0445846710354090e-03</internalNodes>
          <leafValues>
            -1.4902716875076294e-01 3.1168591976165771e-01</leafValues></_>
        <_>
          <internalNodes>
            0 -1 213 -5.5595263838768005e-03</internalNodes>
          <leafValues>
            -7.7594077587127686e-01 6.1569735407829285e-02</leafValues></_>
        <_>
          <internalNodes>
            0 -1 308 1.9913529977202415e-03</internalNodes>
          <leafValues>
            -1.4912359416484833e-01 3.5871756076812744e-01</leafValues></_>
        <_>
          <internalNodes>
            0 -1 237 4.2747607221826911e-04</internalNodes>
          <leafValues>
            -1.8786706030368805e-01 2.7217656373977661e-01</leafValues></_>
        <_>
          <internalNodes>
            0 -1 192 8.9154010638594627e-03</internalNodes>
          <leafValues>
            -2.3742087185382843e-01 2.0574814081192017e-01</leafValues></_>
        <_>
          <internalNodes>
            0 -1 201 -9.3241181457415223e-04</internalNodes>
          <leafValues>
            2.6880672574043274e-01 -1.8082424998283386e-01</leafValues></_>
        <_>
          <internalNodes>
            0 -1 210 -3.8017090409994125e-02</internalNodes>
          <leafValues>
            -6.2171757221221924e-01 8.0891035497188568e-02</leafValues></_>
        <_>
          <internalNodes>
            0 -1 27 8.3924988284707069e-03</internalNodes>
          <leafValues>
            -1.1777816712856293e-01 4.2293789982795715e-01</leafValues></_>
        <_>
          <internalNodes>
            0 -1 67 -5.9774210676550865e-03</internalNodes>
          <leafValues>
            3.1025782227516174e-01 -1.6630484163761139e-01</leafValues></_>
        <_>
          <internalNodes>
            0 -1 216 7.8174844384193420e-03</internalNodes>
          <leafValues>
            6.3239365816116333e-02 -7.9686784744262695e-01</leafValues></_>
        <_>
          <internalNodes>
            0 -1 116 2.9888721182942390e-03</internalNodes>
          <leafValues>
            -1.6438269615173340e-01 3.2141211628913879e-01</leafValues></_></weakClassifiers></_>
    <!-- stage 15 -->
    <_>
      <maxWeakCount>33</maxWeakCount>
      <stageThreshold>-8.4003043174743652e-01</stageThreshold>
      <weakClassifiers>
        <_>
          <internalNodes>
            0 -1 269 -1.0529370047152042e-04</internalNodes>
          <leafValues>
            -9.6153847873210907e-02 5.3867405652999878e-01</leafValues></_>
        <_>
          <internalNodes>
            0 -1 232 -2.6600752025842667e-03</internalNodes>
          <leafValues>
            2.3922193050384521e-01 -3.6695706844329834e-01</leafValues></_>
        <_>
          <internalNodes>
            0 -1 44 9.5537472516298294e-03</internalNodes>
          <leafValues>
            -2.2867818176746368e-01 3.3075624704360962e-01</leafValues></_>
        <_>
          <internalNodes>
            0 -1 43 -1.6951538622379303e-02</internalNodes>
          <leafValues>
            1.9939514994621277e-01 -2.9863372445106506e-01</leafValues></_>
        <_>
          <internalNodes>
            0 -1 197 -1.4589725062251091e-02</internalNodes>
          <leafValues>
            3.4533581137657166e-01 -1.7579673230648041e-01</leafValues></_>
        <_>
          <internalNodes>
            0 -1 263 -3.2990716135827824e-05</internalNodes>
          <leafValues>
            -3.3499175310134888e-01 1.5339463949203491e-01</leafValues></_>
        <_>
          <internalNodes>
            0 -1 303 8.2277022302150726e-03</internalNodes>
          <leafValues>
            -1.2127112597227097e-01 4.8847243189811707e-01</leafValues></_>
        <_>
          <internalNodes>
            0 -1 37 3.1846775673329830e-03</internalNodes>
          <leafValues>
            -1.9657188653945923e-01 2.7385827898979187e-01</leafValues></_>
        <_>
          <internalNodes>
            0 -1 112 6.5890047699213028e-03</internalNodes>
          <leafValues>
            -2.0972454547882080e-01 2.3442821204662323e-01</leafValues></_>
        <_>
          <internalNodes>
            0 -1 92 9.0464740991592407e-02</internalNodes>
          <leafValues>
            -8.0275200307369232e-02 5.7412576675415039e-01</leafValues></_>
        <_>
          <internalNodes>
            0 -1 127 -3.7878489820286632e-05</internalNodes>
          <leafValues>
            -3.4731110930442810e-01 1.7738473415374756e-01</leafValues></_>
        <_>
          <internalNodes>
            0 -1 255 -1.6028387108235620e-05</internalNodes>
          <leafValues>
            -2.9012891650199890e-01 1.7357492446899414e-01</leafValues></_>
        <_>
          <internalNodes>
            0 -1 97 -3.3071606594603509e-05</internalNodes>
          <leafValues>
            -3.5729271173477173e-01 1.2250262498855591e-01</leafValues></_>
        <_>
          <internalNodes>
            0 -1 272 1.3891558410250582e-05</internalNodes>
          <leafValues>
            1.4825318753719330e-01 -2.9700279235839844e-01</leafValues></_>
        <_>
          <internalNodes>
            0 -1 265 4.6333588659763336e-02</internalNodes>
          <leafValues>
            9.6843868494033813e-02 -5.0928312540054321e-01</leafValues></_>
        <_>
          <internalNodes>
            0 -1 256 -3.5936325788497925e-02</internalNodes>
          <leafValues>
            4.8814919590950012e-01 -9.6136502921581268e-02</leafValues></_>
        <_>
          <internalNodes>
            0 -1 110 -1.3697524555027485e-02</internalNodes>
          <leafValues>
            2.3900415003299713e-01 -2.2164346277713776e-01</leafValues></_>
        <_>
          <internalNodes>
            0 -1 204 6.7316630156710744e-04</internalNodes>
          <leafValues>
            -2.6846310496330261e-01 1.8793155252933502e-01</leafValues></_>
        <_>
          <internalNodes>
            0 -1 121 -1.8513895571231842e-02</internalNodes>
          <leafValues>
            1.9938302040100098e-01 -2.5708886981010437e-01</leafValues></_>
        <_>
          <internalNodes>
            0 -1 292 -1.2047241398249753e-05</internalNodes>
          <leafValues>
            -3.1913176178932190e-01 1.4419545233249664e-01</leafValues></_>
        <_>
          <internalNodes>
            0 -1 117 1.5250056982040405e-02</internalNodes>
          <leafValues>
            -8.2756564021110535e-02 5.9879207611083984e-01</leafValues></_>
        <_>
          <internalNodes>
            0 -1 290 6.5161585807800293e-03</internalNodes>
          <leafValues>
            -1.1144942790269852e-01 4.3062040209770203e-01</leafValues></_>
        <_>
          <internalNodes>
            0 -1 68 -9.6929091960191727e-03</internalNodes>
          <leafValues>
            6.1175078153610229e-01 -7.7385708689689636e-02</leafValues></_>
        <_>
          <internalNodes>
            0 -1 233 -7.9015538096427917e-02</internalNodes>
          <leafValues>
            -5.2549189329147339e-01 1.0176289826631546e-01</leafValues></_>
        <_>
          <internalNodes>
            0 -1 95 -5.6606590747833252e-02</internalNodes>
          <leafValues>
            4.9392816424369812e-01 -1.1374814808368683e-01</leafValues></_>
        <_>
          <internalNodes>
            0 -1 106 1.3531264812627342e-05</internalNodes>
          <leafValues>
            1.7080394923686981e-01 -3.1035265326499939e-01</leafValues></_>
        <_>
          <internalNodes>
            0 -1 78 2.7373600751161575e-02</internalNodes>
          <leafValues>
            -9.5000885426998138e-02 5.1358574628829956e-01</leafValues></_>
        <_>
          <internalNodes>
            0 -1 211 -7.8273809049278498e-04</internalNodes>
          <leafValues>
            3.3342176675796509e-01 -1.3194124400615692e-01</leafValues></_>
        <_>
          <internalNodes>
            0 -1 132 3.5997549275634810e-05</internalNodes>
          <leafValues>
            1.2814770638942719e-01 -3.8388967514038086e-01</leafValues></_>
        <_>
          <internalNodes>
            0 -1 234 6.0717515647411346e-02</internalNodes>
          <leafValues>
            5.2172467112541199e-02 -7.7581888437271118e-01</leafValues></_>
        <_>
          <internalNodes>
            0 -1 193 5.7984143495559692e-04</internalNodes>
          <leafValues>
            -1.6136857867240906e-01 2.6132839918136597e-01</leafValues></_>
        <_>
          <internalNodes>
            0 -1 278 2.5757830371730961e-05</internalNodes>
          <leafValues>
            1.5623097121715546e-01 -2.7328044176101685e-01</leafValues></_>
        <_>
          <internalNodes>
            0 -1 140 1.3547669351100922e-01</internalNodes>
          <leafValues>
            -5.7014208287000656e-02 7.7989536523818970e-01</leafValues></_></weakClassifiers></_></stages>
  <features>
    <_>
      <rects>
        <_>
          0 1 6 20 -1.</_>
        <_>
          3 1 3 20 2.</_></rects>
      <tilted>0</tilted></_>
    <_>
      <rects>
        <_>
          0 1 6 22 -1.</_>
        <_>
          3 1 3 22 2.</_></rects>
      <tilted>0</tilted></_>
    <_>
      <rects>
        <_>
          0 7 9 9 -1.</_>
        <_>
          3 7 3 9 3.</_></rects>
      <tilted>0</tilted></_>
    <_>
      <rects>
        <_>
          0 7 6 18 -1.</_>
        <_>
          3 7 3 18 2.</_></rects>
      <tilted>0</tilted></_>
    <_>
      <rects>
        <_>
          0 8 9 10 -1.</_>
        <_>
          3 8 3 10 3.</_></rects>
      <tilted>0</tilted></_>
    <_>
      <rects>
        <_>
          0 10 9 7 -1.</_>
        <_>
          3 10 3 7 3.</_></rects>
      <tilted>0</tilted></_>
    <_>
      <rects>
        <_>
          0 10 6 12 -1.</_>
        <_>
          3 10 3 12 2.</_></rects>
      <tilted>0</tilted></_>
    <_>
      <rects>
        <_>
          0 11 4 14 -1.</_>
        <_>
          2 11 2 14 2.</_></rects>
      <tilted>0</tilted></_>
    <_>
      <rects>
        <_>
          0 11 9 7 -1.</_>
        <_>
          3 11 3 7 3.</_></rects>
      <tilted>0</tilted></_>
    <_>
      <rects>
        <_>
          0 11 9 9 -1.</_>
        <_>
          3 11 3 9 3.</_></rects>
      <tilted>0</tilted></_>
    <_>
      <rects>
        <_>
          0 12 9 10 -1.</_>
        <_>
          3 12 3 10 3.</_></rects>
      <tilted>0</tilted></_>
    <_>
      <rects>
        <_>
          0 15 9 5 -1.</_>
        <_>
          3 15 3 5 3.</_></rects>
      <tilted>0</tilted></_>
    <_>
      <rects>
        <_>
          0 15 12 5 -1.</_>
        <_>
          4 15 4 5 3.</_></rects>
      <tilted>0</tilted></_>
    <_>
      <rects>
        <_>
          0 15 12 7 -1.</_>
        <_>
          4 15 4 7 3.</_></rects>
      <tilted>0</tilted></_>
    <_>
      <rects>
        <_>
          0 16 15 9 -1.</_>
        <_>
          5 16 5 9 3.</_></rects>
      <tilted>0</tilted></_>
    <_>
      <rects>
        <_>
          0 16 18 9 -1.</_>
        <_>
          6 16 6 9 3.</_></rects>
      <tilted>0</tilted></_>
    <_>
      <rects>
        <_>
          0 17 16 6 -1.</_>
        <_>
          8 17 8 6 2.</_></rects>
      <tilted>0</tilted></_>
    <_>
      <rects>
        <_>
          0 18 14 6 -1.</_>
        <_>
          0 18 7 3 2.</_>
        <_>
          7 21 7 3 2.</_></rects>
      <tilted>0</tilted></_>
    <_>
      <rects>
        <_>
          0 19 18 5 -1.</_>
        <_>
          6 19 6 5 3.</_></rects>
      <tilted>0</tilted></_>
    <_>
      <rects>
        <_>
          1 0 2 21 -1.</_>
        <_>
          2 0 1 21 2.</_></rects>
      <tilted>0</tilted></_>
    <_>
      <rects>
        <_>
          1 0 12 12 -1.</_>
        <_>
          1 0 6 6 2.</_>
        <_>
          7 6 6 6 2.</_></rects>
      <tilted>0</tilted></_>
    <_>
      <rects>
        <_>
          1 0 9 3 -1.</_>
        <_>
          1 1 9 1 3.</_></rects>
      <tilted>0</tilted></_>
    <_>
      <rects>
        <_>
          1 0 14 4 -1.</_>
        <_>
          1 2 14 2 2.</_></rects>
      <tilted>0</tilted></_>
    <_>
      <rects>
        <_>
          1 2 10 8 -1.</_>
        <_>
          1 2 5 4 2.</_>
        <_>
          6 6 5 4 2.</_></rects>
      <tilted>0</tilted></_>
    <_>
      <rects>
        <_>
          1 5 6 10 -1.</_>
        <_>
          3 5 2 10 3.</_></rects>
      <tilted>0</tilted></_>
    <_>
      <rects>
        <_>
          1 6 2 2 -1.</_>
        <_>
          2 6 1 2 2.</_></rects>
      <tilted>0</tilted></_>
    <_>
      <rects>
        <_>
          1 6 4 19 -1.</_>
        <_>
          3 6 2 19 2.</_></rects>
      <tilted>0</tilted></_>
    <_>
      <rects>
        <_>
          1 7 3 4 -1.</_>
        <_>
          2 7 1 4 3.</_></rects>
      <tilted>0</tilted></_>
    <_>
      <rects>
        <_>
          1 10 4 6 -1.</_>
        <_>
          3 10 2 6 2.</_></rects>
      <tilted>0</tilted></_>
    <_>
      <rects>
        <_>
          1 11 9 9 -1.</_>
        <_>
          4 11 3 9 3.</_></rects>
      <tilted>0</tilted></_>
    <_>
      <rects>
        <_>
          1 12 3 1 -1.</_>
        <_>
          2 12 1 1 3.</_></rects>
      <tilted>0</tilted></_>
    <_>
      <rects>
        <_>
          1 12 3 3 -1.</_>
        <_>
          2 12 1 3 3.</_></rects>
      <tilted>0</tilted></_>
    <_>
      <rects>
        <_>
          1 12 3 4 -1.</_>
        <_>
          2 12 1 4 3.</_></rects>
      <tilted>0</tilted></_>
    <_>
      <rects>
        <_>
          1 12 4 2 -1.</_>
        <_>
          3 12 2 2 2.</_></rects>
      <tilted>0</tilted></_>
    <_>
      <rects>
        <_>
          1 13 17 6 -1.</_>
        <_>
          1 15 17 2 3.</_></rects>
      <tilted>0</tilted></_>
    <_>
      <rects>
        <_>
          1 14 2 2 -1.</_>
        <_>
          1 14 1 1 2.</_>
        <_>
          2 15 1 1 2.</_></rects>
      <tilted>0</tilted></_>
    <_>
      <rects>
        <_>
          1 15 3 3 -1.</_>
        <_>
          2 15 1 3 3.</_></rects>
      <tilted>0</tilted></_>
    <_>
      <rects>
        <_>
          1 16 3 4 -1.</_>
        <_>
          2 16 1 4 3.</_></rects>
      <tilted>0</tilted></_>
    <_>
      <rects>
        <_>
          1 16 12 5 -1.</_>
        <_>
          7 16 6 5 2.</_></rects>
      <tilted>0</tilted></_>
    <_>
      <rects>
        <_>
          1 17 3 1 -1.</_>
        <_>
          2 17 1 1 3.</_></rects>
      <tilted>0</tilted></_>
    <_>
      <rects>
        <_>
          1 17 15 7 -1.</_>
        <_>
          6 17 5 7 3.</_></rects>
      <tilted>0</tilted></_>
    <_>
      <rects>
        <_>
          2 0 8 2 -1.</_>
        <_>
          2 1 8 1 2.</_></rects>
      <tilted>0</tilted></_>
    <_>
      <rects>
        <_>
          2 1 10 8 -1.</_>
        <_>
          2 1 5 4 2.</_>
        <_>
          7 5 5 4 2.</_></rects>
      <tilted>0</tilted></_>
    <_>
      <rects>
        <_>
          2 2 10 6 -1.</_>
        <_>
          2 2 5 3 2.</_>
        <_>
          7 5 5 3 2.</_></rects>
      <tilted>0</tilted></_>
    <_>
      <rects>
        <_>
          2 11 2 5 -1.</_>
        <_>
          3 11 1 5 2.</_></rects>
      <tilted>0</tilted></_>
    <_>
      <rects>
        <_>
          2 11 8 11 -1.</_>
        <_>
          6 11 4 11 2.</_></rects>
      <tilted>0</tilted></_>
    <_>
      <rects>
        <_>
          2 12 3 2 -1.</_>
        <_>
          3 12 1 2 3.</_></rects>
      <tilted>0</tilted></_>
    <_>
      <rects>
        <_>
          2 13 2 2 -1.</_>
        <_>
          3 13 1 2 2.</_></rects>
      <tilted>0</tilted></_>
    <_>
      <rects>
        <_>
          2 14 3 1 -1.</_>
        <_>
          3 14 1 1 3.</_></rects>
      <tilted>0</tilted></_>
    <_>
      <rects>
        <_>
          2 14 8 10 -1.</_>
        <_>
          2 14 4 5 2.</_>
        <_>
          6 19 4 5 2.</_></rects>
      <tilted>0</tilted></_>
    <_>
      <rects>
        <_>
          2 15 10 3 -1.</_>
        <_>
          7 15 5 3 2.</_></rects>
      <tilted>0</tilted></_>
    <_>
      <rects>
        <_>
          2 15 10 6 -1.</_>
        <_>
          7 15 5 6 2.</_></rects>
      <tilted>0</tilted></_>
    <_>
      <rects>
        <_>
          2 17 12 3 -1.</_>
        <_>
          8 17 6 3 2.</_></rects>
      <tilted>0</tilted></_>
    <_>
      <rects>
        <_>
          2 21 15 2 -1.</_>
        <_>
          7 21 5 2 3.</_></rects>
      <tilted>0</tilted></_>
    <_>
      <rects>
        <_>
          2 21 18 2 -1.</_>
        <_>
          8 21 6 2 3.</_></rects>
      <tilted>0</tilted></_>
    <_>
      <rects>
        <_>
          2 23 17 2 -1.</_>
        <_>
          2 24 17 1 2.</_></rects>
      <tilted>0</tilted></_>
    <_>
      <rects>
        <_>
          3 0 2 22 -1.</_>
        <_>
          3 11 2 11 2.</_></rects>
      <tilted>0</tilted></_>
    <_>
      <rects>
        <_>
          3 0 6 2 -1.</_>
        <_>
          3 1 6 1 2.</_></rects>
      <tilted>0</tilted></_>
    <_>
      <rects>
        <_>
          3 1 6 12 -1.</_>
        <_>
          3 1 3 6 2.</_>
        <_>
          6 7 3 6 2.</_></rects>
      <tilted>0</tilted></_>
    <_>
      <rects>
        <_>
          3 1 8 10 -1.</_>
        <_>
          3 1 4 5 2.</_>
        <_>
          7 6 4 5 2.</_></rects>
      <tilted>0</tilted></_>
    <_>
      <rects>
        <_>
          3 4 1 16 -1.</_>
        <_>
          3 12 1 8 2.</_></rects>
      <tilted>0</tilted></_>
    <_>
      <rects>
        <_>
          3 5 16 5 -1.</_>
        <_>
          11 5 8 5 2.</_></rects>
      <tilted>0</tilted></_>
    <_>
      <rects>
        <_>
          3 5 11 6 -1.</_>
        <_>
          3 7 11 2 3.</_></rects>
      <tilted>0</tilted></_>
    <_>
      <rects>
        <_>
          3 6 2 14 -1.</_>
        <_>
          3 6 1 7 2.</_>
        <_>
          4 13 1 7 2.</_></rects>
      <tilted>0</tilted></_>
    <_>
      <rects>
        <_>
          3 7 3 1 -1.</_>
        <_>
          4 7 1 1 3.</_></rects>
      <tilted>0</tilted></_>
    <_>
      <rects>
        <_>
          3 7 3 2 -1.</_>
        <_>
          4 7 1 2 3.</_></rects>
      <tilted>0</tilted></_>
    <_>
      <rects>
        <_>
          3 7 6 18 -1.</_>
        <_>
          3 7 3 9 2.</_>
        <_>
          6 16 3 9 2.</_></rects>
      <tilted>0</tilted></_>
    <_>
      <rects>
        <_>
          3 8 2 16 -1.</_>
        <_>
          3 8 1 8 2.</_>
        <_>
          4 16 1 8 2.</_></rects>
      <tilted>0</tilted></_>
    <_>
      <rects>
        <_>
          3 9 2 8 -1.</_>
        <_>
          3 9 1 4 2.</_>
        <_>
          4 13 1 4 2.</_></rects>
      <tilted>0</tilted></_>
    <_>
      <rects>
        <_>
          3 9 2 10 -1.</_>
        <_>
          3 9 1 5 2.</_>
        <_>
          4 14 1 5 2.</_></rects>
      <tilted>0</tilted></_>
    <_>
      <rects>
        <_>
          3 10 16 8 -1.</_>
        <_>
          3 14 16 4 2.</_></rects>
      <tilted>0</tilted></_>
    <_>
      <rects>
        <_>
          3 11 3 5 -1.</_>
        <_>
          4 11 1 5 3.</_></rects>
      <tilted>0</tilted></_>
    <_>
      <rects>
        <_>
          3 13 6 12 -1.</_>
        <_>
          3 13 3 6 2.</_>
        <_>
          6 19 3 6 2.</_></rects>
      <tilted>0</tilted></_>
    <_>
      <rects>
        <_>
          3 14 12 6 -1.</_>
        <_>
          9 14 6 6 2.</_></rects>
      <tilted>0</tilted></_>
    <_>
      <rects>
        <_>
          3 14 10 9 -1.</_>
        <_>
          3 17 10 3 3.</_></rects>
      <tilted>0</tilted></_>
    <_>
      <rects>
        <_>
          3 15 3 6 -1.</_>
        <_>
          4 15 1 6 3.</_></rects>
      <tilted>0</tilted></_>
    <_>
      <rects>
        <_>
          3 16 3 2 -1.</_>
        <_>
          4 16 1 2 3.</_></rects>
      <tilted>0</tilted></_>
    <_>
      <rects>
        <_>
          3 16 3 4 -1.</_>
        <_>
          3 18 3 2 2.</_></rects>
      <tilted>0</tilted></_>
    <_>
      <rects>
        <_>
          3 22 15 1 -1.</_>
        <_>
          8 22 5 1 3.</_></rects>
      <tilted>0</tilted></_>
    <_>
      <rects>
        <_>
          4 0 6 22 -1.</_>
        <_>
          4 11 6 11 2.</_></rects>
      <tilted>0</tilted></_>
    <_>
      <rects>
        <_>
          4 0 12 2 -1.</_>
        <_>
          4 1 12 1 2.</_></rects>
      <tilted>0</tilted></_>
    <_>
      <rects>
        <_>
          4 1 2 6 -1.</_>
        <_>
          4 3 2 2 3.</_></rects>
      <tilted>0</tilted></_>
    <_>
      <rects>
        <_>
          4 1 2 24 -1.</_>
        <_>
          4 9 2 8 3.</_></rects>
      <tilted>0</tilted></_>
    <_>
      <rects>
        <_>
          4 2 6 8 -1.</_>
        <_>
          4 2 3 4 2.</_>
        <_>
          7 6 3 4 2.</_></rects>
      <tilted>0</tilted></_>
    <_>
      <rects>
        <_>
          4 3 2 18 -1.</_>
        <_>
          5 3 1 18 2.</_></rects>
      <tilted>0</tilted></_>
    <_>
      <rects>
        <_>
          4 3 6 20 -1.</_>
        <_>
          4 13 6 10 2.</_></rects>
      <tilted>0</tilted></_>
    <_>
      <rects>
        <_>
          4 4 4 1 -1.</_>
        <_>
          6 4 2 1 2.</_></rects>
      <tilted>0</tilted></_>
    <_>
      <rects>
        <_>
          4 5 2 7 -1.</_>
        <_>
          5 5 1 7 2.</_></rects>
      <tilted>0</tilted></_>
    <_>
      <rects>
        <_>
          4 5 12 12 -1.</_>
        <_>
          8 5 4 12 3.</_></rects>
      <tilted>0</tilted></_>
    <_>
      <rects>
        <_>
          4 5 16 6 -1.</_>
        <_>
          12 5 8 6 2.</_></rects>
      <tilted>0</tilted></_>
    <_>
      <rects>
        <_>
          4 6 3 18 -1.</_>
        <_>
          4 15 3 9 2.</_></rects>
      <tilted>0</tilted></_>
    <_>
      <rects>
        <_>
          4 7 4 9 -1.</_>
        <_>
          6 7 2 9 2.</_></rects>
      <tilted>0</tilted></_>
    <_>
      <rects>
        <_>
          4 7 8 16 -1.</_>
        <_>
          4 7 4 8 2.</_>
        <_>
          8 15 4 8 2.</_></rects>
      <tilted>0</tilted></_>
    <_>
      <rects>
        <_>
          4 7 6 12 -1.</_>
        <_>
          4 13 6 6 2.</_></rects>
      <tilted>0</tilted></_>
    <_>
      <rects>
        <_>
          4 7 12 17 -1.</_>
        <_>
          10 7 6 17 2.</_></rects>
      <tilted>0</tilted></_>
    <_>
      <rects>
        <_>
          4 8 8 16 -1.</_>
        <_>
          4 8 4 8 2.</_>
        <_>
          8 16 4 8 2.</_></rects>
      <tilted>0</tilted></_>
    <_>
      <rects>
        <_>
          4 9 1 2 -1.</_>
        <_>
          4 10 1 1 2.</_></rects>
      <tilted>0</tilted></_>
    <_>
      <rects>
        <_>
          4 10 1 2 -1.</_>
        <_>
          4 11 1 1 2.</_></rects>
      <tilted>0</tilted></_>
    <_>
      <rects>
        <_>
          4 10 2 5 -1.</_>
        <_>
          5 10 1 5 2.</_></rects>
      <tilted>0</tilted></_>
    <_>
      <rects>
        <_>
          4 11 1 3 -1.</_>
        <_>
          4 12 1 1 3.</_></rects>
      <tilted>0</tilted></_>
    <_>
      <rects>
        <_>
          4 12 1 2 -1.</_>
        <_>
          4 13 1 1 2.</_></rects>
      <tilted>0</tilted></_>
    <_>
      <rects>
        <_>
          4 13 2 1 -1.</_>
        <_>
          5 13 1 1 2.</_></rects>
      <tilted>0</tilted></_>
    <_>
      <rects>
        <_>
          4 13 2 2 -1.</_>
        <_>
          5 13 1 2 2.</_></rects>
      <tilted>0</tilted></_>
    <_>
      <rects>
        <_>
          4 13 4 12 -1.</_>
        <_>
          4 13 2 6 2.</_>
        <_>
          6 19 2 6 2.</_></rects>
      <tilted>0</tilted></_>
    <_>
      <rects>
        <_>
          4 14 1 2 -1.</_>
        <_>
          4 15 1 1 2.</_></rects>
      <tilted>0</tilted></_>
    <_>
      <rects>
        <_>
          4 14 1 8 -1.</_>
        <_>
          4 18 1 4 2.</_></rects>
      <tilted>0</tilted></_>
    <_>
      <rects>
        <_>
          4 15 1 2 -1.</_>
        <_>
          4 16 1 1 2.</_></rects>
      <tilted>0</tilted></_>
    <_>
      <rects>
        <_>
          4 16 2 2 -1.</_>
        <_>
          4 16 1 1 2.</_>
        <_>
          5 17 1 1 2.</_></rects>
      <tilted>0</tilted></_>
    <_>
      <rects>
        <_>
          4 16 6 1 -1.</_>
        <_>
          7 16 3 1 2.</_></rects>
      <tilted>0</tilted></_>
    <_>
      <rects>
        <_>
          4 16 10 4 -1.</_>
        <_>
          9 16 5 4 2.</_></rects>
      <tilted>0</tilted></_>
    <_>
      <rects>
        <_>
          4 17 10 2 -1.</_>
        <_>
          9 17 5 2 2.</_></rects>
      <tilted>0</tilted></_>
    <_>
      <rects>
        <_>
          4 17 12 4 -1.</_>
        <_>
          10 17 6 4 2.</_></rects>
      <tilted>0</tilted></_>
    <_>
      <rects>
        <_>
          4 19 8 6 -1.</_>
        <_>
          4 19 4 3 2.</_>
        <_>
          8 22 4 3 2.</_></rects>
      <tilted>0</tilted></_>
    <_>
      <rects>
        <_>
          4 19 15 6 -1.</_>
        <_>
          4 22 15 3 2.</_></rects>
      <tilted>0</tilted></_>
    <_>
      <rects>
        <_>
          4 20 15 3 -1.</_>
        <_>
          9 20 5 3 3.</_></rects>
      <tilted>0</tilted></_>
    <_>
      <rects>
        <_>
          4 23 7 2 -1.</_>
        <_>
          4 24 7 1 2.</_></rects>
      <tilted>0</tilted></_>
    <_>
      <rects>
        <_>
          5 0 2 3 -1.</_>
        <_>
          5 1 2 1 3.</_></rects>
      <tilted>0</tilted></_>
    <_>
      <rects>
        <_>
          5 0 6 3 -1.</_>
        <_>
          5 1 6 1 3.</_></rects>
      <tilted>0</tilted></_>
    <_>
      <rects>
        <_>
          5 2 3 3 -1.</_>
        <_>
          5 3 3 1 3.</_></rects>
      <tilted>0</tilted></_>
    <_>
      <rects>
        <_>
          5 2 4 3 -1.</_>
        <_>
          5 3 4 1 3.</_></rects>
      <tilted>0</tilted></_>
    <_>
      <rects>
        <_>
          5 4 2 2 -1.</_>
        <_>
          5 5 2 1 2.</_></rects>
      <tilted>0</tilted></_>
    <_>
      <rects>
        <_>
          5 4 6 14 -1.</_>
        <_>
          7 4 2 14 3.</_></rects>
      <tilted>0</tilted></_>
    <_>
      <rects>
        <_>
          5 5 3 3 -1.</_>
        <_>
          6 5 1 3 3.</_></rects>
      <tilted>0</tilted></_>
    <_>
      <rects>
        <_>
          5 6 8 18 -1.</_>
        <_>
          5 6 4 9 2.</_>
        <_>
          9 15 4 9 2.</_></rects>
      <tilted>0</tilted></_>
    <_>
      <rects>
        <_>
          5 7 4 18 -1.</_>
        <_>
          5 16 4 9 2.</_></rects>
      <tilted>0</tilted></_>
    <_>
      <rects>
        <_>
          5 7 14 4 -1.</_>
        <_>
          12 7 7 4 2.</_></rects>
      <tilted>0</tilted></_>
    <_>
      <rects>
        <_>
          5 8 8 14 -1.</_>
        <_>
          5 8 4 7 2.</_>
        <_>
          9 15 4 7 2.</_></rects>
      <tilted>0</tilted></_>
    <_>
      <rects>
        <_>
          5 12 1 4 -1.</_>
        <_>
          5 14 1 2 2.</_></rects>
      <tilted>0</tilted></_>
    <_>
      <rects>
        <_>
          5 14 1 3 -1.</_>
        <_>
          5 15 1 1 3.</_></rects>
      <tilted>0</tilted></_>
    <_>
      <rects>
        <_>
          5 14 5 4 -1.</_>
        <_>
          5 16 5 2 2.</_></rects>
      <tilted>0</tilted></_>
    <_>
      <rects>
        <_>
          5 15 2 1 -1.</_>
        <_>
          6 15 1 1 2.</_></rects>
      <tilted>0</tilted></_>
    <_>
      <rects>
        <_>
          5 15 1 3 -1.</_>
        <_>
          5 16 1 1 3.</_></rects>
      <tilted>0</tilted></_>
    <_>
      <rects>
        <_>
          5 16 2 1 -1.</_>
        <_>
          6 16 1 1 2.</_></rects>
      <tilted>0</tilted></_>
    <_>
      <rects>
        <_>
          5 16 2 6 -1.</_>
        <_>
          5 16 1 3 2.</_>
        <_>
          6 19 1 3 2.</_></rects>
      <tilted>0</tilted></_>
    <_>
      <rects>
        <_>
          5 16 6 2 -1.</_>
        <_>
          8 16 3 2 2.</_></rects>
      <tilted>0</tilted></_>
    <_>
      <rects>
        <_>
          5 16 8 4 -1.</_>
        <_>
          9 16 4 4 2.</_></rects>
      <tilted>0</tilted></_>
    <_>
      <rects>
        <_>
          5 17 4 1 -1.</_>
        <_>
          7 17 2 1 2.</_></rects>
      <tilted>0</tilted></_>
    <_>
      <rects>
        <_>
          5 22 4 3 -1.</_>
        <_>
          5 23 4 1 3.</_></rects>
      <tilted>0</tilted></_>
    <_>
      <rects>
        <_>
          6 0 14 12 -1.</_>
        <_>
          6 0 7 6 2.</_>
        <_>
          13 6 7 6 2.</_></rects>
      <tilted>0</tilted></_>
    <_>
      <rects>
        <_>
          6 0 11 6 -1.</_>
        <_>
          6 3 11 3 2.</_></rects>
      <tilted>0</tilted></_>
    <_>
      <rects>
        <_>
          6 1 12 8 -1.</_>
        <_>
          10 1 4 8 3.</_></rects>
      <tilted>0</tilted></_>
    <_>
      <rects>
        <_>
          6 4 3 9 -1.</_>
        <_>
          6 7 3 3 3.</_></rects>
      <tilted>0</tilted></_>
    <_>
      <rects>
        <_>
          6 6 3 16 -1.</_>
        <_>
          6 14 3 8 2.</_></rects>
      <tilted>0</tilted></_>
    <_>
      <rects>
        <_>
          6 6 4 18 -1.</_>
        <_>
          6 15 4 9 2.</_></rects>
      <tilted>0</tilted></_>
    <_>
      <rects>
        <_>
          6 9 2 2 -1.</_>
        <_>
          6 9 1 1 2.</_>
        <_>
          7 10 1 1 2.</_></rects>
      <tilted>0</tilted></_>
    <_>
      <rects>
        <_>
          6 10 6 12 -1.</_>
        <_>
          6 10 3 6 2.</_>
        <_>
          9 16 3 6 2.</_></rects>
      <tilted>0</tilted></_>
    <_>
      <rects>
        <_>
          6 11 6 2 -1.</_>
        <_>
          8 11 2 2 3.</_></rects>
      <tilted>0</tilted></_>
    <_>
      <rects>
        <_>
          6 11 10 13 -1.</_>
        <_>
          11 11 5 13 2.</_></rects>
      <tilted>0</tilted></_>
    <_>
      <rects>
        <_>
          6 12 5 2 -1.</_>
        <_>
          6 13 5 1 2.</_></rects>
      <tilted>0</tilted></_>
    <_>
      <rects>
        <_>
          6 14 14 10 -1.</_>
        <_>
          6 14 7 5 2.</_>
        <_>
          13 19 7 5 2.</_></rects>
      <tilted>0</tilted></_>
    <_>
      <rects>
        <_>
          6 15 12 6 -1.</_>
        <_>
          6 15 6 3 2.</_>
        <_>
          12 18 6 3 2.</_></rects>
      <tilted>0</tilted></_>
    <_>
      <rects>
        <_>
          6 16 9 4 -1.</_>
        <_>
          9 16 3 4 3.</_></rects>
      <tilted>0</tilted></_>
    <_>
      <rects>
        <_>
          6 16 6 6 -1.</_>
        <_>
          9 16 3 6 2.</_></rects>
      <tilted>0</tilted></_>
    <_>
      <rects>
        <_>
          6 16 9 6 -1.</_>
        <_>
          9 16 3 6 3.</_></rects>
      <tilted>0</tilted></_>
    <_>
      <rects>
        <_>
          6 16 8 2 -1.</_>
        <_>
          6 17 8 1 2.</_></rects>
      <tilted>0</tilted></_>
    <_>
      <rects>
        <_>
          6 18 2 1 -1.</_>
        <_>
          7 18 1 1 2.</_></rects>
      <tilted>0</tilted></_>
    <_>
      <rects>
        <_>
          6 23 10 2 -1.</_>
        <_>
          6 24 10 1 2.</_></rects>
      <tilted>0</tilted></_>
    <_>
      <rects>
        <_>
          7 0 1 2 -1.</_>
        <_>
          7 1 1 1 2.</_></rects>
      <tilted>0</tilted></_>
    <_>
      <rects>
        <_>
          7 0 2 3 -1.</_>
        <_>
          7 1 2 1 3.</_></rects>
      <tilted>0</tilted></_>
    <_>
      <rects>
        <_>
          7 0 9 4 -1.</_>
        <_>
          7 2 9 2 2.</_></rects>
      <tilted>0</tilted></_>
    <_>
      <rects>
        <_>
          7 2 5 12 -1.</_>
        <_>
          7 6 5 4 3.</_></rects>
      <tilted>0</tilted></_>
    <_>
      <rects>
        <_>
          7 2 6 6 -1.</_>
        <_>
          7 5 6 3 2.</_></rects>
      <tilted>0</tilted></_>
    <_>
      <rects>
        <_>
          7 3 1 2 -1.</_>
        <_>
          7 4 1 1 2.</_></rects>
      <tilted>0</tilted></_>
    <_>
      <rects>
        <_>
          7 3 3 3 -1.</_>
        <_>
          7 4 3 1 3.</_></rects>
      <tilted>0</tilted></_>
    <_>
      <rects>
        <_>
          7 5 5 3 -1.</_>
        <_>
          7 6 5 1 3.</_></rects>
      <tilted>0</tilted></_>
    <_>
      <rects>
        <_>
          7 9 5 3 -1.</_>
        <_>
          7 10 5 1 3.</_></rects>
      <tilted>0</tilted></_>
    <_>
      <rects>
        <_>
          7 9 12 16 -1.</_>
        <_>
          7 9 6 8 2.</_>
        <_>
          13 17 6 8 2.</_></rects>
      <tilted>0</tilted></_>
    <_>
      <rects>
        <_>
          7 10 4 3 -1.</_>
        <_>
          9 10 2 3 2.</_></rects>
      <tilted>0</tilted></_>
    <_>
      <rects>
        <_>
          7 11 3 3 -1.</_>
        <_>
          8 11 1 3 3.</_></rects>
      <tilted>0</tilted></_>
    <_>
      <rects>
        <_>
          7 17 10 4 -1.</_>
        <_>
          7 17 5 2 2.</_>
        <_>
          12 19 5 2 2.</_></rects>
      <tilted>0</tilted></_>
    <_>
      <rects>
        <_>
          7 21 2 4 -1.</_>
        <_>
          7 23 2 2 2.</_></rects>
      <tilted>0</tilted></_>
    <_>
      <rects>
        <_>
          7 23 6 2 -1.</_>
        <_>
          7 24 6 1 2.</_></rects>
      <tilted>0</tilted></_>
    <_>
      <rects>
        <_>
          8 0 6 4 -1.</_>
        <_>
          8 2 6 2 2.</_></rects>
      <tilted>0</tilted></_>
    <_>
      <rects>
        <_>
          8 0 12 10 -1.</_>
        <_>
          8 0 6 5 2.</_>
        <_>
          14 5 6 5 2.</_></rects>
      <tilted>0</tilted></_>
    <_>
      <rects>
        <_>
          8 1 12 22 -1.</_>
        <_>
          12 1 4 22 3.</_></rects>
      <tilted>0</tilted></_>
    <_>
      <rects>
        <_>
          8 2 12 6 -1.</_>
        <_>
          8 2 6 3 2.</_>
        <_>
          14 5 6 3 2.</_></rects>
      <tilted>0</tilted></_>
    <_>
      <rects>
        <_>
          8 4 12 18 -1.</_>
        <_>
          12 4 4 18 3.</_></rects>
      <tilted>0</tilted></_>
    <_>
      <rects>
        <_>
          8 5 12 14 -1.</_>
        <_>
          12 5 4 14 3.</_></rects>
      <tilted>0</tilted></_>
    <_>
      <rects>
        <_>
          8 5 10 8 -1.</_>
        <_>
          13 5 5 8 2.</_></rects>
      <tilted>0</tilted></_>
    <_>
      <rects>
        <_>
          8 12 2 3 -1.</_>
        <_>
          8 13 2 1 3.</_></rects>
      <tilted>0</tilted></_>
    <_>
      <rects>
        <_>
          8 17 6 4 -1.</_>
        <_>
          10 17 2 4 3.</_></rects>
      <tilted>0</tilted></_>
    <_>
      <rects>
        <_>
          8 18 6 1 -1.</_>
        <_>
          10 18 2 1 3.</_></rects>
      <tilted>0</tilted></_>
    <_>
      <rects>
        <_>
          8 19 6 2 -1.</_>
        <_>
          10 19 2 2 3.</_></rects>
      <tilted>0</tilted></_>
    <_>
      <rects>
        <_>
          8 23 3 2 -1.</_>
        <_>
          8 24 3 1 2.</_></rects>
      <tilted>0</tilted></_>
    <_>
      <rects>
        <_>
          9 0 3 3 -1.</_>
        <_>
          9 1 3 1 3.</_></rects>
      <tilted>0</tilted></_>
    <_>
      <rects>
        <_>
          9 0 3 4 -1.</_>
        <_>
          9 2 3 2 2.</_></rects>
      <tilted>0</tilted></_>
    <_>
      <rects>
        <_>
          9 0 5 4 -1.</_>
        <_>
          9 2 5 2 2.</_></rects>
      <tilted>0</tilted></_>
    <_>
      <rects>
        <_>
          9 1 1 3 -1.</_>
        <_>
          9 2 1 1 3.</_></rects>
      <tilted>0</tilted></_>
    <_>
      <rects>
        <_>
          9 1 2 3 -1.</_>
        <_>
          9 2 2 1 3.</_></rects>
      <tilted>0</tilted></_>
    <_>
      <rects>
        <_>
          9 4 6 4 -1.</_>
        <_>
          12 4 3 4 2.</_></rects>
      <tilted>0</tilted></_>
    <_>
      <rects>
        <_>
          9 4 9 17 -1.</_>
        <_>
          12 4 3 17 3.</_></rects>
      <tilted>0</tilted></_>
    <_>
      <rects>
        <_>
          9 5 1 14 -1.</_>
        <_>
          9 12 1 7 2.</_></rects>
      <tilted>0</tilted></_>
    <_>
      <rects>
        <_>
          9 5 4 14 -1.</_>
        <_>
          9 12 4 7 2.</_></rects>
      <tilted>0</tilted></_>
    <_>
      <rects>
        <_>
          9 8 1 2 -1.</_>
        <_>
          9 9 1 1 2.</_></rects>
      <tilted>0</tilted></_>
    <_>
      <rects>
        <_>
          9 9 4 2 -1.</_>
        <_>
          11 9 2 2 2.</_></rects>
      <tilted>0</tilted></_>
    <_>
      <rects>
        <_>
          9 10 8 1 -1.</_>
        <_>
          13 10 4 1 2.</_></rects>
      <tilted>0</tilted></_>
    <_>
      <rects>
        <_>
          9 21 3 3 -1.</_>
        <_>
          9 22 3 1 3.</_></rects>
      <tilted>0</tilted></_>
    <_>
      <rects>
        <_>
          9 21 4 4 -1.</_>
        <_>
          9 23 4 2 2.</_></rects>
      <tilted>0</tilted></_>
    <_>
      <rects>
        <_>
          9 21 6 4 -1.</_>
        <_>
          9 23 6 2 2.</_></rects>
      <tilted>0</tilted></_>
    <_>
      <rects>
        <_>
          9 23 3 2 -1.</_>
        <_>
          9 24 3 1 2.</_></rects>
      <tilted>0</tilted></_>
    <_>
      <rects>
        <_>
          9 23 5 2 -1.</_>
        <_>
          9 24 5 1 2.</_></rects>
      <tilted>0</tilted></_>
    <_>
      <rects>
        <_>
          10 0 1 3 -1.</_>
        <_>
          10 1 1 1 3.</_></rects>
      <tilted>0</tilted></_>
    <_>
      <rects>
        <_>
          10 0 3 6 -1.</_>
        <_>
          10 2 3 2 3.</_></rects>
      <tilted>0</tilted></_>
    <_>
      <rects>
        <_>
          10 0 8 12 -1.</_>
        <_>
          10 0 4 6 2.</_>
        <_>
          14 6 4 6 2.</_></rects>
      <tilted>0</tilted></_>
    <_>
      <rects>
        <_>
          10 1 1 2 -1.</_>
        <_>
          10 2 1 1 2.</_></rects>
      <tilted>0</tilted></_>
    <_>
      <rects>
        <_>
          10 1 1 3 -1.</_>
        <_>
          10 2 1 1 3.</_></rects>
      <tilted>0</tilted></_>
    <_>
      <rects>
        <_>
          10 1 3 3 -1.</_>
        <_>
          10 2 3 1 3.</_></rects>
      <tilted>0</tilted></_>
    <_>
      <rects>
        <_>
          10 2 2 20 -1.</_>
        <_>
          10 2 1 10 2.</_>
        <_>
          11 12 1 10 2.</_></rects>
      <tilted>0</tilted></_>
    <_>
      <rects>
        <_>
          10 4 9 16 -1.</_>
        <_>
          13 4 3 16 3.</_></rects>
      <tilted>0</tilted></_>
    <_>
      <rects>
        <_>
          10 8 9 9 -1.</_>
        <_>
          13 8 3 9 3.</_></rects>
      <tilted>0</tilted></_>
    <_>
      <rects>
        <_>
          10 9 6 10 -1.</_>
        <_>
          10 9 3 5 2.</_>
        <_>
          13 14 3 5 2.</_></rects>
      <tilted>0</tilted></_>
    <_>
      <rects>
        <_>
          10 11 1 3 -1.</_>
        <_>
          10 12 1 1 3.</_></rects>
      <tilted>0</tilted></_>
    <_>
      <rects>
        <_>
          10 11 8 2 -1.</_>
        <_>
          14 11 4 2 2.</_></rects>
      <tilted>0</tilted></_>
    <_>
      <rects>
        <_>
          10 16 2 3 -1.</_>
        <_>
          11 16 1 3 2.</_></rects>
      <tilted>0</tilted></_>
    <_>
      <rects>
        <_>
          10 17 4 5 -1.</_>
        <_>
          12 17 2 5 2.</_></rects>
      <tilted>0</tilted></_>
    <_>
      <rects>
        <_>
          10 19 1 6 -1.</_>
        <_>
          10 21 1 2 3.</_></rects>
      <tilted>0</tilted></_>
    <_>
      <rects>
        <_>
          10 19 3 3 -1.</_>
        <_>
          11 19 1 3 3.</_></rects>
      <tilted>0</tilted></_>
    <_>
      <rects>
        <_>
          10 21 2 4 -1.</_>
        <_>
          10 23 2 2 2.</_></rects>
      <tilted>0</tilted></_>
    <_>
      <rects>
        <_>
          10 23 1 2 -1.</_>
        <_>
          10 24 1 1 2.</_></rects>
      <tilted>0</tilted></_>
    <_>
      <rects>
        <_>
          11 0 1 4 -1.</_>
        <_>
          11 2 1 2 2.</_></rects>
      <tilted>0</tilted></_>
    <_>
      <rects>
