<?xml version="1.0"?>
<opencv_storage>
<cascade>
  <stageType>BOOST</stageType>
  <featureType>HAAR</featureType>
  <height>20</height>
  <width>20</width>
  <stageParams>
    <boostType>GAB</boostType>
    <minHitRate>9.9500000476837158e-01</minHitRate>
    <maxFalseAlarm>5.0000000000000000e-01</maxFalseAlarm>
    <weightTrimRate>9.4999999999999996e-01</weightTrimRate>
    <maxDepth>1</maxDepth>
    <maxWeakCount>100</maxWeakCount></stageParams>
  <featureParams>
    <maxCatCount>0</maxCatCount>
    <featSize>1</featSize>
    <mode>BASIC</mode></featureParams>
  <stageNum>25</stageNum>
  <stages>
    <!-- stage 0 -->
    <_>
      <maxWeakCount>24</maxWeakCount>
      <stageThreshold>-9.4206404685974121e-01</stageThreshold>
      <weakClassifiers>
        <_>
          <internalNodes>
            0 -1 347 -1.5308249276131392e-03</internalNodes>
          <leafValues>
            -1.4874142408370972e-01 5.3151458501815796e-01</leafValues></_>
        <_>
          <internalNodes>
            0 -1 6 -8.9133188128471375e-02</internalNodes>
          <leafValues>
            6.5579110383987427e-01 -8.7745845317840576e-02</leafValues></_>
        <_>
          <internalNodes>
            0 -1 37 9.7015455365180969e-02</internalNodes>
          <leafValues>
            -1.8305085599422455e-01 7.0420616865158081e-01</leafValues></_>
        <_>
          <internalNodes>
            0 -1 1412 -1.7341197235509753e-03</internalNodes>
          <leafValues>
            4.2845514416694641e-01 -1.5566670894622803e-01</leafValues></_>
        <_>
          <internalNodes>
            0 -1 150 -8.2171882968395948e-04</internalNodes>
          <leafValues>
            3.0228620767593384e-01 -2.7253252267837524e-01</leafValues></_>
        <_>
          <internalNodes>
            0 -1 412 -6.7982776090502739e-04</internalNodes>
          <leafValues>
            2.9568651318550110e-01 -2.6484975218772888e-01</leafValues></_>
        <_>
          <internalNodes>
            0 -1 818 -1.1226898059248924e-03</internalNodes>
          <leafValues>
            3.4657776355743408e-01 -2.1044380962848663e-01</leafValues></_>
        <_>
          <internalNodes>
            0 -1 1316 7.4357137084007263e-02</internalNodes>
          <leafValues>
            -1.1119657754898071e-01 6.7554610967636108e-01</leafValues></_>
        <_>
          <internalNodes>
            0 -1 1212 6.0784919187426567e-03</internalNodes>
          <leafValues>
            1.1764052510261536e-01 -7.4451911449432373e-01</leafValues></_>
        <_>
          <internalNodes>
            0 -1 1096 -1.0775655508041382e-02</internalNodes>
          <leafValues>
            -6.8482047319412231e-01 9.8401308059692383e-02</leafValues></_>
        <_>
          <internalNodes>
            0 -1 1017 -1.6505578532814980e-02</internalNodes>
          <leafValues>
            -7.1688443422317505e-01 7.3380790650844574e-02</leafValues></_>
        <_>
          <internalNodes>
            0 -1 1017 -8.1477791536599398e-04</internalNodes>
          <leafValues>
            2.4741140007972717e-01 -3.1489726901054382e-01</leafValues></_>
        <_>
          <internalNodes>
            0 -1 965 8.1724748015403748e-03</internalNodes>
          <leafValues>
            7.4330933392047882e-02 -8.0263388156890869e-01</leafValues></_>
        <_>
          <internalNodes>
            0 -1 1157 -1.0870271362364292e-03</internalNodes>
          <leafValues>
            2.4466112256050110e-01 -2.5951716303825378e-01</leafValues></_>
        <_>
          <internalNodes>
            0 -1 1224 -8.3816470578312874e-03</internalNodes>
          <leafValues>
            -7.9699939489364624e-01 9.1903209686279297e-02</leafValues></_>
        <_>
          <internalNodes>
            0 -1 1093 5.7860685046762228e-04</internalNodes>
          <leafValues>
            -2.4847027659416199e-01 2.4014703929424286e-01</leafValues></_>
        <_>
          <internalNodes>
            0 -1 1195 7.8542195260524750e-03</internalNodes>
          <leafValues>
            9.3460127711296082e-02 -7.1291542053222656e-01</leafValues></_>
        <_>
          <internalNodes>
            0 -1 305 -9.7611942328512669e-04</internalNodes>
          <leafValues>
            2.8854686021804810e-01 -2.0841690897941589e-01</leafValues></_>
        <_>
          <internalNodes>
            0 -1 376 1.8146432703360915e-03</internalNodes>
          <leafValues>
            -2.5846877694129944e-01 2.6563477516174316e-01</leafValues></_>
        <_>
          <internalNodes>
            0 -1 1021 4.2945947498083115e-03</internalNodes>
          <leafValues>
            8.1999503076076508e-02 -7.7295613288879395e-01</leafValues></_>
        <_>
          <internalNodes>
            0 -1 479 -8.8980726897716522e-02</internalNodes>
          <leafValues>
            4.9761974811553955e-01 -1.3613423705101013e-01</leafValues></_>
        <_>
          <internalNodes>
            0 -1 941 1.0448431223630905e-01</internalNodes>
          <leafValues>
            -1.1721000075340271e-01 5.1933586597442627e-01</leafValues></_>
        <_>
          <internalNodes>
            0 -1 1024 -6.4810113981366158e-03</internalNodes>
          <leafValues>
            -7.8937411308288574e-01 9.1233760118484497e-02</leafValues></_>
        <_>
          <internalNodes>
            0 -1 1202 2.2426026407629251e-04</internalNodes>
          <leafValues>
            -2.2841031849384308e-01 2.7874320745468140e-01</leafValues></_></weakClassifiers></_>
    <!-- stage 1 -->
    <_>
      <maxWeakCount>24</maxWeakCount>
      <stageThreshold>-8.2720935344696045e-01</stageThreshold>
      <weakClassifiers>
        <_>
          <internalNodes>
            0 -1 1106 1.1152154766023159e-02</internalNodes>
          <leafValues>
            3.9148786664009094e-01 -7.1974521875381470e-01</leafValues></_>
        <_>
          <internalNodes>
            0 -1 1103 5.9830339159816504e-04</internalNodes>
          <leafValues>
            -2.1864363551139832e-01 3.3401441574096680e-01</leafValues></_>
        <_>
          <internalNodes>
            0 -1 52 5.6138098239898682e-02</internalNodes>
          <leafValues>
            -1.5750382840633392e-01 5.9734475612640381e-01</leafValues></_>
        <_>
          <internalNodes>
            0 -1 1436 4.4176843948662281e-04</internalNodes>
          <leafValues>
            -2.5604036450386047e-01 2.8191605210304260e-01</leafValues></_>
        <_>
          <internalNodes>
            0 -1 548 -1.2708348222076893e-03</internalNodes>
          <leafValues>
            2.8929251432418823e-01 -2.3080590367317200e-01</leafValues></_>
        <_>
          <internalNodes>
            0 -1 689 -4.9508884549140930e-03</internalNodes>
          <leafValues>
            2.6361289620399475e-01 -2.4766336381435394e-01</leafValues></_>
        <_>
          <internalNodes>
            0 -1 486 -7.9560710582882166e-04</internalNodes>
          <leafValues>
            2.9208290576934814e-01 -2.2313122451305389e-01</leafValues></_>
        <_>
          <internalNodes>
            0 -1 1238 6.9277537986636162e-03</internalNodes>
          <leafValues>
            9.3235023319721222e-02 -7.0656681060791016e-01</leafValues></_>
        <_>
          <internalNodes>
            0 -1 1004 -3.7462386535480618e-04</internalNodes>
          <leafValues>
            3.2293555140495300e-01 -2.2051486372947693e-01</leafValues></_>
        <_>
          <internalNodes>
            0 -1 890 -1.7150826752185822e-02</internalNodes>
          <leafValues>
            -8.1519716978073120e-01 8.4123313426971436e-02</leafValues></_>
        <_>
          <internalNodes>
            0 -1 148 -4.5387548743747175e-04</internalNodes>
          <leafValues>
            2.7864512801170349e-01 -2.5629001855850220e-01</leafValues></_>
        <_>
          <internalNodes>
            0 -1 931 -1.1168441269546747e-03</internalNodes>
          <leafValues>
            3.1046485900878906e-01 -2.0817887783050537e-01</leafValues></_>
        <_>
          <internalNodes>
            0 -1 813 -1.3364986516535282e-03</internalNodes>
          <leafValues>
            3.6258143186569214e-01 -1.8647564947605133e-01</leafValues></_>
        <_>
          <internalNodes>
            0 -1 901 -5.0701312720775604e-03</internalNodes>
          <leafValues>
            -8.4096235036849976e-01 7.7070720493793488e-02</leafValues></_>
        <_>
          <internalNodes>
            0 -1 1201 -7.2569176554679871e-02</internalNodes>
          <leafValues>
            5.4885798692703247e-01 -1.4093913137912750e-01</leafValues></_>
        <_>
          <internalNodes>
            0 -1 1165 4.5476865489035845e-04</internalNodes>
          <leafValues>
            -1.7303362488746643e-01 3.8829368352890015e-01</leafValues></_>
        <_>
          <internalNodes>
            0 -1 1033 -2.6297941803932190e-04</internalNodes>
          <leafValues>
            3.4523391723632812e-01 -1.8769823014736176e-01</leafValues></_>
        <_>
          <internalNodes>
            0 -1 1314 -4.5849423622712493e-04</internalNodes>
          <leafValues>
            3.2120376825332642e-01 -1.7779554426670074e-01</leafValues></_>
        <_>
          <internalNodes>
            0 -1 88 -7.0111595094203949e-02</internalNodes>
          <leafValues>
            5.7800495624542236e-01 -9.0609081089496613e-02</leafValues></_>
        <_>
          <internalNodes>
            0 -1 1165 -3.9193389238789678e-04</internalNodes>
          <leafValues>
            2.8887763619422913e-01 -2.0039421319961548e-01</leafValues></_>
        <_>
          <internalNodes>
            0 -1 1278 -1.1467870324850082e-02</internalNodes>
          <leafValues>
            -7.5300014019012451e-01 7.9178966581821442e-02</leafValues></_>
        <_>
          <internalNodes>
            0 -1 1216 -1.2915045954287052e-03</internalNodes>
          <leafValues>
            3.8550898432731628e-01 -1.6640071570873260e-01</leafValues></_>
        <_>
          <internalNodes>
            0 -1 1008 -9.1462489217519760e-03</internalNodes>
          <leafValues>
            -7.0131689310073853e-01 9.9768765270709991e-02</leafValues></_>
        <_>
          <internalNodes>
            0 -1 1283 -6.3462404068559408e-04</internalNodes>
          <leafValues>
            3.3071699738502502e-01 -1.8143977224826813e-01</leafValues></_></weakClassifiers></_>
    <!-- stage 2 -->
    <_>
      <maxWeakCount>31</maxWeakCount>
      <stageThreshold>-8.4106320142745972e-01</stageThreshold>
      <weakClassifiers>
        <_>
          <internalNodes>
            0 -1 357 1.4237428549677134e-03</internalNodes>
          <leafValues>
            6.4318530261516571e-02 5.4073196649551392e-01</leafValues></_>
        <_>
          <internalNodes>
            0 -1 1017 -2.0858070347458124e-03</internalNodes>
          <leafValues>
            2.8845515847206116e-01 -2.3370003700256348e-01</leafValues></_>
        <_>
          <internalNodes>
            0 -1 653 -6.8909127730876207e-04</internalNodes>
          <leafValues>
            3.1311476230621338e-01 -2.0564360916614532e-01</leafValues></_>
        <_>
          <internalNodes>
            0 -1 809 1.5950398519635201e-03</internalNodes>
          <leafValues>
            -1.9097265601158142e-01 3.2375019788742065e-01</leafValues></_>
        <_>
          <internalNodes>
            0 -1 870 -6.1944476328790188e-04</internalNodes>
          <leafValues>
            2.4373896420001984e-01 -2.5068345665931702e-01</leafValues></_>
        <_>
          <internalNodes>
            0 -1 1324 -3.1316399574279785e-02</internalNodes>
          <leafValues>
            4.1618579626083374e-01 -1.4142253994941711e-01</leafValues></_>
        <_>
          <internalNodes>
            0 -1 1434 1.8408678006380796e-03</internalNodes>
          <leafValues>
            -2.4309633672237396e-01 2.6639920473098755e-01</leafValues></_>
        <_>
          <internalNodes>
            0 -1 960 -1.2471476569771767e-02</internalNodes>
          <leafValues>
            -7.9732865095138550e-01 7.2733730077743530e-02</leafValues></_>
        <_>
          <internalNodes>
            0 -1 964 -8.3613279275596142e-04</internalNodes>
          <leafValues>
            2.4419514834880829e-01 -1.9858819246292114e-01</leafValues></_>
        <_>
          <internalNodes>
            0 -1 860 -1.5902016311883926e-02</internalNodes>
          <leafValues>
            -7.4975645542144775e-01 8.1496499478816986e-02</leafValues></_>
        <_>
          <internalNodes>
            0 -1 1140 4.4797370210289955e-03</internalNodes>
          <leafValues>
            4.6907301992177963e-02 -7.3881173133850098e-01</leafValues></_>
        <_>
          <internalNodes>
            0 -1 746 5.6830066023394465e-04</internalNodes>
          <leafValues>
            -1.8659088015556335e-01 2.6861006021499634e-01</leafValues></_>
        <_>
          <internalNodes>
            0 -1 716 -7.9693214502185583e-04</internalNodes>
          <leafValues>
            2.8857591748237610e-01 -1.6625404357910156e-01</leafValues></_>
        <_>
          <internalNodes>
            0 -1 1232 4.3027341598644853e-04</internalNodes>
          <leafValues>
            -1.3608929514884949e-01 3.3008143305778503e-01</leafValues></_>
        <_>
          <internalNodes>
            0 -1 1209 -3.0793718993663788e-02</internalNodes>
          <leafValues>
            -7.5282484292984009e-01 7.8108377754688263e-02</leafValues></_>
        <_>
          <internalNodes>
            0 -1 658 -5.7255337014794350e-04</internalNodes>
          <leafValues>
            2.9584065079689026e-01 -1.7578452825546265e-01</leafValues></_>
        <_>
          <internalNodes>
            0 -1 318 -2.2791814059019089e-02</internalNodes>
          <leafValues>
            3.7797573208808899e-01 -1.4078018069267273e-01</leafValues></_>
        <_>
          <internalNodes>
            0 -1 800 -5.6849792599678040e-04</internalNodes>
          <leafValues>
            2.9449984431266785e-01 -1.7739573121070862e-01</leafValues></_>
        <_>
          <internalNodes>
            0 -1 1126 -3.6549178184941411e-04</internalNodes>
          <leafValues>
            2.8502923250198364e-01 -1.6202184557914734e-01</leafValues></_>
        <_>
          <internalNodes>
            0 -1 651 -6.0182167217135429e-03</internalNodes>
          <leafValues>
            -7.5256562232971191e-01 7.7617771923542023e-02</leafValues></_>
        <_>
          <internalNodes>
            0 -1 531 -3.8762413896620274e-04</internalNodes>
          <leafValues>
            2.6159065961837769e-01 -1.8278525769710541e-01</leafValues></_>
        <_>
          <internalNodes>
            0 -1 1119 -7.7095716260373592e-03</internalNodes>
          <leafValues>
            -8.1825453042984009e-01 7.5336351990699768e-02</leafValues></_>
        <_>
          <internalNodes>
            0 -1 1100 -2.8267363086342812e-04</internalNodes>
          <leafValues>
            2.4462625384330750e-01 -2.1848471462726593e-01</leafValues></_>
        <_>
          <internalNodes>
            0 -1 225 2.0643975585699081e-02</internalNodes>
          <leafValues>
            -1.4097011089324951e-01 3.5860839486122131e-01</leafValues></_>
        <_>
          <internalNodes>
            0 -1 27 -3.3134095370769501e-02</internalNodes>
          <leafValues>
            3.4808662533760071e-01 -1.5448050200939178e-01</leafValues></_>
        <_>
          <internalNodes>
            0 -1 42 5.1847927272319794e-02</internalNodes>
          <leafValues>
            -9.0408883988857269e-02 6.3490557670593262e-01</leafValues></_>
        <_>
          <internalNodes>
            0 -1 1063 -1.0332618840038776e-03</internalNodes>
          <leafValues>
            2.9233783483505249e-01 -1.6361355781555176e-01</leafValues></_>
        <_>
          <internalNodes>
            0 -1 1197 1.2869786471128464e-02</internalNodes>
          <leafValues>
            7.5947463512420654e-02 -7.2396147251129150e-01</leafValues></_>
        <_>
          <internalNodes>
            0 -1 1212 -5.9163342230021954e-03</internalNodes>
          <leafValues>
            -7.0800620317459106e-01 5.3496029227972031e-02</leafValues></_>
        <_>
          <internalNodes>
            0 -1 1356 -8.9755642693489790e-04</internalNodes>
          <leafValues>
            2.6207152009010315e-01 -1.9249327480792999e-01</leafValues></_>
        <_>
          <internalNodes>
            0 -1 1152 -1.1963599827140570e-03</internalNodes>
          <leafValues>
            2.9853472113609314e-01 -1.6986154019832611e-01</leafValues></_></weakClassifiers></_>
    <!-- stage 3 -->
    <_>
      <maxWeakCount>33</maxWeakCount>
      <stageThreshold>-7.1841675043106079e-01</stageThreshold>
      <weakClassifiers>
        <_>
          <internalNodes>
            0 -1 255 3.3308874815702438e-02</internalNodes>
          <leafValues>
            6.3048683106899261e-02 5.2718949317932129e-01</leafValues></_>
        <_>
          <internalNodes>
            0 -1 158 -2.7321407105773687e-03</internalNodes>
          <leafValues>
            3.3686193823814392e-01 -1.5772797167301178e-01</leafValues></_>
        <_>
          <internalNodes>
            0 -1 559 -1.3948853593319654e-03</internalNodes>
          <leafValues>
            3.0164694786071777e-01 -1.5380047261714935e-01</leafValues></_>
        <_>
          <internalNodes>
            0 -1 228 -1.0439557954668999e-03</internalNodes>
          <leafValues>
            3.0436947941780090e-01 -1.9415643811225891e-01</leafValues></_>
        <_>
          <internalNodes>
            0 -1 386 -4.8713800497353077e-03</internalNodes>
          <leafValues>
            2.5359874963760376e-01 -1.7512959241867065e-01</leafValues></_>
        <_>
          <internalNodes>
            0 -1 1400 1.0699700564146042e-02</internalNodes>
          <leafValues>
            -1.6182270646095276e-01 3.1001314520835876e-01</leafValues></_>
        <_>
          <internalNodes>
            0 -1 1334 -2.0078558474779129e-02</internalNodes>
          <leafValues>
            3.8987910747528076e-01 -1.4264152944087982e-01</leafValues></_>
        <_>
          <internalNodes>
            0 -1 1108 1.0177210206165910e-03</internalNodes>
          <leafValues>
            -1.6185480356216431e-01 2.8750386834144592e-01</leafValues></_>
        <_>
          <internalNodes>
            0 -1 740 1.9369753077626228e-02</internalNodes>
          <leafValues>
            8.5420213639736176e-02 -5.8824640512466431e-01</leafValues></_>
        <_>
          <internalNodes>
            0 -1 771 -8.2029297482222319e-04</internalNodes>
          <leafValues>
            2.3962479829788208e-01 -1.9739599525928497e-01</leafValues></_>
        <_>
          <internalNodes>
            0 -1 745 1.6602080315351486e-02</internalNodes>
          <leafValues>
            5.7683560997247696e-02 -8.4727865457534790e-01</leafValues></_>
        <_>
          <internalNodes>
            0 -1 499 1.5480811707675457e-03</internalNodes>
          <leafValues>
            -1.7862100899219513e-01 2.3579083383083344e-01</leafValues></_>
        <_>
          <internalNodes>
            0 -1 788 3.2481020316481590e-03</internalNodes>
          <leafValues>
            -1.2105680257081985e-01 3.5278695821762085e-01</leafValues></_>
        <_>
          <internalNodes>
            0 -1 731 -4.3951440602540970e-02</internalNodes>
          <leafValues>
            -8.7094849348068237e-01 5.6931130588054657e-02</leafValues></_>
        <_>
          <internalNodes>
            0 -1 709 -1.4688670635223389e-03</internalNodes>
          <leafValues>
            2.3521643877029419e-01 -1.6652037203311920e-01</leafValues></_>
        <_>
          <internalNodes>
            0 -1 708 2.7366217691451311e-03</internalNodes>
          <leafValues>
            -1.4276510477066040e-01 3.4684759378433228e-01</leafValues></_>
        <_>
          <internalNodes>
            0 -1 851 6.9688983261585236e-02</internalNodes>
          <leafValues>
            5.7491250336170197e-02 -6.7043942213058472e-01</leafValues></_>
        <_>
          <internalNodes>
            0 -1 61 1.8080707639455795e-02</internalNodes>
          <leafValues>
            -1.5054556727409363e-01 2.5491639971733093e-01</leafValues></_>
        <_>
          <internalNodes>
            0 -1 1411 1.4339730143547058e-02</internalNodes>
          <leafValues>
            -1.6377367079257965e-01 2.6543819904327393e-01</leafValues></_>
        <_>
          <internalNodes>
            0 -1 891 -2.3304648697376251e-02</internalNodes>
          <leafValues>
            -8.2745450735092163e-01 4.8074688762426376e-02</leafValues></_>
        <_>
          <internalNodes>
            0 -1 634 -3.4035012125968933e-02</internalNodes>
          <leafValues>
            -8.8914686441421509e-01 3.1143378466367722e-02</leafValues></_>
        <_>
          <internalNodes>
            0 -1 1159 -2.6391304563730955e-03</internalNodes>
          <leafValues>
            1.9019965827465057e-01 -1.9324596226215363e-01</leafValues></_>
        <_>
          <internalNodes>
            0 -1 955 3.2989166211336851e-03</internalNodes>
          <leafValues>
            -1.5387189388275146e-01 2.2905807197093964e-01</leafValues></_>
        <_>
          <internalNodes>
            0 -1 1368 1.8538131844252348e-03</internalNodes>
          <leafValues>
            -1.1611907184123993e-01 3.0496478080749512e-01</leafValues></_>
        <_>
          <internalNodes>
            0 -1 1073 -3.3496320247650146e-03</internalNodes>
          <leafValues>
            2.6658806204795837e-01 -1.3125537335872650e-01</leafValues></_>
        <_>
          <internalNodes>
            0 -1 261 -1.7727485392242670e-03</internalNodes>
          <leafValues>
            2.6109507679939270e-01 -1.3961410522460938e-01</leafValues></_>
        <_>
          <internalNodes>
            0 -1 308 -8.0406351480633020e-04</internalNodes>
          <leafValues>
            2.6373946666717529e-01 -1.2747940421104431e-01</leafValues></_>
        <_>
          <internalNodes>
            0 -1 729 -1.7976449802517891e-02</internalNodes>
          <leafValues>
            -7.2348588705062866e-01 5.7926923036575317e-02</leafValues></_>
        <_>
          <internalNodes>
            0 -1 680 1.0574810206890106e-02</internalNodes>
          <leafValues>
            -9.5089174807071686e-02 4.1187024116516113e-01</leafValues></_>
        <_>
          <internalNodes>
            0 -1 424 -1.5959758311510086e-02</internalNodes>
          <leafValues>
            -7.1551233530044556e-01 5.2503105252981186e-02</leafValues></_>
        <_>
          <internalNodes>
            0 -1 1186 -1.0014849249273539e-03</internalNodes>
          <leafValues>
            2.6129060983657837e-01 -1.5172235667705536e-01</leafValues></_>
        <_>
          <internalNodes>
            0 -1 672 -3.2810186967253685e-03</internalNodes>
          <leafValues>
            3.1630900502204895e-01 -1.0687977820634842e-01</leafValues></_>
        <_>
          <internalNodes>
            0 -1 645 -2.0446027629077435e-03</internalNodes>
          <leafValues>
            2.5170910358428955e-01 -1.2772820889949799e-01</leafValues></_></weakClassifiers></_>
    <!-- stage 4 -->
    <_>
      <maxWeakCount>46</maxWeakCount>
      <stageThreshold>-8.8477289676666260e-01</stageThreshold>
      <weakClassifiers>
        <_>
          <internalNodes>
            0 -1 1130 7.4844863265752792e-03</internalNodes>
          <leafValues>
            3.9230492711067200e-01 -4.1552510857582092e-01</leafValues></_>
        <_>
          <internalNodes>
            0 -1 1123 -1.3650534674525261e-02</internalNodes>
          <leafValues>
            -6.8752974271774292e-01 1.3269791007041931e-01</leafValues></_>
        <_>
          <internalNodes>
            0 -1 154 4.8359662294387817e-02</internalNodes>
          <leafValues>
            -1.3357901573181152e-01 5.4607272148132324e-01</leafValues></_>
        <_>
          <internalNodes>
            0 -1 22 -3.9719499647617340e-02</internalNodes>
          <leafValues>
            3.2309672236442566e-01 -1.9437089562416077e-01</leafValues></_>
        <_>
          <internalNodes>
            0 -1 1381 4.8231314867734909e-03</internalNodes>
          <leafValues>
            1.2345709651708603e-01 -6.0337477922439575e-01</leafValues></_>
        <_>
          <internalNodes>
            0 -1 676 5.1798906177282333e-02</internalNodes>
          <leafValues>
            -7.6157741248607635e-02 5.6218522787094116e-01</leafValues></_>
        <_>
          <internalNodes>
            0 -1 1191 -8.6473440751433372e-03</internalNodes>
          <leafValues>
            -6.0978055000305176e-01 5.3044829517602921e-02</leafValues></_>
        <_>
          <internalNodes>
            0 -1 544 -9.1632008552551270e-03</internalNodes>
          <leafValues>
            3.5342523455619812e-01 -1.1087499558925629e-01</leafValues></_>
        <_>
          <internalNodes>
            0 -1 846 -1.3328399509191513e-03</internalNodes>
          <leafValues>
            1.5406094491481781e-01 -2.2660587728023529e-01</leafValues></_>
        <_>
          <internalNodes>
            0 -1 1025 -1.0663811117410660e-02</internalNodes>
          <leafValues>
            -8.0010849237442017e-01 4.1035283356904984e-02</leafValues></_>
        <_>
          <internalNodes>
            0 -1 622 -2.2587154060602188e-02</internalNodes>
          <leafValues>
            -7.4430042505264282e-01 4.0202837437391281e-02</leafValues></_>
        <_>
          <internalNodes>
            0 -1 1160 2.7485860045999289e-03</internalNodes>
          <leafValues>
            4.8998545855283737e-02 -5.8295965194702148e-01</leafValues></_>
        <_>
          <internalNodes>
            0 -1 478 -2.3864503949880600e-02</internalNodes>
          <leafValues>
            -7.3780733346939087e-01 4.3208900839090347e-02</leafValues></_>
        <_>
          <internalNodes>
            0 -1 721 -1.4561831019818783e-02</internalNodes>
          <leafValues>
            -6.4695215225219727e-01 4.6734120696783066e-02</leafValues></_>
        <_>
          <internalNodes>
            0 -1 20 1.2470512092113495e-01</internalNodes>
          <leafValues>
            -5.3255546838045120e-02 6.9843310117721558e-01</leafValues></_>
        <_>
          <internalNodes>
            0 -1 53 9.4540435820817947e-03</internalNodes>
          <leafValues>
            -1.8455497920513153e-01 2.0033730566501617e-01</leafValues></_>
        <_>
          <internalNodes>
            0 -1 12 -2.2452503442764282e-01</internalNodes>
          <leafValues>
            5.7309406995773315e-01 -8.1238210201263428e-02</leafValues></_>
        <_>
          <internalNodes>
            0 -1 659 1.1437323875725269e-02</internalNodes>
          <leafValues>
            5.7982768863439560e-02 -8.1551581621170044e-01</leafValues></_>
        <_>
          <internalNodes>
            0 -1 993 -3.3095650374889374e-02</internalNodes>
          <leafValues>
            -7.1799337863922119e-01 3.2946981489658356e-02</leafValues></_>
        <_>
          <internalNodes>
            0 -1 1162 -5.7174004614353180e-03</internalNodes>
          <leafValues>
            -5.5354040861129761e-01 5.3950741887092590e-02</leafValues></_>
        <_>
          <internalNodes>
            0 -1 770 -6.4846845343708992e-03</internalNodes>
          <leafValues>
            -7.7759307622909546e-01 3.3831059932708740e-02</leafValues></_>
        <_>
          <internalNodes>
            0 -1 351 5.6881387718021870e-03</internalNodes>
          <leafValues>
            -1.3333913683891296e-01 2.5186005234718323e-01</leafValues></_>
        <_>
          <internalNodes>
            0 -1 598 1.1340835131704807e-02</internalNodes>
          <leafValues>
            8.0999977886676788e-02 -4.1667506098747253e-01</leafValues></_>
        <_>
          <internalNodes>
            0 -1 1072 -2.1518351510167122e-02</internalNodes>
          <leafValues>
            -5.4581868648529053e-01 5.2389178425073624e-02</leafValues></_>
        <_>
          <internalNodes>
            0 -1 975 -6.7512709647417068e-03</internalNodes>
          <leafValues>
            -7.5160372257232666e-01 3.6313224583864212e-02</leafValues></_>
        <_>
          <internalNodes>
            0 -1 490 -1.0716081596910954e-02</internalNodes>
          <leafValues>
            -4.3604427576065063e-01 5.3890246897935867e-02</leafValues></_>
        <_>
          <internalNodes>
            0 -1 1026 -7.6844403520226479e-03</internalNodes>
          <leafValues>
            -7.5571596622467041e-01 3.6234732717275620e-02</leafValues></_>
        <_>
          <internalNodes>
            0 -1 410 -1.4445429667830467e-02</internalNodes>
          <leafValues>
            -6.8015033006668091e-01 3.4070532768964767e-02</leafValues></_>
        <_>
          <internalNodes>
            0 -1 1452 -2.3950429749675095e-04</internalNodes>
          <leafValues>
            -2.1433161199092865e-01 1.3203723728656769e-01</leafValues></_>
        <_>
          <internalNodes>
            0 -1 270 -7.1732699871063232e-02</internalNodes>
          <leafValues>
            -6.9719707965850830e-01 4.0787529200315475e-02</leafValues></_>
        <_>
          <internalNodes>
            0 -1 1225 -6.7576095461845398e-03</internalNodes>
          <leafValues>
            -4.6699815988540649e-01 5.4558787494897842e-02</leafValues></_>
        <_>
          <internalNodes>
            0 -1 1374 -6.0731265693902969e-03</internalNodes>
          <leafValues>
            -6.9607096910476685e-01 3.6457303911447525e-02</leafValues></_>
        <_>
          <internalNodes>
            0 -1 418 -2.4834950454533100e-03</internalNodes>
          <leafValues>
            2.6872122287750244e-01 -1.0951288789510727e-01</leafValues></_>
        <_>
          <internalNodes>
            0 -1 423 1.4547091908752918e-02</internalNodes>
          <leafValues>
            -1.1671680212020874e-01 2.5805690884590149e-01</leafValues></_>
        <_>
          <internalNodes>
            0 -1 43 -2.1445385937113315e-04</internalNodes>
          <leafValues>
            -2.0169720053672791e-01 1.4410217106342316e-01</leafValues></_>
        <_>
          <internalNodes>
            0 -1 350 7.7433274127542973e-03</internalNodes>
          <leafValues>
            5.4583895951509476e-02 -5.0793355703353882e-01</leafValues></_>
        <_>
          <internalNodes>
            0 -1 1428 1.7139883711934090e-03</internalNodes>
          <leafValues>
            -1.4343819022178650e-01 1.8421457707881927e-01</leafValues></_>
        <_>
          <internalNodes>
            0 -1 405 1.6501266509294510e-02</internalNodes>
          <leafValues>
            -1.2059974670410156e-01 2.4236388504505157e-01</leafValues></_>
        <_>
          <internalNodes>
            0 -1 521 -2.9675399418920279e-03</internalNodes>
          <leafValues>
            1.9332402944564819e-01 -1.5186101198196411e-01</leafValues></_>
        <_>
          <internalNodes>
            0 -1 817 -1.7060805112123489e-02</internalNodes>
          <leafValues>
            -6.4863878488540649e-01 4.5257322490215302e-02</leafValues></_>
        <_>
          <internalNodes>
            0 -1 1276 -1.1827754788100719e-03</internalNodes>
          <leafValues>
            2.3964704573154449e-01 -1.2777712941169739e-01</leafValues></_>
        <_>
          <internalNodes>
            0 -1 926 1.2652881443500519e-02</internalNodes>
          <leafValues>
            5.0140056759119034e-02 -5.4895579814910889e-01</leafValues></_>
        <_>
          <internalNodes>
            0 -1 1277 1.0084904730319977e-02</internalNodes>
          <leafValues>
            6.7622587084770203e-02 -4.0166136622428894e-01</leafValues></_>
        <_>
          <internalNodes>
            0 -1 547 -3.0950652435421944e-03</internalNodes>
          <leafValues>
            1.9775070250034332e-01 -1.3649109005928040e-01</leafValues></_>
        <_>
          <internalNodes>
            0 -1 16 -1.1208871146664023e-03</internalNodes>
          <leafValues>
            1.9867146015167236e-01 -1.3569261133670807e-01</leafValues></_>
        <_>
          <internalNodes>
            0 -1 667 -2.2848958615213633e-03</internalNodes>
          <leafValues>
            1.8518379330635071e-01 -1.6406348347663879e-01</leafValues></_></weakClassifiers></_>
    <!-- stage 5 -->
    <_>
      <maxWeakCount>48</maxWeakCount>
      <stageThreshold>-6.7490208148956299e-01</stageThreshold>
      <weakClassifiers>
        <_>
          <internalNodes>
            0 -1 525 7.1292802691459656e-02</internalNodes>
          <leafValues>
            3.6131012439727783e-01 -8.5507243871688843e-01</leafValues></_>
        <_>
          <internalNodes>
            0 -1 217 1.1955790221691132e-02</internalNodes>
          <leafValues>
            -8.4569074213504791e-02 4.2556616663932800e-01</leafValues></_>
        <_>
          <internalNodes>
            0 -1 691 -5.7470418512821198e-02</internalNodes>
          <leafValues>
            3.3665329217910767e-01 -1.1878497153520584e-01</leafValues></_>
        <_>
          <internalNodes>
            0 -1 26 -3.8655236363410950e-02</internalNodes>
          <leafValues>
            2.8705227375030518e-01 -1.6170518100261688e-01</leafValues></_>
        <_>
          <internalNodes>
            0 -1 1373 -3.1285721808671951e-02</internalNodes>
          <leafValues>
            4.2756608128547668e-01 -8.4862701594829559e-02</leafValues></_>
        <_>
          <internalNodes>
            0 -1 1433 1.6044629737734795e-03</internalNodes>
          <leafValues>
            -2.0208321511745453e-01 2.1184927225112915e-01</leafValues></_>
        <_>
          <internalNodes>
            0 -1 1031 -2.2426799405366182e-03</internalNodes>
          <leafValues>
            2.0339861512184143e-01 -1.7512032389640808e-01</leafValues></_>
        <_>
          <internalNodes>
            0 -1 377 -6.1061400920152664e-03</internalNodes>
          <leafValues>
            1.9030666351318359e-01 -1.9078628718852997e-01</leafValues></_>
        <_>
          <internalNodes>
            0 -1 213 4.0886029601097107e-02</internalNodes>
          <leafValues>
            -1.0691075772047043e-01 3.2835319638252258e-01</leafValues></_>
        <_>
          <internalNodes>
            0 -1 1043 1.2543027987703681e-03</internalNodes>
          <leafValues>
            -1.2497392296791077e-01 2.5428444147109985e-01</leafValues></_>
        <_>
          <internalNodes>
            0 -1 80 3.0259117484092712e-02</internalNodes>
          <leafValues>
            -1.0311660915613174e-01 3.0661529302597046e-01</leafValues></_>
        <_>
          <internalNodes>
            0 -1 888 -1.0370777919888496e-02</internalNodes>
          <leafValues>
            -6.2017267942428589e-01 4.9466133117675781e-02</leafValues></_>
        <_>
          <internalNodes>
            0 -1 1149 -1.8669089302420616e-02</internalNodes>
          <leafValues>
            -6.6372412443161011e-01 4.5122440904378891e-02</leafValues></_>
        <_>
          <internalNodes>
            0 -1 209 -4.0079066529870033e-03</internalNodes>
          <leafValues>
            2.4867542088031769e-01 -1.1976807564496994e-01</leafValues></_>
        <_>
          <internalNodes>
            0 -1 871 -1.6681819688528776e-03</internalNodes>
          <leafValues>
            2.2067095339298248e-01 -1.3779279589653015e-01</leafValues></_>
        <_>
          <internalNodes>
            0 -1 557 -1.9571751356124878e-02</internalNodes>
          <leafValues>
            2.0706139504909515e-01 -1.3296982645988464e-01</leafValues></_>
        <_>
          <internalNodes>
            0 -1 1113 2.7943559689447284e-04</internalNodes>
          <leafValues>
            -1.4527262747287750e-01 1.9123639166355133e-01</leafValues></_>
        <_>
          <internalNodes>
            0 -1 978 1.2340588495135307e-02</internalNodes>
          <leafValues>
            4.2790807783603668e-02 -7.4039691686630249e-01</leafValues></_>
        <_>
          <internalNodes>
            0 -1 773 -1.0050341486930847e-02</internalNodes>
          <leafValues>
            -6.9956493377685547e-01 3.4745723009109497e-02</leafValues></_>
        <_>
          <internalNodes>
            0 -1 496 -1.2389928102493286e-02</internalNodes>
          <leafValues>
            -6.7776161432266235e-01 3.8868386298418045e-02</leafValues></_>
        <_>
          <internalNodes>
            0 -1 400 7.9628603998571634e-04</internalNodes>
          <leafValues>
            -1.6972470283508301e-01 1.6648650169372559e-01</leafValues></_>
        <_>
          <internalNodes>
            0 -1 372 -4.2007388547062874e-03</internalNodes>
          <leafValues>
            -4.6523800492286682e-01 6.0885936021804810e-02</leafValues></_>
        <_>
          <internalNodes>
            0 -1 1202 7.7590969158336520e-04</internalNodes>
          <leafValues>
            -1.2441951781511307e-01 2.2637221217155457e-01</leafValues></_>
        <_>
          <internalNodes>
            0 -1 1028 -9.4622112810611725e-03</internalNodes>
          <leafValues>
            -4.9029996991157532e-01 5.5927935987710953e-02</leafValues></_>
        <_>
          <internalNodes>
            0 -1 1136 -6.0782767832279205e-04</internalNodes>
          <leafValues>
            2.3930479586124420e-01 -1.2608879804611206e-01</leafValues></_>
        <_>
          <internalNodes>
            0 -1 682 2.8455245774239302e-03</internalNodes>
          <leafValues>
            -1.2030285596847534e-01 2.4802805483341217e-01</leafValues></_>
        <_>
          <internalNodes>
            0 -1 1213 -7.8363828361034393e-03</internalNodes>
          <leafValues>
            -7.4136942625045776e-01 3.9902221411466599e-02</leafValues></_>
        <_>
          <internalNodes>
            0 -1 436 -1.9947335124015808e-02</internalNodes>
          <leafValues>
            4.1429391503334045e-01 -7.2762846946716309e-02</leafValues></_>
        <_>
          <internalNodes>
            0 -1 589 3.3164625056087971e-03</internalNodes>
          <leafValues>
            -1.0842422395944595e-01 2.4218733608722687e-01</leafValues></_>
        <_>
          <internalNodes>
            0 -1 604 -2.4389422032982111e-03</internalNodes>
          <leafValues>
            2.2681435942649841e-01 -1.4222534000873566e-01</leafValues></_>
        <_>
          <internalNodes>
            0 -1 294 -3.1714878976345062e-02</internalNodes>
          <leafValues>
            -5.9627771377563477e-01 5.4259702563285828e-02</leafValues></_>
        <_>
          <internalNodes>
            0 -1 880 -2.2319629788398743e-02</internalNodes>
          <leafValues>
            -6.5071398019790649e-01 4.1065324097871780e-02</leafValues></_>
        <_>
          <internalNodes>
            0 -1 1295 -8.9650426525622606e-04</internalNodes>
          <leafValues>
            2.1105001866817474e-01 -1.2737837433815002e-01</leafValues></_>
        <_>
          <internalNodes>
            0 -1 1442 2.0074094645678997e-03</internalNodes>
          <leafValues>
            -1.3657833635807037e-01 1.8851222097873688e-01</leafValues></_>
        <_>
          <internalNodes>
            0 -1 1402 -2.4485081434249878e-02</internalNodes>
          <leafValues>
            3.3980134129524231e-01 -8.8865250349044800e-02</leafValues></_>
        <_>
          <internalNodes>
            0 -1 1405 7.2599406121298671e-04</internalNodes>
          <leafValues>
            -1.3314139842987061e-01 2.2574807703495026e-01</leafValues></_>
        <_>
          <internalNodes>
            0 -1 642 3.5710183437913656e-03</internalNodes>
          <leafValues>
            4.6216696500778198e-02 -5.8401650190353394e-01</leafValues></_>
        <_>
          <internalNodes>
            0 -1 704 4.4732613605447114e-04</internalNodes>
          <leafValues>
            -1.4072349667549133e-01 1.9299684464931488e-01</leafValues></_>
        <_>
          <internalNodes>
            0 -1 515 7.3943711817264557e-02</internalNodes>
          <leafValues>
            3.1831271946430206e-02 -8.7264937162399292e-01</leafValues></_>
        <_>
          <internalNodes>
            0 -1 171 1.8688721582293510e-02</internalNodes>
          <leafValues>
            -1.1863808333873749e-01 2.2572122514247894e-01</leafValues></_>
        <_>
          <internalNodes>
            0 -1 603 2.1089255809783936e-02</internalNodes>
          <leafValues>
            3.2858092337846756e-02 -7.5574487447738647e-01</leafValues></_>
        <_>
          <internalNodes>
            0 -1 1418 5.4268731037154794e-04</internalNodes>
          <leafValues>
            -1.2188923358917236e-01 1.9916316866874695e-01</leafValues></_>
        <_>
          <internalNodes>
            0 -1 201 -5.1694400608539581e-02</internalNodes>
          <leafValues>
            1.9671078026294708e-01 -1.2958678603172302e-01</leafValues></_>
        <_>
          <internalNodes>
            0 -1 677 6.2718512490391731e-03</internalNodes>
          <leafValues>
            -8.4163300693035126e-02 3.0394718050956726e-01</leafValues></_>
        <_>
          <internalNodes>
            0 -1 899 2.5918763130903244e-02</internalNodes>
          <leafValues>
            3.8609784096479416e-02 -6.2975835800170898e-01</leafValues></_>
        <_>
          <internalNodes>
            0 -1 866 -7.6481339056044817e-04</internalNodes>
          <leafValues>
            2.6498675346374512e-01 -1.0814605653285980e-01</leafValues></_>
        <_>
          <internalNodes>
            0 -1 1255 -3.2789231045171618e-04</internalNodes>
          <leafValues>
            1.8401840329170227e-01 -1.3745380938053131e-01</leafValues></_>
        <_>
          <internalNodes>
            0 -1 1292 1.2304663658142090e-02</internalNodes>
          <leafValues>
            3.1251922249794006e-02 -8.9489102363586426e-01</leafValues></_></weakClassifiers></_>
    <!-- stage 6 -->
    <_>
      <maxWeakCount>34</maxWeakCount>
      <stageThreshold>-7.5816178321838379e-01</stageThreshold>
      <weakClassifiers>
        <_>
          <internalNodes>
            0 -1 810 1.0292444378137589e-02</internalNodes>
          <leafValues>
            1.9889247417449951e-01 6.8307322263717651e-01</leafValues></_>
        <_>
          <internalNodes>
            0 -1 885 1.1824094690382481e-03</internalNodes>
          <leafValues>
            -1.1877103149890900e-01 4.1407766938209534e-01</leafValues></_>
        <_>
          <internalNodes>
            0 -1 893 -1.5124115161597729e-03</internalNodes>
          <leafValues>
            3.5975787043571472e-01 -1.9709309935569763e-01</leafValues></_>
        <_>
          <internalNodes>
            0 -1 1003 9.6599076641723514e-04</internalNodes>
          <leafValues>
            -2.0372332632541656e-01 3.4843000769615173e-01</leafValues></_>
        <_>
          <internalNodes>
            0 -1 674 6.2717422842979431e-02</internalNodes>
          <leafValues>
            1.1353771388530731e-01 -4.5153820514678955e-01</leafValues></_>
        <_>
          <internalNodes>
            0 -1 430 -8.0215383786708117e-04</internalNodes>
          <leafValues>
            3.0295029282569885e-01 -1.3491967320442200e-01</leafValues></_>
        <_>
          <internalNodes>
            0 -1 1003 -6.0313788708299398e-04</internalNodes>
          <leafValues>
            2.8684592247009277e-01 -1.6474354267120361e-01</leafValues></_>
        <_>
          <internalNodes>
            0 -1 849 -1.2804602272808552e-02</internalNodes>
          <leafValues>
            -5.0733006000518799e-01 1.0894304513931274e-01</leafValues></_>
        <_>
          <internalNodes>
            0 -1 1139 -1.2471281224861741e-03</internalNodes>
          <leafValues>
            3.1257307529449463e-01 -1.5288428962230682e-01</leafValues></_>
        <_>
          <internalNodes>
            0 -1 181 -6.5116118639707565e-03</internalNodes>
          <leafValues>
            4.4626325368881226e-01 -6.6586382687091827e-02</leafValues></_>
        <_>
          <internalNodes>
            0 -1 988 -1.2811769265681505e-03</internalNodes>
          <leafValues>
            3.4376198053359985e-01 -1.1275957524776459e-01</leafValues></_>
        <_>
          <internalNodes>
            0 -1 1075 2.8778115287423134e-02</internalNodes>
          <leafValues>
            7.2061739861965179e-02 -6.3064748048782349e-01</leafValues></_>
        <_>
          <internalNodes>
            0 -1 1001 -5.1656423602253199e-04</internalNodes>
          <leafValues>
            2.4739445745944977e-01 -1.6051760315895081e-01</leafValues></_>
        <_>
          <internalNodes>
            0 -1 878 -2.4992611259222031e-02</internalNodes>
          <leafValues>
            -5.7784163951873779e-01 7.9871237277984619e-02</leafValues></_>
        <_>
          <internalNodes>
            0 -1 1204 -7.4629462324082851e-04</internalNodes>
          <leafValues>
            2.6627951860427856e-01 -1.6137698292732239e-01</leafValues></_>
        <_>
          <internalNodes>
            0 -1 678 -3.4946191590279341e-03</internalNodes>
          <leafValues>
            2.4846963584423065e-01 -1.4784249663352966e-01</leafValues></_>
        <_>
          <internalNodes>
            0 -1 806 1.3467494398355484e-02</internalNodes>
          <leafValues>
            -9.1337241232395172e-02 4.5416760444641113e-01</leafValues></_>
        <_>
          <internalNodes>
            0 -1 997 -4.4431652873754501e-02</internalNodes>
          <leafValues>
            -7.8321814537048340e-01 5.9931110590696335e-02</leafValues></_>
        <_>
          <internalNodes>
            0 -1 1036 -9.9880283232778311e-04</internalNodes>
          <leafValues>
            2.4436601996421814e-01 -1.6375198960304260e-01</leafValues></_>
        <_>
          <internalNodes>
            0 -1 1022 -9.0242398437112570e-04</internalNodes>
          <leafValues>
            2.7214241027832031e-01 -1.3766412436962128e-01</leafValues></_>
        <_>
          <internalNodes>
            0 -1 323 4.6481110155582428e-02</internalNodes>
          <leafValues>
            -1.8363334238529205e-01 2.3781730234622955e-01</leafValues></_>
        <_>
          <internalNodes>
            0 -1 1028 -1.1556707322597504e-02</internalNodes>
          <leafValues>
            -7.1218913793563843e-01 3.5066660493612289e-02</leafValues></_>
        <_>
          <internalNodes>
            0 -1 1117 -7.4153696186840534e-04</internalNodes>
          <leafValues>
            2.4095736443996429e-01 -1.4886704087257385e-01</leafValues></_>
        <_>
          <internalNodes>
            0 -1 1217 -1.2057527899742126e-02</internalNodes>
          <leafValues>
            -6.5868967771530151e-01 7.0307232439517975e-02</leafValues></_>
        <_>
          <internalNodes>
            0 -1 492 -1.8801535479724407e-03</internalNodes>
          <leafValues>
            2.4336364865303040e-01 -1.5410269796848297e-01</leafValues></_>
        <_>
          <internalNodes>
            0 -1 869 -8.3932100096717477e-04</internalNodes>
          <leafValues>
            2.6872721314430237e-01 -1.3723143935203552e-01</leafValues></_>
        <_>
          <internalNodes>
            0 -1 763 -3.6869682371616364e-02</internalNodes>
          <leafValues>
            -7.3715960979461670e-01 4.9759637564420700e-02</leafValues></_>
        <_>
          <internalNodes>
            0 -1 840 -1.6770677641034126e-02</internalNodes>
          <leafValues>
            -4.9785572290420532e-01 5.7932049036026001e-02</leafValues></_>
        <_>
          <internalNodes>
            0 -1 1413 -2.0670960657298565e-03</internalNodes>
          <leafValues>
            1.9329726696014404e-01 -1.8013650178909302e-01</leafValues></_>
        <_>
          <internalNodes>
            0 -1 777 5.4485863074660301e-03</internalNodes>
          <leafValues>
            -9.7296550869941711e-02 3.3671745657920837e-01</leafValues></_>
        <_>
          <internalNodes>
            0 -1 824 3.1170103698968887e-02</internalNodes>
          <leafValues>
            -7.3905244469642639e-02 4.2254510521888733e-01</leafValues></_>
        <_>
          <internalNodes>
            0 -1 626 -9.9388882517814636e-03</internalNodes>
          <leafValues>
            -7.5463479757308960e-01 4.6095043420791626e-02</leafValues></_>
        <_>
          <internalNodes>
            0 -1 744 3.3507961779832840e-02</internalNodes>
          <leafValues>
            -9.8452888429164886e-02 3.5621589422225952e-01</leafValues></_>
        <_>
          <internalNodes>
            0 -1 1345 -1.2277431786060333e-02</internalNodes>
          <leafValues>
            2.7787503600120544e-01 -1.2265011668205261e-01</leafValues></_></weakClassifiers></_>
    <!-- stage 7 -->
    <_>
      <maxWeakCount>49</maxWeakCount>
      <stageThreshold>-6.4648717641830444e-01</stageThreshold>
      <weakClassifiers>
        <_>
          <internalNodes>
            0 -1 211 2.3294933140277863e-02</internalNodes>
          <leafValues>
            2.0945626497268677e-01 6.2937855720520020e-01</leafValues></_>
        <_>
          <internalNodes>
            0 -1 895 -2.5209200102835894e-03</internalNodes>
          <leafValues>
            2.3953507840633392e-01 -1.7066937685012817e-01</leafValues></_>
        <_>
          <internalNodes>
            0 -1 669 -3.4412343520671129e-03</internalNodes>
          <leafValues>
            2.9099375009536743e-01 -1.1736541241407394e-01</leafValues></_>
        <_>
          <internalNodes>
            0 -1 733 -4.3207876384258270e-02</internalNodes>
          <leafValues>
            -5.6097030639648438e-01 3.5748004913330078e-02</leafValues></_>
        <_>
          <internalNodes>
            0 -1 543 -3.4052631817758083e-03</internalNodes>
          <leafValues>
            2.3484660685062408e-01 -1.2332101166248322e-01</leafValues></_>
        <_>
          <internalNodes>
            0 -1 1372 -1.9681794568896294e-02</internalNodes>
          <leafValues>
            2.8862559795379639e-01 -1.1682373285293579e-01</leafValues></_>
        <_>
          <internalNodes>
            0 -1 1352 1.4551082625985146e-02</internalNodes>
          <leafValues>
            -1.4810611307621002e-01 2.8065821528434753e-01</leafValues></_>
        <_>
          <internalNodes>
            0 -1 87 -3.5354830324649811e-03</internalNodes>
          <leafValues>
            2.7860403060913086e-01 -1.0211294889450073e-01</leafValues></_>
        <_>
          <internalNodes>
            0 -1 60 4.5794755220413208e-02</internalNodes>
          <leafValues>
            -6.2020882964134216e-02 4.6928459405899048e-01</leafValues></_>
        <_>
          <internalNodes>
            0 -1 157 -4.8176251584663987e-04</internalNodes>
          <leafValues>
            1.7558524012565613e-01 -1.5428845584392548e-01</leafValues></_>
        <_>
          <internalNodes>
            0 -1 1439 -7.6741538941860199e-03</internalNodes>
          <leafValues>
            3.1292775273323059e-01 -8.8872872292995453e-02</leafValues></_>
        <_>
          <internalNodes>
            0 -1 1138 -4.5530386269092560e-03</internalNodes>
          <leafValues>
            -7.1120691299438477e-01 4.0399771183729172e-02</leafValues></_>
        <_>
          <internalNodes>
            0 -1 882 4.0011379867792130e-02</internalNodes>
          <leafValues>
            3.1223282217979431e-02 -8.3308702707290649e-01</leafValues></_>
        <_>
          <internalNodes>
            0 -1 743 -3.7374518811702728e-02</internalNodes>
          <leafValues>
            -8.2187783718109131e-01 2.8596619144082069e-02</leafValues></_>
        <_>
          <internalNodes>
            0 -1 263 -5.1402123644948006e-03</internalNodes>
          <leafValues>
            1.7788340151309967e-01 -1.5489998459815979e-01</leafValues></_>
        <_>
          <internalNodes>
            0 -1 1035 2.5796820409595966e-03</internalNodes>
          <leafValues>
            6.0949001461267471e-02 -4.1967242956161499e-01</leafValues></_>
        <_>
          <internalNodes>
            0 -1 1342 -2.1126666106283665e-03</internalNodes>
          <leafValues>
            1.7469230294227600e-01 -1.5473014116287231e-01</leafValues></_>
        <_>
          <internalNodes>
            0 -1 1046 2.5770061183720827e-03</internalNodes>
          <leafValues>
            -1.2617103755474091e-01 2.0477896928787231e-01</leafValues></_>
        <_>
          <internalNodes>
            0 -1 1045 -2.6062468532472849e-03</internalNodes>
          <leafValues>
            3.1265649199485779e-01 -9.8209947347640991e-02</leafValues></_>
        <_>
          <internalNodes>
            0 -1 771 -1.2966492213308811e-03</internalNodes>
          <leafValues>
            2.1075883507728577e-01 -1.3129219412803650e-01</leafValues></_>
        <_>
          <internalNodes>
            0 -1 396 -2.9538851231336594e-03</internalNodes>
          <leafValues>
            2.2811800241470337e-01 -1.1953464150428772e-01</leafValues></_>
        <_>
          <internalNodes>
            0 -1 264 2.0477451384067535e-02</internalNodes>
          <leafValues>
            -9.5798216760158539e-02 2.8800463676452637e-01</leafValues></_>
        <_>
          <internalNodes>
            0 -1 437 1.9761331379413605e-02</internalNodes>
          <leafValues>
            -8.3070658147335052e-02 3.4033554792404175e-01</leafValues></_>
        <_>
          <internalNodes>
            0 -1 967 -8.7175285443663597e-04</internalNodes>
          <leafValues>
            1.8522149324417114e-01 -1.6776639223098755e-01</leafValues></_>
        <_>
          <internalNodes>
            0 -1 791 5.0695287063717842e-03</internalNodes>
          <leafValues>
            4.3067421764135361e-02 -5.6501936912536621e-01</leafValues></_>
        <_>
          <internalNodes>
            0 -1 1207 -2.5441324338316917e-02</internalNodes>
          <leafValues>
            -7.0739936828613281e-01 3.1601198017597198e-02</leafValues></_>
        <_>
          <internalNodes>
            0 -1 1445 -1.1897085234522820e-02</internalNodes>
          <leafValues>
            4.4439959526062012e-01 -5.5853385478258133e-02</leafValues></_>
        <_>
          <internalNodes>
            0 -1 750 -1.1600872501730919e-02</internalNodes>
          <leafValues>
            -5.2166807651519775e-01 4.6999905258417130e-02</leafValues></_>
        <_>
          <internalNodes>
            0 -1 1153 1.3515970204025507e-03</internalNodes>
          <leafValues>
            -1.1923892050981522e-01 2.0772898197174072e-01</leafValues></_>
        <_>
          <internalNodes>
            0 -1 1302 -7.4486364610493183e-04</internalNodes>
          <leafValues>
            2.2360725700855255e-01 -1.1088638752698898e-01</leafValues></_>
        <_>
          <internalNodes>
            0 -1 796 1.6347754746675491e-02</internalNodes>
          <leafValues>
            3.5492449998855591e-02 -7.6593649387359619e-01</leafValues></_>
        <_>
          <internalNodes>
            0 -1 989 4.0527703240513802e-03</internalNodes>
          <leafValues>
            2.8505664318799973e-02 -7.0029288530349731e-01</leafValues></_>
        <_>
          <internalNodes>
            0 -1 549 -2.6905312552116811e-04</internalNodes>
          <leafValues>
            1.8393576145172119e-01 -1.4134429395198822e-01</leafValues></_>
        <_>
          <internalNodes>
            0 -1 1015 1.6121016815304756e-03</internalNodes>
          <leafValues>
            -9.5584966242313385e-02 2.4906027317047119e-01</leafValues></_>
        <_>
          <internalNodes>
            0 -1 1016 -1.8045380711555481e-03</internalNodes>
          <leafValues>
            2.8093063831329346e-01 -1.3252377510070801e-01</leafValues></_>
        <_>
          <internalNodes>
            0 -1 1116 3.4483117051422596e-03</internalNodes>
          <leafValues>
            4.8910573124885559e-02 -6.6078430414199829e-01</leafValues></_>
        <_>
          <internalNodes>
            0 -1 908 -9.2698726803064346e-04</internalNodes>
          <leafValues>
            1.6775240004062653e-01 -1.4870488643646240e-01</leafValues></_>
        <_>
          <internalNodes>
            0 -1 984 -4.1520677506923676e-02</internalNodes>
          <leafValues>
            -7.9828935861587524e-01 3.4796025604009628e-02</leafValues></_>
        <_>
          <internalNodes>
            0 -1 834 3.7718960084021091e-03</internalNodes>
          <leafValues>
            -1.1252935975790024e-01 2.3757185041904449e-01</leafValues></_>
        <_>
          <internalNodes>
            0 -1 137 2.6649124920368195e-02</internalNodes>
          <leafValues>
            -8.5053749382495880e-02 3.0782869458198547e-01</leafValues></_>
        <_>
          <internalNodes>
            0 -1 1038 -8.0372290685772896e-03</internalNodes>
          <leafValues>
            2.2340454161167145e-01 -1.1177428811788559e-01</leafValues></_>
        <_>
          <internalNodes>
            0 -1 1304 -1.8117905128747225e-03</internalNodes>
          <leafValues>
            1.6571426391601562e-01 -1.5723997354507446e-01</leafValues></_>
        <_>
          <internalNodes>
            0 -1 204 -1.3186128344386816e-03</internalNodes>
          <leafValues>
            1.8658879399299622e-01 -1.3603253662586212e-01</leafValues></_>
        <_>
          <internalNodes>
            0 -1 131 4.1203346103429794e-02</internalNodes>
          <leafValues>
            -7.0207007229328156e-02 4.6918451786041260e-01</leafValues></_>
        <_>
          <internalNodes>
            0 -1 1453 1.2502339668571949e-03</internalNodes>
          <leafValues>
            -1.3345478475093842e-01 1.9990135729312897e-01</leafValues></_>
        <_>
          <internalNodes>
            0 -1 110 4.3337939132470638e-05</internalNodes>
          <leafValues>
            1.4621683955192566e-01 -1.7665785551071167e-01</leafValues></_>
        <_>
          <internalNodes>
            0 -1 177 2.5727511383593082e-03</internalNodes>
          <leafValues>
            -1.1673229187726974e-01 2.2989460825920105e-01</leafValues></_>
        <_>
          <internalNodes>
            0 -1 1005 -1.0777080431580544e-02</internalNodes>
          <leafValues>
            -7.6654624938964844e-01 3.3832263201475143e-02</leafValues></_>
        <_>
          <internalNodes>
            0 -1 868 5.0747105851769447e-03</internalNodes>
          <leafValues>
            2.3315355181694031e-02 -8.2754564285278320e-01</leafValues></_></weakClassifiers></_>
    <!-- stage 8 -->
    <_>
      <maxWeakCount>51</maxWeakCount>
      <stageThreshold>-6.8355417251586914e-01</stageThreshold>
      <weakClassifiers>
        <_>
          <internalNodes>
            0 -1 1280 -4.0753814391791821e-03</internalNodes>
          <leafValues>
            -5.9322035312652588e-01 3.7126994132995605e-01</leafValues></_>
        <_>
          <internalNodes>
            0 -1 47 9.1876491904258728e-02</internalNodes>
          <leafValues>
            -5.2170321345329285e-02 5.4419606924057007e-01</leafValues></_>
        <_>
          <internalNodes>
            0 -1 180 -4.0094383060932159e-02</internalNodes>
          <leafValues>
            2.4814826250076294e-01 -1.3382889330387115e-01</leafValues></_>
        <_>
          <internalNodes>
            0 -1 406 4.1646938771009445e-03</internalNodes>
          <leafValues>
            1.3445461168885231e-02 -7.6723021268844604e-01</leafValues></_>
        <_>
          <internalNodes>
            0 -1 1047 3.5579358227550983e-03</internalNodes>
          <leafValues>
            4.1551001369953156e-02 -6.3777059316635132e-01</leafValues></_>
        <_>
          <internalNodes>
            0 -1 1017 -2.8217900544404984e-03</internalNodes>
          <leafValues>
            1.6423103213310242e-01 -1.8434421718120575e-01</leafValues></_>
        <_>
          <internalNodes>
            0 -1 754 -3.0880428384989500e-03</internalNodes>
          <leafValues>
            2.0721000432968140e-01 -1.5481308102607727e-01</leafValues></_>
        <_>
          <internalNodes>
            0 -1 601 -4.1020773351192474e-02</internalNodes>
          <leafValues>
            -6.6982692480087280e-01 5.6191265583038330e-02</leafValues></_>
        <_>
          <internalNodes>
            0 -1 1094 1.7724127974361181e-03</internalNodes>
          <leafValues>
            -1.9629018008708954e-01 1.5009024739265442e-01</leafValues></_>
        <_>
          <internalNodes>
            0 -1 912 -5.1137967966496944e-03</internalNodes>
          <leafValues>
            -6.5365266799926758e-01 4.9159787595272064e-02</leafValues></_>
        <_>
          <internalNodes>
            0 -1 1284 -3.9525777101516724e-03</internalNodes>
          <leafValues>
            -6.4192837476730347e-01 4.4041477143764496e-02</leafValues></_>
        <_>
          <internalNodes>
            0 -1 985 -4.8171434900723398e-04</internalNodes>
          <leafValues>
            1.9658212363719940e-01 -1.3820995390415192e-01</leafValues></_>
        <_>
          <internalNodes>
            0 -1 1120 5.9392512775957584e-03</internalNodes>
          <leafValues>
            4.2811267077922821e-02 -6.8539518117904663e-01</leafValues></_>
        <_>
          <internalNodes>
            0 -1 855 -1.9096042960882187e-03</internalNodes>
          <leafValues>
            2.6084378361701965e-01 -1.1111321300268173e-01</leafValues></_>
        <_>
          <internalNodes>
            0 -1 1288 8.0993454903364182e-03</internalNodes>
          <leafValues>
            4.0201798081398010e-02 -7.0010346174240112e-01</leafValues></_>
        <_>
          <internalNodes>
            0 -1 1217 -1.1562703177332878e-02</internalNodes>
          <leafValues>
            -5.4152303934097290e-01 4.1759487241506577e-02</leafValues></_>
        <_>
          <internalNodes>
            0 -1 1114 -5.9590511955320835e-04</internalNodes>
          <leafValues>
            2.1145832538604736e-01 -1.2486429512500763e-01</leafValues></_>
        <_>
          <internalNodes>
            0 -1 495 -4.7790138050913811e-03</internalNodes>
          <leafValues>
            -6.3750284910202026e-01 3.5268906503915787e-02</leafValues></_>
        <_>
          <internalNodes>
            0 -1 681 4.3974481523036957e-02</internalNodes>
          <leafValues>
            -8.8133260607719421e-02 2.9026278853416443e-01</leafValues></_>
        <_>
          <internalNodes>
            0 -1 820 3.2365709543228149e-02</internalNodes>
          <leafValues>
            -8.4710434079170227e-02 3.3610296249389648e-01</leafValues></_>
        <_>
          <internalNodes>
            0 -1 572 1.2136461213231087e-02</internalNodes>
          <leafValues>
            -1.2608814239501953e-01 2.1766746044158936e-01</leafValues></_>
        <_>
          <internalNodes>
            0 -1 646 -1.1665830388665199e-03</internalNodes>
          <leafValues>
            1.9452591240406036e-01 -1.2923274934291840e-01</leafValues></_>
        <_>
          <internalNodes>
            0 -1 703 -2.3214688524603844e-02</internalNodes>
          <leafValues>
            3.1246191263198853e-01 -8.7108239531517029e-02</leafValues></_>
        <_>
          <internalNodes>
            0 -1 1112 1.2851887382566929e-02</internalNodes>
          <leafValues>
            3.3440295606851578e-02 -8.2943344116210938e-01</leafValues></_>
        <_>
          <internalNodes>
            0 -1 1330 -3.8548861630260944e-04</internalNodes>
          <leafValues>
            1.9962097704410553e-01 -1.3780933618545532e-01</leafValues></_>
        <_>
          <internalNodes>
            0 -1 1330 4.4417864410206676e-04</internalNodes>
          <leafValues>
            -1.2528076767921448e-01 2.1397031843662262e-01</leafValues></_>
        <_>
          <internalNodes>
            0 -1 573 -4.6637025661766529e-03</internalNodes>
          <leafValues>
            -7.0856326818466187e-01 4.2802922427654266e-02</leafValues></_>
        <_>
          <internalNodes>
            0 -1 944 -1.1551436036825180e-03</internalNodes>
          <leafValues>
            1.9628654420375824e-01 -1.4061102271080017e-01</leafValues></_>
        <_>
          <internalNodes>
            0 -1 642 -3.4448252990841866e-03</internalNodes>
          <leafValues>
            -5.3103315830230713e-01 4.9585446715354919e-02</leafValues></_>
        <_>
          <internalNodes>
            0 -1 1140 -4.7122808173298836e-03</internalNodes>
          <leafValues>
            -5.6881368160247803e-01 4.4936504215002060e-02</leafValues></_>
        <_>
          <internalNodes>
            0 -1 1135 1.0496438480913639e-02</internalNodes>
          <leafValues>
            2.5054704397916794e-02 -8.4704077243804932e-01</leafValues></_>
        <_>
          <internalNodes>
            0 -1 419 -2.3759934119880199e-03</internalNodes>
          <leafValues>
            2.2033239901065826e-01 -1.1115211993455887e-01</leafValues></_>
        <_>
          <internalNodes>
            0 -1 178 -1.6318522393703461e-02</internalNodes>
          <leafValues>
            2.7354562282562256e-01 -1.2305479496717453e-01</leafValues></_>
        <_>
          <internalNodes>
            0 -1 1251 1.9009865354746580e-03</internalNodes>
          <leafValues>
            -1.0707295686006546e-01 2.2744181752204895e-01</leafValues></_>
        <_>
          <internalNodes>
            0 -1 839 -1.5712544322013855e-02</internalNodes>
          <leafValues>
            -7.6580095291137695e-01 3.2391685992479324e-02</leafValues></_>
        <_>
          <internalNodes>
            0 -1 1344 3.9579314179718494e-03</internalNodes>
          <leafValues>
            3.4733444452285767e-02 -5.6953895092010498e-01</leafValues></_>
        <_>
          <internalNodes>
            0 -1 291 6.1166528612375259e-03</internalNodes>
          <leafValues>
            4.2776525020599365e-02 -5.3947860002517700e-01</leafValues></_>
        <_>
          <internalNodes>
            0 -1 1136 -4.7869523405097425e-04</internalNodes>
          <leafValues>
            2.0181770622730255e-01 -1.1784814298152924e-01</leafValues></_>
        <_>
          <internalNodes>
            0 -1 1226 1.5285059344023466e-03</internalNodes>
          <leafValues>
            -9.4408899545669556e-02 2.6800420880317688e-01</leafValues></_>
        <_>
          <internalNodes>
            0 -1 865 -7.6977431308478117e-04</internalNodes>
          <leafValues>
            2.2679960727691650e-01 -1.0445625334978104e-01</leafValues></_>
        <_>
          <internalNodes>
            0 -1 1219 -2.7951627969741821e-02</internalNodes>
          <leafValues>
            2.7859210968017578e-01 -9.6645325422286987e-02</leafValues></_>
        <_>
          <internalNodes>
            0 -1 717 2.4251053109765053e-02</internalNodes>
          <leafValues>
            3.6363437771797180e-02 -6.9595330953598022e-01</leafValues></_>
        <_>
          <internalNodes>
            0 -1 516 -6.5158365759998560e-04</internalNodes>
          <leafValues>
            2.0056819915771484e-01 -1.2797160446643829e-01</leafValues></_>
        <_>
          <internalNodes>
            0 -1 918 -8.1769013777375221e-03</internalNodes>
          <leafValues>
            -8.1377762556076050e-01 3.3887345343828201e-02</leafValues></_>
        <_>
          <internalNodes>
            0 -1 1007 -1.3704787706956267e-03</internalNodes>
          <leafValues>
            2.4582089483737946e-01 -1.0453552752733231e-01</leafValues></_>
        <_>
          <internalNodes>
            0 -1 1118 -1.0472877882421017e-02</internalNodes>
          <leafValues>
            -5.9434318542480469e-01 5.5739104747772217e-02</leafValues></_>
        <_>
          <internalNodes>
            0 -1 988 -7.5007323175668716e-04</internalNodes>
          <leafValues>
            2.0843470096588135e-01 -1.2330663949251175e-01</leafValues></_>
        <_>
          <internalNodes>
            0 -1 751 8.5874565411359072e-04</internalNodes>
          <leafValues>
            -1.2117206305265427e-01 2.2107096016407013e-01</leafValues></_>
        <_>
          <internalNodes>
            0 -1 886 3.5823159851133823e-03</internalNodes>
          <leafValues>
            4.1184935718774796e-02 -6.1033135652542114e-01</leafValues></_>
        <_>
          <internalNodes>
            0 -1 1227 4.7531239688396454e-03</internalNodes>
          <leafValues>
            9.3084871768951416e-02 -2.7483221888542175e-01</leafValues></_>
        <_>
          <internalNodes>
            0 -1 1438 5.7856278726831079e-04</internalNodes>
          <leafValues>
            -1.4785617589950562e-01 1.6069926321506500e-01</leafValues></_></weakClassifiers></_>
    <!-- stage 9 -->
    <_>
      <maxWeakCount>60</maxWeakCount>
      <stageThreshold>-7.2710752487182617e-01</stageThreshold>
      <weakClassifiers>
        <_>
          <internalNodes>
            0 -1 1109 -2.5217950344085693e-02</internalNodes>
          <leafValues>
            -6.5714287757873535e-01 3.5699659585952759e-01</leafValues></_>
        <_>
          <internalNodes>
            0 -1 895 -9.9985313136130571e-04</internalNodes>
          <leafValues>
            1.7636094987392426e-01 -1.9092041254043579e-01</leafValues></_>
        <_>
          <internalNodes>
            0 -1 628 -1.2015318498015404e-03</internalNodes>
          <leafValues>
            1.7872481048107147e-01 -1.7854195833206177e-01</leafValues></_>
        <_>
          <internalNodes>
            0 -1 671 -8.3839278668165207e-03</internalNodes>
          <leafValues>
            2.9393100738525391e-01 -1.0390742123126984e-01</leafValues></_>
        <_>
          <internalNodes>
            0 -1 509 -3.1966222450137138e-03</internalNodes>
          <leafValues>
            2.1212133765220642e-01 -1.6428683698177338e-01</leafValues></_>
        <_>
          <internalNodes>
            0 -1 762 -1.3473513536155224e-03</internalNodes>
          <leafValues>
            2.2696931660175323e-01 -1.2549722194671631e-01</leafValues></_>
        <_>
          <internalNodes>
            0 -1 937 -2.2186348214745522e-03</internalNodes>
          <leafValues>
            1.8625126779079437e-01 -1.4616052806377411e-01</leafValues></_>
        <_>
          <internalNodes>
            0 -1 812 -1.1071774642914534e-03</internalNodes>
          <leafValues>
            2.3978778719902039e-01 -1.1390838027000427e-01</leafValues></_>
        <_>
          <internalNodes>
            0 -1 917 -7.0754927583038807e-04</internalNodes>
          <leafValues>
            2.5033518671989441e-01 -9.8274812102317810e-02</leafValues></_>
        <_>
          <internalNodes>
            0 -1 786 9.9744030740112066e-04</internalNodes>
          <leafValues>
            -1.6077376902103424e-01 1.7458094656467438e-01</leafValues></_>
        <_>
          <internalNodes>
            0 -1 212 -6.7666590213775635e-02</internalNodes>
          <leafValues>
            -7.6260274648666382e-01 4.4201098382472992e-02</leafValues></_>
        <_>
          <internalNodes>
            0 -1 1241 5.1703036297112703e-04</internalNodes>
          <leafValues>
            -1.3129481673240662e-01 1.9940741360187531e-01</leafValues></_>
        <_>
          <internalNodes>
            0 -1 1191 1.5868085902184248e-03</internalNodes>
          <leafValues>
            -1.6144074499607086e-01 1.7624142765998840e-01</leafValues></_>
        <_>
          <internalNodes>
            0 -1 1215 1.3661835342645645e-02</internalNodes>
          <leafValues>
            3.8169845938682556e-02 -7.2492337226867676e-01</leafValues></_>
        <_>
          <internalNodes>
            0 -1 896 -2.7854025363922119e-02</internalNodes>
          <leafValues>
            -7.2135758399963379e-01 3.2170291990041733e-02</leafValues></_>
        <_>
          <internalNodes>
            0 -1 636 -4.0044076740741730e-02</internalNodes>
          <leafValues>
            -7.9422533512115479e-01 2.5779085233807564e-02</leafValues></_>
        <_>
          <internalNodes>
            0 -1 1002 -5.5971601977944374e-04</internalNodes>
          <leafValues>
            2.2255635261535645e-01 -1.1727122217416763e-01</leafValues></_>
        <_>
          <internalNodes>
            0 -1 988 -6.9009407889097929e-04</internalNodes>
          <leafValues>
            2.6268333196640015e-01 -1.4320322871208191e-01</leafValues></_>
        <_>
          <internalNodes>
            0 -1 990 2.0808666013181210e-03</internalNodes>
          <leafValues>
            -1.0831596702337265e-01 2.2726429998874664e-01</leafValues></_>
        <_>
          <internalNodes>
            0 -1 970 2.2353898733854294e-02</internalNodes>
          <leafValues>
            6.0293126851320267e-02 -5.2786493301391602e-01</leafValues></_>
        <_>
          <internalNodes>
            0 -1 373 6.5135967452079058e-04</internalNodes>
          <leafValues>
            -1.7862832546234131e-01 1.4366264641284943e-01</leafValues></_>
        <_>
          <internalNodes>
            0 -1 968 -1.8269620835781097e-02</internalNodes>
          <leafValues>
            -6.8762993812561035e-01 3.3208571374416351e-02</leafValues></_>
        <_>
          <internalNodes>
            0 -1 1115 -6.6584744490683079e-04</internalNodes>
          <leafValues>
            2.3082654178142548e-01 -1.1426071077585220e-01</leafValues></_>
        <_>
          <internalNodes>
            0 -1 1200 3.6638051271438599e-02</internalNodes>
          <leafValues>
            4.0622379630804062e-02 -8.3341985940933228e-01</leafValues></_>
        <_>
          <internalNodes>
            0 -1 301 -1.4526544511318207e-01</internalNodes>
          <leafValues>
            -6.8519133329391479e-01 2.6365108788013458e-02</leafValues></_>
        <_>
          <internalNodes>
            0 -1 195 1.8533425405621529e-02</internalNodes>
          <leafValues>
            -7.2462983429431915e-02 3.4506380558013916e-01</leafValues></_>
        <_>
          <internalNodes>
            0 -1 1011 -1.9442098215222359e-02</internalNodes>
          <leafValues>
            -6.8071126937866211e-01 3.5579074174165726e-02</leafValues></_>
        <_>
          <internalNodes>
            0 -1 228 -1.1485693976283073e-03</internalNodes>
          <leafValues>
            2.2005318105220795e-01 -1.0699921846389771e-01</leafValues></_>
        <_>
          <internalNodes>
            0 -1 719 1.6405857168138027e-03</internalNodes>
          <leafValues>
            -1.3008010387420654e-01 1.6713681817054749e-01</leafValues></_>
        <_>
          <internalNodes>
            0 -1 383 1.9395120441913605e-02</internalNodes>
          <leafValues>
            3.3881444483995438e-02 -7.1835041046142578e-01</leafValues></_>
        <_>
          <internalNodes>
            0 -1 1305 5.7545903837308288e-04</internalNodes>
          <leafValues>
            -1.0810305178165436e-01 2.1146114170551300e-01</leafValues></_>
        <_>
          <internalNodes>
            0 -1 805 5.8303410187363625e-03</internalNodes>
          <leafValues>
            -9.2802390456199646e-02 2.5669053196907043e-01</leafValues></_>
        <_>
          <internalNodes>
            0 -1 800 -2.9726384673267603e-04</internalNodes>
          <leafValues>
            1.9678999483585358e-01 -1.6576988995075226e-01</leafValues></_>
        <_>
          <internalNodes>
            0 -1 832 2.4970937520265579e-02</internalNodes>
          <leafValues>
            5.2768830209970474e-02 -5.4558348655700684e-01</leafValues></_>
        <_>
          <internalNodes>
            0 -1 794 -3.2385572791099548e-02</internalNodes>
          <leafValues>
            2.4212299287319183e-01 -1.0566820949316025e-01</leafValues></_>
        <_>
          <internalNodes>
            0 -1 432 -1.8658308545127511e-03</internalNodes>
          <leafValues>
            1.9325515627861023e-01 -1.2790250778198242e-01</leafValues></_>
        <_>
          <internalNodes>
            0 -1 538 2.9783032834529877e-02</internalNodes>
          <leafValues>
            -4.3574720621109009e-02 4.9573656916618347e-01</leafValues></_>
        <_>
          <internalNodes>
            0 -1 654 -1.5796814113855362e-03</internalNodes>
          <leafValues>
            2.5319510698318481e-01 -9.2512592673301697e-02</leafValues></_>
        <_>
          <internalNodes>
            0 -1 655 -1.0159973055124283e-02</internalNodes>
          <leafValues>
            -6.6932058334350586e-01 3.7049639970064163e-02</leafValues></_>
        <_>
          <internalNodes>
            0 -1 718 2.8039170429110527e-03</internalNodes>
          <leafValues>
            -1.0564867407083511e-01 2.2060267627239227e-01</leafValues></_>
        <_>
          <internalNodes>
            0 -1 715 -7.7018758747726679e-04</internalNodes>
          <leafValues>
            2.4258030951023102e-01 -1.1706870794296265e-01</leafValues></_>
        <_>
          <internalNodes>
            0 -1 1260 9.2533489805646241e-05</internalNodes>
          <leafValues>
            -1.6088593006134033e-01 1.5299703180789948e-01</leafValues></_>
        <_>
          <internalNodes>
            0 -1 266 1.3527004048228264e-03</internalNodes>
          <leafValues>
            -8.6841583251953125e-02 2.6832231879234314e-01</leafValues></_>
        <_>
          <internalNodes>
            0 -1 260 -8.9475326240062714e-04</internalNodes>
          <leafValues>
            2.1489089727401733e-01 -1.1852037161588669e-01</leafValues></_>
        <_>
          <internalNodes>
            0 -1 1332 -1.1710906401276588e-03</internalNodes>
          <leafValues>
            1.3759355247020721e-01 -1.6708640754222870e-01</leafValues></_>
        <_>
          <internalNodes>
            0 -1 695 -5.0699682906270027e-03</internalNodes>
          <leafValues>
            1.6920948028564453e-01 -1.3116341829299927e-01</leafValues></_>
        <_>
          <internalNodes>
            0 -1 712 -2.6624384336173534e-03</internalNodes>
          <leafValues>
            2.9362434148788452e-01 -9.3407899141311646e-02</leafValues></_>
        <_>
          <internalNodes>
            0 -1 1237 -3.5982602275907993e-03</internalNodes>
          <leafValues>
            2.3446826636791229e-01 -9.7813583910465240e-02</leafValues></_>
        <_>
          <internalNodes>
            0 -1 1196 -9.4340788200497627e-03</internalNodes>
          <leafValues>
            -7.7926218509674072e-01 3.0589053407311440e-02</leafValues></_>
        <_>
          <internalNodes>
            0 -1 776 1.2415564851835370e-03</internalNodes>
          <leafValues>
            -1.2822327017784119e-01 1.7019917070865631e-01</leafValues></_>
        <_>
          <internalNodes>
            0 -1 913 -7.2387664113193750e-04</internalNodes>
          <leafValues>
            1.9430772960186005e-01 -1.3924787938594818e-01</leafValues></_>
        <_>
          <internalNodes>
            0 -1 845 -5.0233088433742523e-02</internalNodes>
          <leafValues>
            -6.9724935293197632e-01 4.1663449257612228e-02</leafValues></_>
        <_>
          <internalNodes>
            0 -1 1017 -1.8854785710573196e-02</internalNodes>
          <leafValues>
            -6.3618212938308716e-01 2.8914975002408028e-02</leafValues></_>
        <_>
          <internalNodes>
            0 -1 449 -1.2817675247788429e-02</internalNodes>
          <leafValues>
            -2.5467932224273682e-01 8.9287586510181427e-02</leafValues></_>
        <_>
          <internalNodes>
            0 -1 160 -8.2923844456672668e-03</internalNodes>
          <leafValues>
            7.0322430133819580e-01 -3.3711433410644531e-02</leafValues></_>
        <_>
          <internalNodes>
            0 -1 1165 4.0708994492888451e-03</internalNodes>
          <leafValues>
            4.1157182306051254e-02 -6.1397063732147217e-01</leafValues></_>
        <_>
          <internalNodes>
            0 -1 441 6.1403242871165276e-03</internalNodes>
          <leafValues>
            -5.1546934992074966e-02 4.4501498341560364e-01</leafValues></_>
        <_>
          <internalNodes>
            0 -1 900 8.1176345702260733e-04</internalNodes>
          <leafValues>
            -9.6971303224563599e-02 2.2919343411922455e-01</leafValues></_>
        <_>
          <internalNodes>
            0 -1 902 -1.2855728855356574e-03</internalNodes>
          <leafValues>
            2.2114464640617371e-01 -1.1547958850860596e-01</leafValues></_>
        <_>
          <internalNodes>
            0 -1 780 -1.2310355901718140e-02</internalNodes>
          <leafValues>
            -5.3715533018112183e-01 4.3879237025976181e-02</leafValues></_></weakClassifiers></_>
    <!-- stage 10 -->
    <_>
      <maxWeakCount>67</maxWeakCount>
      <stageThreshold>-6.5323013067245483e-01</stageThreshold>
      <weakClassifiers>
        <_>
          <internalNodes>
            0 -1 282 5.6075355969369411e-03</internalNodes>
          <leafValues>
            2.2210952639579773e-01 5.4669260978698730e-01</leafValues></_>
        <_>
          <internalNodes>
            0 -1 319 -2.0344160497188568e-02</internalNodes>
          <leafValues>
            2.1990726888179779e-01 -1.0773939639329910e-01</leafValues></_>
        <_>
          <internalNodes>
            0 -1 1136 2.6884742546826601e-03</internalNodes>
          <leafValues>
            3.7002187222242355e-02 -6.9128715991973877e-01</leafValues></_>
        <_>
          <internalNodes>
            0 -1 500 1.4332305872812867e-03</internalNodes>
          <leafValues>
            -1.2606997787952423e-01 1.8603228032588959e-01</leafValues></_>
        <_>
          <internalNodes>
            0 -1 1309 -8.0660283565521240e-03</internalNodes>
          <leafValues>
            6.8839573860168457e-01 -6.2596485018730164e-02</leafValues></_>
        <_>
          <internalNodes>
            0 -1 229 4.7295256517827511e-03</internalNodes>
          <leafValues>
            -1.0281264781951904e-01 2.2390457987785339e-01</leafValues></_>
        <_>
          <internalNodes>
            0 -1 1087 -1.2107412330806255e-03</internalNodes>
          <leafValues>
            1.3177452981472015e-01 -1.9980594515800476e-01</leafValues></_>
        <_>
          <internalNodes>
            0 -1 44 5.0072888843715191e-03</internalNodes>
          <leafValues>
            -5.3146548569202423e-02 4.8786196112632751e-01</leafValues></_>
        <_>
          <internalNodes>
            0 -1 1223 -4.7541600652039051e-03</internalNodes>
          <leafValues>
            -5.7465428113937378e-01 5.7324446737766266e-02</leafValues></_>
        <_>
          <internalNodes>
            0 -1 433 -2.8582001104950905e-02</internalNodes>
          <leafValues>
            -8.7129342555999756e-01 2.5413624942302704e-02</leafValues></_>
        <_>
          <internalNodes>
            0 -1 904 -6.2732538208365440e-03</internalNodes>
          <leafValues>
            -5.2479714155197144e-01 3.3482242375612259e-02</leafValues></_>
        <_>
          <internalNodes>
            0 -1 247 -7.6256319880485535e-02</internalNodes>
          <leafValues>
            -5.0688463449478149e-01 2.3709250614047050e-02</leafValues></_>
        <_>
          <internalNodes>
            0 -1 440 -3.0397480726242065e-01</internalNodes>
          <leafValues>
            -6.9763457775115967e-01 2.7519756928086281e-02</leafValues></_>
        <_>
          <internalNodes>
            0 -1 710 -6.7679360508918762e-02</internalNodes>
          <leafValues>
            -7.1050453186035156e-01 2.6695327833294868e-02</leafValues></_>
        <_>
          <internalNodes>
            0 -1 858 -5.0138561055064201e-03</internalNodes>
          <leafValues>
            1.5718513727188110e-01 -1.3272841274738312e-01</leafValues></_>
        <_>
          <internalNodes>
            0 -1 191 -1.3352023437619209e-02</internalNodes>
          <leafValues>
            2.0886087417602539e-01 -9.3119710683822632e-02</leafValues></_>
        <_>
          <internalNodes>
            0 -1 1088 2.5692719966173172e-02</internalNodes>
          <leafValues>
            4.0674764662981033e-02 -4.4678395986557007e-01</leafValues></_>
        <_>
          <internalNodes>
            0 -1 1055 5.8187907561659813e-03</internalNodes>
          <leafValues>
            3.0600182712078094e-02 -6.4883869886398315e-01</leafValues></_>
        <_>
          <internalNodes>
            0 -1 370 8.6229052394628525e-03</internalNodes>
          <leafValues>
            -1.2896381318569183e-01 1.7478431761264801e-01</leafValues></_>
        <_>
          <internalNodes>
            0 -1 975 -1.4917938970029354e-03</internalNodes>
          <leafValues>
            2.8176105022430420e-01 -8.8535562157630920e-02</leafValues></_>
        <_>
          <internalNodes>
            0 -1 526 -4.5677307061851025e-03</internalNodes>
          <leafValues>
            -6.3741099834442139e-01 3.5923060029745102e-02</leafValues></_>
        <_>
          <internalNodes>
            0 -1 808 -1.1281844228506088e-02</internalNodes>
          <leafValues>
            -6.5473932027816772e-01 3.0571995303034782e-02</leafValues></_>
        <_>
          <internalNodes>
            0 -1 198 -3.0742838978767395e-02</internalNodes>
          <leafValues>
            -7.3913526535034180e-01 2.5663170963525772e-02</leafValues></_>
        <_>
          <internalNodes>
            0 -1 315 5.4278378374874592e-03</internalNodes>
          <leafValues>
            -8.4008976817131042e-02 2.5527814030647278e-01</leafValues></_>
        <_>
          <internalNodes>
            0 -1 428 6.9016488268971443e-03</internalNodes>
          <leafValues>
            -1.2374834716320038e-01 2.7410677075386047e-01</leafValues></_>
        <_>
          <internalNodes>
            0 -1 1148 1.1859627440571785e-02</internalNodes>
          <leafValues>
            4.4809471815824509e-02 -5.9868633747100830e-01</leafValues></_>
        <_>
          <internalNodes>
            0 -1 962 -2.9971029609441757e-02</internalNodes>
          <leafValues>
            -5.5398482084274292e-01 3.5730890929698944e-02</leafValues></_>
        <_>
          <internalNodes>
            0 -1 471 -2.7511388063430786e-02</internalNodes>
          <leafValues>
            -5.3918063640594482e-01 3.4176703542470932e-02</leafValues></_>
        <_>
          <internalNodes>
            0 -1 205 -6.2157297506928444e-03</internalNodes>
          <leafValues>
            1.8974861502647400e-01 -1.0516857355833054e-01</leafValues></_>
        <_>
          <internalNodes>
            0 -1 611 -4.2890153825283051e-02</internalNodes>
          <leafValues>
            -7.0285868644714355e-01 3.0272018164396286e-02</leafValues></_>
        <_>
          <internalNodes>
            0 -1 1154 1.8198847537860274e-03</internalNodes>
          <leafValues>
            -1.0336039960384369e-01 1.8338425457477570e-01</leafValues></_>
        <_>
          <internalNodes>
            0 -1 790 -6.4426381140947342e-03</internalNodes>
          <leafValues>
            2.5435137748718262e-01 -8.7924465537071228e-02</leafValues></_>
        <_>
          <internalNodes>
            0 -1 1049 -2.0086951553821564e-03</internalNodes>
          <leafValues>
            2.1027933061122894e-01 -1.1384087800979614e-01</leafValues></_>
        <_>
          <internalNodes>
            0 -1 897 4.6667076647281647e-02</internalNodes>
          <leafValues>
            2.8008647263050079e-02 -8.2915294170379639e-01</leafValues></_>
        <_>
          <internalNodes>
            0 -1 361 3.9801094681024551e-02</internalNodes>
          <leafValues>
            -4.4165857136249542e-02 4.6002808213233948e-01</leafValues></_>
        <_>
          <internalNodes>
            0 -1 262 -3.1843760516494513e-03</internalNodes>
          <leafValues>
            2.0774368941783905e-01 -1.1409567296504974e-01</leafValues></_>
        <_>
          <internalNodes>
            0 -1 152 -2.8989274054765701e-02</internalNodes>
          <leafValues>
            -5.8124375343322754e-01 4.3180376291275024e-02</leafValues></_>
        <_>
          <internalNodes>
            0 -1 1081 -4.3215760961174965e-03</internalNodes>
          <leafValues>
            -6.2705314159393311e-01 2.8064139187335968e-02</leafValues></_>
        <_>
          <internalNodes>
            0 -1 223 -1.9228721503168344e-03</internalNodes>
          <leafValues>
            2.0090350508689880e-01 -1.0369123518466949e-01</leafValues></_>
        <_>
          <internalNodes>
            0 -1 359 -1.8297753995284438e-03</internalNodes>
          <leafValues>
            1.7290541529655457e-01 -1.2027794867753983e-01</leafValues></_>
        <_>
          <internalNodes>
            0 -1 466 -5.3208414465188980e-03</internalNodes>
          <leafValues>
            2.0613729953765869e-01 -1.0851018130779266e-01</leafValues></_>
        <_>
          <internalNodes>
            0 -1 1329 -3.6072019487619400e-02</internalNodes>
          <leafValues>
            3.0460500717163086e-01 -6.4409866929054260e-02</leafValues></_>
        <_>
          <internalNodes>
            0 -1 1414 2.8768382035195827e-03</internalNodes>
          <leafValues>
            -1.2551285326480865e-01 2.0876994729042053e-01</leafValues></_>
        <_>
          <internalNodes>
            0 -1 1328 -6.4427062869071960e-02</internalNodes>
          <leafValues>
            -5.5300378799438477e-01 4.0545649826526642e-02</leafValues></_>
        <_>
          <internalNodes>
            0 -1 581 2.8380014002323151e-02</internalNodes>
          <leafValues>
            3.3253159373998642e-02 -5.6464076042175293e-01</leafValues></_>
        <_>
          <internalNodes>
            0 -1 600 -2.4561148136854172e-02</internalNodes>
          <leafValues>
            -5.6053751707077026e-01 3.4543924033641815e-02</leafValues></_>
        <_>
          <internalNodes>
            0 -1 552 -1.0381740517914295e-02</internalNodes>
          <leafValues>
            -5.1178389787673950e-01 3.4679230302572250e-02</leafValues></_>
        <_>
          <internalNodes>
            0 -1 688 -6.7911199294030666e-03</internalNodes>
          <leafValues>
            1.6383698582649231e-01 -1.4781621098518372e-01</leafValues></_>
        <_>
          <internalNodes>
            0 -1 568 -2.0294819027185440e-02</internalNodes>
          <leafValues>
            2.1990409493446350e-01 -1.0875678062438965e-01</leafValues></_>
        <_>
          <internalNodes>
            0 -1 1184 -7.5308196246623993e-03</internalNodes>
          <leafValues>
            2.6660618185997009e-01 -1.0899066925048828e-01</leafValues></_>
        <_>
          <internalNodes>
            0 -1 724 -2.6758920401334763e-02</internalNodes>
          <leafValues>
            -3.9043825864791870e-01 6.8892583250999451e-02</leafValues></_>
        <_>
          <internalNodes>
            0 -1 130 -4.0389010682702065e-03</internalNodes>
          <leafValues>
            1.8014289438724518e-01 -1.0649566352367401e-01</leafValues></_>
        <_>
          <internalNodes>
            0 -1 454 4.3399510905146599e-03</internalNodes>
          <leafValues>
            5.4390363395214081e-02 -3.7277618050575256e-01</leafValues></_>
        <_>
          <internalNodes>
            0 -1 1312 -1.0591383092105389e-02</internalNodes>
          <leafValues>
            1.4993442595005035e-01 -1.3280066847801208e-01</leafValues></_>
        <_>
          <internalNodes>
            0 -1 89 -3.4179897047579288e-03</internalNodes>
          <leafValues>
            4.8756849765777588e-01 -4.4056054204702377e-02</leafValues></_>
        <_>
          <internalNodes>
            0 -1 666 1.2237330898642540e-02</internalNodes>
          <leafValues>
            2.7680944651365280e-02 -8.3493179082870483e-01</leafValues></_>
        <_>
          <internalNodes>
            0 -1 1018 2.1582860499620438e-02</internalNodes>
          <leafValues>
            4.6066641807556152e-02 -3.9346617460250854e-01</leafValues></_>
        <_>
          <internalNodes>
            0 -1 81 2.7836406603455544e-02</internalNodes>
          <leafValues>
            -7.7473565936088562e-02 2.6660647988319397e-01</leafValues></_>
        <_>
          <internalNodes>
            0 -1 82 -2.7560934424400330e-02</internalNodes>
          <leafValues>
            1.8848361074924469e-01 -1.3388815522193909e-01</leafValues></_>
        <_>
          <internalNodes>
            0 -1 518 -2.3521822877228260e-03</internalNodes>
          <leafValues>
            2.2001162171363831e-01 -1.0239155590534210e-01</leafValues></_>
        <_>
          <internalNodes>
            0 -1 512 3.7570176646113396e-03</internalNodes>
          <leafValues>
            -9.8239280283451080e-02 2.2012612223625183e-01</leafValues></_>
        <_>
          <internalNodes>
            0 -1 582 -1.1786330491304398e-02</internalNodes>
          <leafValues>
            2.3786553740501404e-01 -9.0580411255359650e-02</leafValues></_>
        <_>
          <internalNodes>
            0 -1 476 -3.4734006971120834e-02</internalNodes>
          <leafValues>
            -6.4844268560409546e-01 3.2556872814893723e-02</leafValues></_>
        <_>
          <internalNodes>
            0 -1 1213 -8.8080111891031265e-03</internalNodes>
          <leafValues>
            -7.7205604314804077e-01 2.0743351429700851e-02</leafValues></_>
        <_>
          <internalNodes>
            0 -1 1143 -8.3950767293572426e-03</internalNodes>
          <leafValues>
            -6.7313843965530396e-01 2.5359282270073891e-02</leafValues></_>
        <_>
          <internalNodes>
            0 -1 1248 -7.4881728505715728e-04</internalNodes>
          <leafValues>
            2.1807950735092163e-01 -1.0599024593830109e-01</leafValues></_>
        <_>
          <internalNodes>
            0 -1 413 2.3680455982685089e-02</internalNodes>
          <leafValues>
            -6.6327363252639771e-02 3.0330008268356323e-01</leafValues></_></weakClassifiers></_>
    <!-- stage 11 -->
    <_>
      <maxWeakCount>73</maxWeakCount>
      <stageThreshold>-6.1239576339721680e-01</stageThreshold>
      <weakClassifiers>
        <_>
          <internalNodes>
            0 -1 1287 3.3619171008467674e-03</internalNodes>
          <leafValues>
            3.7160971760749817e-01 -3.4161490201950073e-01</leafValues></_>
        <_>
          <internalNodes>
            0 -1 210 4.7340061515569687e-02</internalNodes>
          <leafValues>
            -3.3814996480941772e-02 5.9450477361679077e-01</leafValues></_>
        <_>
          <internalNodes>
            0 -1 210 4.7164119780063629e-02</internalNodes>
          <leafValues>
            1.3532704906538129e-03 -9.6626824140548706e-01</leafValues></_>
        <_>
          <internalNodes>
            0 -1 210 4.6352785080671310e-02</internalNodes>
          <leafValues>
            2.7417672798037529e-02 7.9503482580184937e-01</leafValues></_>
        <_>
          <internalNodes>
            0 -1 210 4.6297393739223480e-02</internalNodes>
          <leafValues>
            -2.7985768392682076e-02 -9.5551788806915283e-01</leafValues></_>
        <_>
          <internalNodes>
            0 -1 210 4.5998640358448029e-02</internalNodes>
          <leafValues>
            2.7728363871574402e-02 8.4796416759490967e-01</leafValues></_>
        <_>
          <internalNodes>
            0 -1 210 4.5521922409534454e-02</internalNodes>
          <leafValues>
            -2.7466384693980217e-02 -9.4725525379180908e-01</leafValues></_>
        <_>
          <internalNodes>
            0 -1 210 4.5337941497564316e-02</internalNodes>
          <leafValues>
            2.8072474524378777e-02 8.7410020828247070e-01</leafValues></_>
        <_>
          <internalNodes>
            0 -1 302 -5.9964805841445923e-02</internalNodes>
          <leafValues>
            2.6725208759307861e-01 -9.6117742359638214e-02</leafValues></_>
        <_>
          <internalNodes>
            0 -1 1006 -5.8560003526508808e-04</internalNodes>
          <leafValues>
            1.4314351975917816e-01 -1.6694919764995575e-01</leafValues></_>
        <_>
          <internalNodes>
            0 -1 668 5.7971822097897530e-03</internalNodes>
          <leafValues>
            4.7625042498111725e-02 -6.1725676059722900e-01</leafValues></_>
        <_>
          <internalNodes>
            0 -1 354 5.6495025753974915e-02</internalNodes>
          <leafValues>
            -1.3765951991081238e-01 1.6456811130046844e-01</leafValues></_>
        <_>
          <internalNodes>
            0 -1 726 5.4658022709190845e-03</internalNodes>
          <leafValues>
            -1.3174083828926086e-01 1.8806816637516022e-01</leafValues></_>
        <_>
          <internalNodes>
            0 -1 517 3.1398530118167400e-03</internalNodes>
          <leafValues>
            5.8453485369682312e-02 -3.8765066862106323e-01</leafValues></_>
        <_>
          <internalNodes>
            0 -1 861 1.8560595810413361e-02</internalNodes>
          <leafValues>
            3.6421813070774078e-02 -7.6368105411529541e-01</leafValues></_>
        <_>
          <internalNodes>
            0 -1 517 -6.0972035862505436e-03</internalNodes>
          <leafValues>
            -6.1314529180526733e-01 3.4106340259313583e-02</leafValues></_>
        <_>
          <internalNodes>
            0 -1 1203 7.3638174217194319e-04</internalNodes>
          <leafValues>
            -1.1328145116567612e-01 1.8936352431774139e-01</leafValues></_>
        <_>
          <internalNodes>
            0 -1 1210 2.2499784245155752e-04</internalNodes>
          <leafValues>
            -1.5711198747158051e-01 1.5220552682876587e-01</leafValues></_>
        <_>
          <internalNodes>
            0 -1 994 -1.9887972157448530e-03</internalNodes>
          <leafValues>
            2.3782485723495483e-01 -1.0921110212802887e-01</leafValues></_>
        <_>
          <internalNodes>
            0 -1 986 7.2183064185082912e-04</internalNodes>
          <leafValues>
            -1.1275130510330200e-01 2.4829114973545074e-01</leafValues></_>
        <_>
          <internalNodes>
            0 -1 1082 6.3895247876644135e-03</internalNodes>
          <leafValues>
            2.9231477528810501e-02 -7.0166897773742676e-01</leafValues></_>
        <_>
          <internalNodes>
            0 -1 1429 -1.2774603441357613e-02</internalNodes>
          <leafValues>
            5.1565569639205933e-01 -4.6032261103391647e-02</leafValues></_>
        <_>
          <internalNodes>
            0 -1 1135 7.9589011147618294e-03</internalNodes>
          <leafValues>
            3.9672549813985825e-02 -6.1880367994308472e-01</leafValues></_>
        <_>
          <internalNodes>
            0 -1 442 7.7268090099096298e-03</internalNodes>
          <leafValues>
            -8.1963822245597839e-02 2.7450394630432129e-01</leafValues></_>
        <_>
          <internalNodes>
            0 -1 325 -3.1905991490930319e-03</internalNodes>
          <leafValues>
